svm_type c_svc
kernel_type rbf
gamma 2.8
nr_class 2
total_sv 1477
rho 5.68513
label 1 0
probA -1.46562
probB -0.0623458
nr_sv 739 738
SV
40 1:0.0513619 2:0.0647156 3:0.249506 4:0.135748 5:0.471116 6:0.595219 7:0.0742513 
40 1:0.032622 2:0.0692993 3:0.151401 5:0.445058 6:0.821552 7:0.000196835 
40 1:0.234073 2:0.0715959 3:0.163986 4:0.0562281 5:0.450834 6:0.769179 7:0.000193719 
40 1:0.0139187 2:0.0878451 3:0.276961 5:0.482353 6:0.716984 7:0.000231108 
40 2:0.103012 3:0.272845 5:0.628986 6:0.662419 7:2.54702e-05 
3.322961584989566 1:0.061777 2:0.0817581 3:0.254464 4:0.135748 5:0.538624 6:0.663614 7:0.0364812 
1.026356013911013 1:0.569108 2:0.0812362 3:0.165035 4:0.353698 5:0.676833 6:0.684697 7:0.00172036 
40 1:0.587411 2:0.0490339 3:0.155286 4:0.0562281 5:0.555088 6:0.715594 7:7.2203e-05 
40 1:0.0369266 2:0.124975 3:0.23588 5:0.51697 6:0.781497 7:0.000442961 
4.092566999543244 1:0.540975 2:0.0666917 3:0.293297 5:0.647384 6:0.796875 7:9.89108e-06 
34.52578870090498 1:0.423587 2:0.131732 3:0.319225 5:0.503324 6:0.757487 7:6.59721e-05 
40 1:0.00593127 2:0.15234 3:0.321499 5:0.502905 6:0.741106 7:3.17004e-05 
13.96990826832637 1:0.318064 2:0.13217 3:0.36272 5:0.488095 6:0.773669 7:2.23535e-05 
40 1:0.553961 2:0.12016 3:0.376689 5:0.509708 6:0.726686 7:1.61223e-05 
7.549714793386027 1:0.651122 2:0.112541 3:0.406709 4:0.0562281 5:0.560947 6:0.746387 7:6.28563e-05 
40 1:0.337784 2:0.074156 3:0.161934 4:0.0993742 5:0.492253 6:0.779711 7:0.000181265 
40 1:0.0167332 2:0.133554 3:0.235112 5:0.620172 6:0.707124 7:0.000196844 
40 1:0.0299267 2:0.095315 3:0.270042 4:0.0562281 5:0.541492 6:0.704904 7:0.000399374 
3.503658839328901 1:0.390434 2:0.0821708 3:0.24919 5:0.540399 6:0.745133 7:1.61239e-05 
40 1:0.338928 2:0.0459407 3:0.266161 5:0.529764 6:0.742088 7:1.3008e-05 
40 2:0.109351 3:0.300474 5:0.524527 6:0.683824 7:4.72826e-05 
40 1:0.0583928 2:0.124941 3:0.335672 4:0.0562281 5:0.542737 6:0.620028 7:0.000355754 
40 1:0.216269 2:0.0872888 3:0.170936 4:0.0562281 5:0.51921 6:0.764583 7:0.000517709 
40 1:0.216092 2:0.0656211 3:0.303052 5:0.54858 6:0.821128 7:1.92369e-05 
40 1:0.278902 2:0.0504862 3:0.309988 5:0.497696 6:0.826275 7:9.89053e-06 
40 1:0.0533184 2:0.129459 3:0.348617 5:0.470923 6:0.719143 7:0.000224857 
40 1:0.205167 2:0.0487382 3:0.368081 5:0.589599 6:0.814297 7:3.16988e-05 
40 1:0.0360001 2:0.121696 3:0.374941 5:0.393923 6:0.827231 7:2.23524e-05 
40 1:0.163895 2:0.119171 3:0.3807 5:0.424728 6:0.824344 7:5.3507e-05 
40 1:0.217852 2:0.0470356 3:0.526498 5:0.466489 6:0.830411 7:9.89053e-06 
40 1:0.063335 2:0.0978831 3:0.27444 4:0.0562281 5:0.510388 6:0.669617 7:0.0111021 
40 1:0.239456 2:0.0942486 3:0.203364 4:0.0562281 5:0.502455 6:0.756231 7:0.00147743 
40 1:0.232399 2:0.0940612 3:0.278758 5:0.461324 6:0.798768 7:1.30077e-05 
40 1:0.268689 2:0.111405 3:0.308151 4:0.0562281 5:0.453872 6:0.806723 7:2.85866e-05 
40 1:0.281188 2:0.112339 3:0.333045 5:0.44506 6:0.776636 7:1.92392e-05 
40 1:0.00293231 2:0.0748178 3:0.176995 5:0.53608 6:0.831659 7:0.000274743 
40 1:0.191586 2:0.0639949 3:0.187402 5:0.517219 6:0.791042 7:2.85876e-05 
40 1:0.216548 2:0.0555126 3:0.260853 4:0.0562281 5:0.49196 6:0.743345 7:7.22099e-05 
40 1:0.156296 2:0.035384 3:0.256115 4:0.0562281 5:0.504928 6:0.78224 7:3.17033e-05 
40 1:0.217409 2:0.0828419 3:0.261258 5:0.4521 6:0.799931 7:4.72829e-05 
40 1:0.143806 2:0.0442715 3:0.270789 4:0.0562281 5:0.519633 6:0.784088 7:5.35148e-05 
40 1:0.208307 2:0.0639202 3:0.274034 5:0.581582 6:0.782631 7:2.23558e-05 
40 1:0.281149 2:0.0672025 3:0.284874 4:0.0562281 5:0.4297 6:0.769229 7:6.59783e-05 
40 1:0.0106021 2:0.177273 3:0.320758 4:0.167794 5:0.646822 6:0.8684 7:0.0002467 
40 1:0.282271 2:0.0619803 3:0.321661 5:0.42709 6:0.781639 7:1.92399e-05 
40 1:0.229621 2:0.0435663 3:0.330753 5:0.49236 6:0.80118 7:3.79352e-05 
40 1:0.284938 2:0.0483072 3:0.355962 5:0.497418 6:0.753944 7:1.6124e-05 
40 1:0.0217479 2:0.132575 3:0.390842 5:0.456466 6:0.769386 7:1.6124e-05 
33.22514318012873 1:0.192997 2:0.0678619 3:0.395709 4:0.135748 5:0.432975 6:0.80019 7:2.23558e-05 
40 1:0.221491 2:0.0725971 3:0.411662 5:0.492721 6:0.793236 7:2.54717e-05 
40 1:0.183878 2:0.0314739 3:0.420653 5:0.442911 6:0.834304 7:2.23558e-05 
40 1:0.225494 2:0.0849981 3:0.425884 5:0.453452 6:0.78797 7:2.85876e-05 
40 2:0.116849 3:0.427345 5:0.527299 6:0.76937 7:9.89223e-06 
40 1:0.281387 2:0.0786647 3:0.444158 5:0.396945 6:0.802771 7:3.17033e-05 
9.454349070019468 1:0.366682 2:0.0887523 3:0.439512 4:0.135748 5:0.356558 6:0.801298 7:3.48194e-05 
40 1:0.176348 2:0.10131 3:0.458169 5:0.453532 6:0.834433 7:1.6124e-05 
40 1:0.361175 2:0.0844674 3:0.45871 5:0.298034 6:0.800518 7:2.54717e-05 
40 1:0.222507 2:0.0635999 3:0.480882 5:0.468298 6:0.799695 7:2.23558e-05 
40 1:0.179072 2:0.052078 3:0.485374 4:0.0562281 5:0.448354 6:0.811612 7:3.79352e-05 
40 1:0.50038 2:0.0805001 3:0.480882 5:0.353916 6:0.791808 7:9.89223e-06 
40 1:0.19621 2:0.028547 3:0.507041 4:0.0562281 5:0.474989 6:0.801434 7:2.23558e-05 
40 1:0.252363 2:0.070956 3:0.50765 5:0.376147 6:0.77702 7:1.6124e-05 
6.469973567285025 1:0.244005 2:0.0524487 3:0.517992 5:0.473242 6:0.791616 7:2.23558e-05 
40 1:0.271539 2:0.0494489 3:0.547194 5:0.47706 6:0.74134 7:2.23558e-05 
40 1:0.328805 2:0.0736781 3:0.194916 4:0.0562281 5:0.498225 6:0.789708 7:0.000801241 
40 1:0.239063 2:0.0712461 3:0.195424 4:0.0562281 5:0.476085 6:0.79145 7:0.000302753 
40 1:0.0390006 2:0.0954823 3:0.294906 4:0.0562281 5:0.537454 6:0.727253 7:0.000433606 
40 1:0.0128348 2:0.128453 3:0.32299 4:0.0562281 5:0.596796 6:0.636994 7:0.000187478 
40 1:0.00952463 2:0.185171 3:0.330842 5:0.660036 6:0.686282 7:0.000424258 
22.57506602332509 1:0.244144 2:0.0753696 3:0.167806 4:0.135748 5:0.530994 6:0.758643 7:0.000365066 
40 1:0.0207791 2:0.106166 3:0.205862 5:0.454946 6:0.782937 7:0.000103358 
40 1:0.248009 2:0.103846 3:0.209641 4:0.0562281 5:0.53148 6:0.772236 7:5.66247e-05 
40 1:0.274148 2:0.0638512 3:0.243067 5:0.524111 6:0.773982 7:2.54689e-05 
40 1:0.210864 2:0.0540502 3:0.263537 5:0.60917 6:0.808345 7:2.85845e-05 
40 1:0.31951 2:0.109705 3:0.278758 5:0.484518 6:0.756824 7:2.85845e-05 
40 1:0.0137355 2:0.159787 3:0.300895 5:0.581484 6:0.683334 7:0.000175017 
40 1:0.293852 2:0.0957533 3:0.294504 5:0.523126 6:0.767216 7:1.30066e-05 
40 1:0.243989 2:0.123674 3:0.3414 4:0.0562281 5:0.345929 6:0.813208 7:0.000150092 
40 1:0.38959 2:0.101439 3:0.340884 5:0.391518 6:0.803782 7:3.17001e-05 
40 1:0.289929 2:0.119811 3:0.345271 4:0.135748 5:0.41664 6:0.770238 7:0.00010959 
40 1:0.327812 2:0.120396 3:0.35556 4:0.0562281 5:0.393328 6:0.795359 7:0.000112705 
40 1:0.551053 2:0.109292 3:0.359588 5:0.394265 6:0.781529 7:7.53182e-05 
40 1:0.477476 2:0.109943 3:0.358014 5:0.472232 6:0.763482 7:2.85845e-05 
40 1:0.223938 2:0.12693 3:0.35329 5:0.333913 6:0.819154 7:1.61222e-05 
40 1:0.332448 2:0.107304 3:0.366412 5:0.443557 6:0.772702 7:2.23533e-05 
40 1:0.067898 2:0.115367 3:0.268692 4:0.0562281 5:0.526208 6:0.753833 7:0.000692208 
40 1:0.037268 2:0.103982 3:0.254149 4:0.0562281 5:0.57207 6:0.730988 7:0.000153209 
40 1:0.354033 2:0.106249 3:0.283889 5:0.437777 6:0.817287 7:3.79316e-05 
8.229419437742287 1:0.0272423 2:0.204607 3:0.33551 4:0.0562281 5:0.786236 6:0.679376 7:0.000284064 
40 1:0.154485 2:0.134729 3:0.349268 5:0.508164 6:0.790723 7:0.000221752 
40 1:0.451265 2:0.10554 3:0.3481 5:0.466126 6:0.764665 7:5.66251e-05 
40 2:0.141328 3:0.390259 5:0.410561 6:0.782507 7:1.92379e-05 
40 1:0.263998 2:0.119598 3:0.436238 5:0.382098 6:0.823859 7:5.35096e-05 
40 1:0.256638 2:0.118085 3:0.446378 5:0.43897 6:0.79925 7:3.17004e-05 
40 1:0.500284 2:0.102982 3:0.288608 5:0.424461 6:0.794597 7:3.793e-05 
40 1:0.20632 2:0.0468121 3:0.454137 5:0.492803 6:0.81728 7:6.77513e-06 
40 1:0.168467 2:0.0862144 3:0.463233 5:0.518378 6:0.827923 7:2.23526e-05 
40 1:0.105063 2:0.0824682 3:0.226072 4:0.135748 5:0.529456 6:0.650417 7:0.0576023 
40 1:0.218976 2:0.0784544 3:0.175418 4:0.0562281 5:0.539512 6:0.80981 7:0.000346396 
40 1:0.0217927 2:0.110026 3:0.279426 5:0.600236 6:0.70563 7:0.000732756 
40 2:0.145723 3:0.297635 5:0.506854 6:0.762744 7:3.79339e-05 
40 1:0.0694867 2:0.132929 3:0.344044 5:0.485287 6:0.800687 7:5.97444e-05 
40 1:0.213681 2:0.0845698 3:0.205768 5:0.472561 6:0.782219 7:5.6626e-05 
40 1:0.241708 2:0.0848697 3:0.242399 5:0.474323 6:0.826268 7:3.17007e-05 
40 1:0.193476 2:0.0715782 3:0.283073 4:0.0562281 5:0.482346 6:0.835261 7:4.10478e-05 
40 1:0.253597 2:0.106753 3:0.287739 4:0.0562281 5:0.463132 6:0.795635 7:0.000115823 
40 1:0.00860515 2:0.148809 3:0.373172 5:0.69449 6:0.598344 7:0.000975742 
40 1:0.327413 2:0.106195 3:0.313192 5:0.354164 6:0.771236 7:3.17007e-05 
40 1:0.0670858 2:0.133234 3:0.40823 4:0.0562281 5:0.527339 6:0.664256 7:0.000897851 
40 1:0.199889 2:0.0624724 3:0.378675 5:0.448194 6:0.838217 7:6.77562e-06 
40 1:0.0297435 2:0.137625 3:0.4044 5:0.379975 6:0.789665 7:4.10478e-05 
40 1:0.2213 2:0.0606873 3:0.427345 5:0.586754 6:0.822309 7:6.77562e-06 
8.333008972597852 1:0.126432 2:0.0673215 3:0.240081 4:0.196765 5:0.535951 6:0.604357 7:0.128539 
40 1:0.0276457 2:0.110762 3:0.315496 5:0.636226 6:0.691072 7:0.000181265 
40 2:0.146408 3:0.335645 5:0.467051 6:0.774248 7:9.71362e-05 
40 2:0.14205 3:0.334751 5:0.547295 6:0.731173 7:5.03984e-05 
40 1:0.198995 2:0.0915868 3:0.347463 5:0.55647 6:0.809663 7:9.89213e-06 
40 2:0.144837 3:0.351147 5:0.56082 6:0.704829 7:9.89213e-06 
40 2:0.14697 3:0.357287 5:0.471701 6:0.736638 7:1.92397e-05 
40 1:0.060455 2:0.075362 3:0.169785 4:0.135748 5:0.448806 6:0.727269 7:0.00269259 
40 1:0.176957 2:0.0749337 3:0.138276 4:0.0562281 5:0.480054 6:0.807496 7:0.000175029 
40 1:0.0229075 2:0.111583 3:0.216253 4:0.0562281 5:0.535129 6:0.779366 7:0.000399367 
40 1:0.217211 2:0.0574456 3:0.194617 4:0.135748 5:0.505199 6:0.764764 7:3.79339e-05 
40 1:0.0814622 2:0.109128 3:0.239375 4:0.0562281 5:0.557754 6:0.795757 7:0.000280966 
36.99918803264629 1:0.335488 2:0.109212 3:0.237818 5:0.570865 6:0.826242 7:1.30077e-05 
40 1:0.269781 2:0.131091 3:0.261437 5:0.601282 6:0.844208 7:9.89187e-06 
40 1:0.100871 2:0.117252 3:0.26931 4:0.0562281 5:0.458848 6:0.800687 7:9.71339e-05 
40 1:0.216957 2:0.0636704 3:0.275259 5:0.613015 6:0.812184 7:4.41655e-05 
40 1:0.282935 2:0.112194 3:0.295554 5:0.479743 6:0.789872 7:9.89187e-06 
40 1:0.237718 2:0.0834059 3:0.303427 5:0.47551 6:0.83935 7:2.2355e-05 
40 1:0.353351 2:0.103433 3:0.306051 5:0.487155 6:0.851695 7:6.77605e-06 
40 1:0.00501876 2:0.145426 3:0.329873 5:0.613711 6:0.588412 7:3.79339e-05 
40 1:0.23832 2:0.0881179 3:0.379534 5:0.481864 6:0.800029 7:1.61234e-05 
40 1:0.0351961 2:0.0879336 3:0.172632 4:0.0562281 5:0.549732 6:0.794234 7:0.000402426 
40 1:0.0364665 2:0.0808565 3:0.161873 5:0.508219 6:0.765642 7:0.000146966 
40 1:0.0198569 2:0.110951 3:0.170125 5:0.396659 6:0.90703 7:6.9082e-05 
40 1:0.0371698 2:0.10299 3:0.175695 5:0.434616 6:0.860762 7:7.53129e-05 
40 1:0.0124935 2:0.0949652 3:0.188493 5:0.588519 6:0.735902 7:0.000143851 
40 1:0.0517563 2:0.148681 3:0.215389 4:0.0562281 5:0.451604 6:0.916055 7:0.000710848 
40 1:0.00966576 2:0.0938249 3:0.270104 5:0.581537 6:0.721835 7:0.000165658 
40 1:0.0347575 2:0.0972616 3:0.272551 4:0.0562281 5:0.590452 6:0.66251 7:0.000393081 
40 2:0.116024 3:0.260885 5:0.479154 6:0.862348 7:9.89014e-06 
40 1:0.0154213 2:0.209033 3:0.301016 4:0.0562281 5:0.678658 6:0.668669 7:0.00034012 
40 1:0.0244665 2:0.134406 3:0.293954 5:0.722492 6:0.603832 7:7.21975e-05 
40 2:0.112811 3:0.343068 5:0.477632 6:0.68576 7:1.61209e-05 
40 1:0.0135925 2:0.162841 3:0.349917 5:0.572459 6:0.669913 7:0.000146966 
40 1:0.0309195 2:0.100036 3:0.273469 5:0.625222 6:0.713783 7:0.000446081 
40 1:0.0144224 2:0.201923 3:0.258224 4:0.0562281 5:0.729115 6:0.788313 7:0.000293415 
40 1:0.0507679 2:0.120826 3:0.329527 4:0.0562281 5:0.560861 6:0.685667 7:0.000224871 
40 1:0.426544 2:0.0659386 3:0.181431 4:0.0562281 5:0.483404 6:0.828329 7:0.000131411 
40 1:0.26589 2:0.0425041 3:0.191066 4:0.167794 5:0.477627 6:0.857676 7:0.000489737 
40 1:0.374034 2:0.0953088 3:0.221036 4:0.0562281 5:0.417842 6:0.83074 7:0.000209307 
40 1:0.532062 2:0.0780303 3:0.217445 5:0.458043 6:0.812306 7:2.23556e-05 
40 1:0.306355 2:0.053537 3:0.220028 4:0.135748 5:0.459094 6:0.834172 7:2.85873e-05 
40 1:0.0725121 2:0.0943659 3:0.269396 4:0.0562281 5:0.429147 6:0.768571 7:0.00173296 
40 1:0.554389 2:0.0771447 3:0.223902 5:0.436686 6:0.827682 7:2.23556e-05 
40 1:0.0157132 2:0.181716 3:0.368271 5:0.631031 6:0.732521 7:0.000592559 
40 1:0.019837 2:0.137855 3:0.360914 4:0.0562281 5:0.564334 6:0.647022 7:0.000184381 
40 1:0.246171 2:0.114462 3:0.353803 4:0.0562281 5:0.375243 6:0.807737 7:1.92397e-05 
40 1:0.044338 2:0.162617 3:0.393299 4:0.0562281 5:0.501741 6:0.710471 7:0.000458576 
40 1:0.174354 2:0.109745 3:0.388323 5:0.507782 6:0.868487 7:3.17033e-05 
40 1:0.219426 2:0.0492744 3:0.397075 5:0.437951 6:0.839748 7:2.85873e-05 
40 1:0.255074 2:0.0536827 3:0.400704 5:0.460216 6:0.836577 7:3.17033e-05 
40 1:0.401375 2:0.114825 3:0.406703 5:0.388252 6:0.812585 7:5.97461e-05 
40 1:0.029143 2:0.150748 3:0.419355 5:0.508821 6:0.692468 7:0.000265393 
29.53020608263449 1:0.442039 2:0.0979858 3:0.444038 5:0.406033 6:0.796433 7:1.61239e-05 
40 1:0.61907 2:0.107932 3:0.471041 5:0.41946 6:0.801053 7:9.89213e-06 
4.633757892236976 1:0.257479 2:0.0381071 3:0.533601 5:0.527428 6:0.85717 7:1.92397e-05 
40 1:0.210954 2:0.073397 3:0.541394 5:0.42797 6:0.823525 7:3.79349e-05 
40 1:0.252322 2:0.065747 3:0.558051 5:0.535979 6:0.772824 7:2.54715e-05 
40 1:0.286065 2:0.122077 3:0.226241 4:0.167794 5:0.96355 6:0.812152 7:0.0018967 
3.139402948177043 1:0.241041 2:0.115106 3:0.234677 4:0.135748 5:0.860891 6:0.804704 7:0.00108883 
10.75380293383326 1:0.0467641 2:0.169395 3:0.366172 4:0.167794 5:0.919301 6:0.785985 7:0.00213298 
8.394486637218716 1:0.0713599 2:0.1345 3:0.38114 4:0.135748 5:0.951354 6:0.661297 7:0.00172342 
40 1:0.146421 2:0.127287 3:0.362336 5:0.54168 6:0.822782 7:4.7277e-05 
40 1:0.499075 2:0.118244 3:0.415423 4:0.0562281 5:0.679136 6:0.743647 7:5.66238e-05 
40 1:0.244665 2:0.146041 3:0.426706 5:0.460993 6:0.79604 7:9.89082e-06 
40 1:0.252362 2:0.0420047 3:0.436913 5:0.537506 6:0.889874 7:1.92374e-05 
40 1:0.284867 2:0.124953 3:0.474344 5:0.602675 6:0.803947 7:9.89082e-06 
15.28520467919193 1:0.517683 2:0.0893867 3:0.489845 5:0.53084 6:0.772777 7:1.61219e-05 
40 1:0.236893 2:0.0923063 3:0.500936 5:0.537263 6:0.827058 7:2.54685e-05 
40 1:0.514178 2:0.0835006 3:0.529599 4:0.0562281 5:0.622205 6:0.768184 7:4.10461e-05 
40 1:0.484691 2:0.0751211 3:0.540465 4:0.0562281 5:0.638458 6:0.766932 7:5.03928e-05 
40 1:0.201946 2:0.0844921 3:0.0512932 4:0.0562281 5:0.506733 6:0.807256 7:0.000224866 
40 1:0.0575621 2:0.100571 3:0.17633 4:0.0562281 5:0.527813 6:0.682845 7:0.000492805 
13.81876997277756 1:0.49363 2:0.10108 3:0.174184 4:0.0562281 5:0.559579 6:0.694901 7:0.000358835 
40 1:0.352547 2:0.05678 3:0.149502 5:0.49263 6:0.839707 7:9.89099e-06 
40 1:0.0217479 2:0.107265 3:0.163081 5:0.504683 6:0.796716 7:5.35089e-05 
40 1:0.0682021 2:0.0712489 3:0.233699 4:0.167794 5:0.476796 6:0.628675 7:0.107062 
40 1:0.343818 2:0.0724771 3:0.0941602 5:0.442336 6:0.839759 7:1.30067e-05 
40 1:0.204266 2:0.0654291 3:0.197787 4:0.0562281 5:0.458231 6:0.855295 7:0.000137631 
40 1:0.415642 2:0.0607952 3:0.205237 5:0.494957 6:0.852101 7:1.30067e-05 
40 1:0.265238 2:0.0465755 3:0.247552 5:0.433051 6:0.846329 7:1.92379e-05 
40 1:0.0576208 2:0.115293 3:0.285207 4:0.0562281 5:0.545051 6:0.67436 7:0.000623664 
40 1:0.403189 2:0.0992966 3:0.263277 5:0.397846 6:0.839817 7:6.77549e-06 
40 1:0.460487 2:0.0868231 3:0.283291 5:0.455292 6:0.83521 7:1.30067e-05 
40 1:0.0217479 2:0.160345 3:0.298301 5:0.439129 6:0.717008 7:2.54691e-05 
40 2:0.155239 3:0.297467 5:0.402605 6:0.785513 7:1.61223e-05 
40 1:0.028944 2:0.159826 3:0.326293 5:0.434486 6:0.70311 7:0.000112706 
40 1:0.295876 2:0.0760984 3:0.320191 5:0.459327 6:0.84355 7:2.23535e-05 
40 1:0.259677 2:0.0638998 3:0.326654 5:0.436676 6:0.799476 7:1.61223e-05 
40 1:0.0728507 2:0.153471 3:0.337078 5:0.529027 6:0.645036 7:5.97408e-05 
40 1:0.239871 2:0.0655575 3:0.424638 5:0.416351 6:0.871188 7:9.89108e-06 
9.609996306660705 1:0.260976 2:0.0536831 3:0.480927 5:0.414574 6:0.858407 7:1.61223e-05 
40 1:0.0180279 2:0.103821 3:0.299025 5:0.558402 6:0.715021 7:0.000234202 
40 1:0.188663 2:0.0950804 3:0.297467 5:0.566771 6:0.790628 7:1.61213e-05 
40 1:0.0366507 2:0.196041 3:0.350676 4:0.0562281 5:0.694236 6:0.701189 7:0.000963215 
40 1:0.032622 2:0.0943239 3:0.204602 5:0.55562 6:0.721313 7:0.000178122 
40 1:0.0276357 2:0.106211 3:0.217445 4:0.0562281 5:0.56823 6:0.68078 7:0.000215508 
40 1:0.0182683 2:0.121245 3:0.221037 4:0.0562281 5:0.620513 6:0.67736 7:0.000153199 
40 1:0.189368 2:0.101114 3:0.210384 5:0.54595 6:0.776331 7:3.16981e-05 
40 2:0.178723 3:0.241863 5:0.608011 6:0.683846 7:3.65951e-06 
40 1:0.00567338 2:0.124002 3:0.252647 5:0.562728 6:0.624176 7:6.90833e-05 
40 1:0.0503457 2:0.140266 3:0.276425 4:0.0562281 5:0.582092 6:0.570071 7:0.000293393 
40 1:0.0670453 2:0.145109 3:0.291143 5:0.425525 6:0.751188 7:4.41599e-05 
40 1:0.037889 2:0.113917 3:0.312115 4:0.0562281 5:0.497071 6:0.728248 7:0.000523979 
40 1:0.208853 2:0.095761 3:0.294902 5:0.494772 6:0.831466 7:0.000168791 
24.19728624977783 1:0.102035 2:0.134236 3:0.404866 4:0.167794 5:0.586658 6:0.542839 7:0.00346518 
40 1:0.0167955 2:0.128608 3:0.348438 5:0.53812 6:0.679858 7:0.000312112 
40 1:0.00652439 2:0.16877 3:0.411193 5:0.549679 6:0.535506 7:2.85854e-05 
40 1:0.030509 2:0.141113 3:0.433303 4:0.0562281 5:0.423743 6:0.707551 7:0.000231104 
40 1:0.010874 2:0.176274 3:0.427143 5:0.579238 6:0.525391 7:1.61227e-05 
40 1:0.040928 2:0.139836 3:0.443284 5:0.446096 6:0.650565 7:0.000209294 
40 1:0.0358406 2:0.0859677 3:0.189205 5:0.561361 6:0.842884 7:0.00026536 
40 1:0.060967 2:0.0890521 3:0.21072 4:0.0993742 5:0.554653 6:0.854124 7:0.000349477 
40 1:0.0217479 2:0.0955243 3:0.206253 5:0.451212 6:0.848508 7:3.48145e-05 
40 1:0.0118625 2:0.089555 3:0.289863 5:0.621827 6:0.709244 7:6.59695e-05 
40 1:0.00724932 2:0.0867134 3:0.286613 5:0.604181 6:0.754564 7:5.35073e-05 
40 1:0.0323786 2:0.167295 3:0.304113 5:0.648961 6:0.799659 7:0.000140741 
40 1:0.0130488 2:0.157651 3:0.373495 5:0.611567 6:0.73953 7:5.97382e-05 
40 1:0.0310685 2:0.164804 3:0.377635 5:0.588364 6:0.726454 7:6.28537e-05 
40 1:0.206147 2:0.0726853 3:0.417863 5:0.501172 6:0.841411 7:6.77513e-06 
40 1:0.218747 2:0.05065 3:0.480078 5:0.489454 6:0.822215 7:6.77513e-06 
40 1:0.198438 2:0.0477873 3:0.492212 4:0.0562281 5:0.473324 6:0.847578 7:5.03919e-05 
40 1:0.171396 2:0.0553193 3:0.511512 5:0.536789 6:0.837659 7:1.30061e-05 
40 1:0.226991 2:0.0614386 3:0.517266 5:0.466552 6:0.851629 7:1.92371e-05 
9.082009255803664 1:0.391463 2:0.0848953 3:0.524283 5:0.587291 6:0.857706 7:3.65964e-06 
40 1:0.0139809 2:0.125663 3:0.18311 5:0.470101 6:0.834067 7:8.46649e-05 
40 1:0.0809299 2:0.138538 3:0.286402 4:0.0993742 5:0.53914 6:0.833559 7:0.00113773 
40 1:0.0491971 2:0.138338 3:0.28007 4:0.0993742 5:0.512156 6:0.833516 7:0.00068597 
40 1:0.102571 2:0.143895 3:0.263487 4:0.0562281 5:0.545801 6:0.833972 7:0.000162554 
40 1:0.0370544 2:0.162033 3:0.286168 4:0.0993742 5:0.61788 6:0.833406 7:0.000520846 
40 1:0.119287 2:0.145216 3:0.277234 4:0.0562281 5:0.545024 6:0.833818 7:8.77803e-05 
40 1:0.0279616 2:0.213563 3:0.312471 5:0.654868 6:0.833199 7:0.000302755 
40 1:0.027185 2:0.150874 3:0.33762 5:0.481269 6:0.833592 7:3.48155e-05 
40 1:0.0321131 2:0.159784 3:0.354434 5:0.48127 6:0.83356 7:3.17001e-05 
40 1:0.0655851 2:0.0895147 3:0.249575 4:0.135748 5:0.540515 6:0.659565 7:0.0157004 
40 1:0.0466028 2:0.104873 3:0.180141 4:0.0562281 5:0.494879 6:0.826135 7:1.92384e-05 
40 1:0.238855 2:0.111593 3:0.208542 5:0.545003 6:0.853463 7:5.97422e-05 
40 1:0.0278113 2:0.174861 3:0.249893 4:0.0562281 5:0.703263 6:0.737132 7:0.00111907 
40 1:0.310541 2:0.159999 3:0.225256 5:0.635439 6:0.833468 7:8.77833e-05 
40 1:0.0676038 2:0.12857 3:0.261575 4:0.0562281 5:0.515811 6:0.816227 7:0.000262261 
40 2:0.122856 3:0.226013 5:0.46554 6:0.835784 7:2.54698e-05 
40 1:0.0148926 2:0.138122 3:0.293741 4:0.0562281 5:0.602022 6:0.725293 7:0.000284071 
40 1:0.327282 2:0.105243 3:0.28391 5:0.449121 6:0.821973 7:2.23541e-05 
40 1:0.0574218 2:0.153346 3:0.316396 4:0.0562281 5:0.577259 6:0.732195 7:0.000265377 
40 1:0.195732 2:0.147287 3:0.298204 5:0.509735 6:0.842972 7:6.77572e-06 
40 1:0.378091 2:0.11569 3:0.316396 5:0.453153 6:0.826018 7:2.85854e-05 
40 1:0.325388 2:0.101214 3:0.322244 5:0.412324 6:0.836885 7:2.23541e-05 
40 1:0.0176702 2:0.156317 3:0.335888 5:0.587891 6:0.744157 7:0.000146981 
40 1:0.093184 2:0.14149 3:0.340994 5:0.540801 6:0.722975 7:0.000131403 
40 1:0.0250938 2:0.149512 3:0.339386 5:0.54313 6:0.707388 7:3.79323e-05 
40 1:0.0206033 2:0.123962 3:0.350181 5:0.548066 6:0.733898 7:5.66264e-05 
40 1:0.231284 2:0.111691 3:0.364042 5:0.482386 6:0.808493 7:2.54698e-05 
40 1:0.287391 2:0.114884 3:0.369487 5:0.442847 6:0.85368 7:1.92384e-05 
40 1:0.14589 2:0.119881 3:0.365775 5:0.500402 6:0.818235 7:3.66003e-06 
40 1:0.228354 2:0.118027 3:0.373571 5:0.425079 6:0.826498 7:1.61227e-05 
40 1:0.232748 2:0.122534 3:0.370972 5:0.478014 6:0.811803 7:9.89138e-06 
37.14430250558247 1:0.296806 2:0.0577583 3:0.429187 5:0.448713 6:0.893984 7:4.41639e-05 
40 1:0.00815549 2:0.0914237 3:0.20589 5:0.559362 6:0.751987 7:4.72816e-05 
40 1:0.268377 2:0.0769385 3:0.223586 5:0.55558 6:0.809563 7:9.89197e-06 
40 1:0.0968122 2:0.097932 3:0.238114 4:0.0562281 5:0.545186 6:0.769582 7:0.00013764 
40 1:0.266415 2:0.0667062 3:0.269916 5:0.516079 6:0.830044 7:9.89197e-06 
40 1:0.290142 2:0.0678806 3:0.288635 5:0.52861 6:0.850758 7:3.17027e-05 
40 1:0.0267146 2:0.166178 3:0.321434 4:0.0562281 5:0.648038 6:0.740603 7:0.00120325 
40 1:0.032622 2:0.151458 3:0.359573 5:0.493737 6:0.709648 7:3.48185e-05 
40 1:0.0474501 2:0.151137 3:0.371936 5:0.48938 6:0.728388 7:3.17027e-05 
40 1:0.281683 2:0.0690414 3:0.375813 5:0.393639 6:0.87431 7:1.92394e-05 
40 1:0.265342 2:0.0754213 3:0.372871 5:0.454128 6:0.872823 7:6.77615e-06 
40 1:0.275049 2:0.0733943 3:0.386844 5:0.46494 6:0.878479 7:1.92394e-05 
40 1:0.283996 2:0.0701467 3:0.439793 5:0.404559 6:0.872546 7:3.66033e-06 
40 1:0.298962 2:0.0525743 3:0.448372 5:0.407755 6:0.88784 7:1.61236e-05 
40 1:0.069918 2:0.103711 3:0.177655 4:0.196765 5:0.476072 6:0.694713 7:0.00754965 
40 1:0.316466 2:0.0878628 3:0.179183 4:0.0562281 5:0.531171 6:0.821915 7:7.53188e-05 
40 1:0.28812 2:0.0694325 3:0.210485 4:0.0562281 5:0.482788 6:0.858739 7:5.03938e-05 
40 1:0.0115137 2:0.104738 3:0.222666 4:0.0562281 5:0.481245 6:0.783195 7:5.03938e-05 
40 1:0.231707 2:0.0861932 3:0.232338 4:0.0562281 5:0.422373 6:0.830901 7:2.54691e-05 
40 1:0.228621 2:0.0984453 3:0.237818 4:0.0562281 5:0.419464 6:0.797425 7:5.03938e-05 
40 1:0.0261555 2:0.118366 3:0.265133 5:0.473402 6:0.814416 7:9.7128e-05 
40 1:0.442559 2:0.0812758 3:0.26608 5:0.500929 6:0.8061 7:4.72783e-05 
40 1:0.0309909 2:0.127555 3:0.287292 4:0.0562281 5:0.514816 6:0.715785 7:0.000122053 
40 1:0.294318 2:0.0851424 3:0.275549 5:0.514918 6:0.823464 7:3.6599e-06 
40 1:0.358498 2:0.0654357 3:0.30417 5:0.476166 6:0.849177 7:6.77549e-06 
40 1:0.260976 2:0.0823651 3:0.336157 5:0.4229 6:0.890641 7:9.89108e-06 
40 1:0.570842 2:0.0991609 3:0.341208 5:0.464469 6:0.818433 7:9.89108e-06 
40 1:0.321564 2:0.0881432 3:0.351309 5:0.430114 6:0.840162 7:3.6599e-06 
40 1:0.0217479 2:0.135697 3:0.35636 5:0.466899 6:0.788266 7:1.61223e-05 
40 2:0.154051 3:0.361832 5:0.43462 6:0.784201 7:3.48159e-05 
40 1:0.23025 2:0.0855547 3:0.35636 5:0.457616 6:0.857921 7:6.77549e-06 
40 1:0.0883396 2:0.140018 3:0.366461 4:0.0562281 5:0.545226 6:0.759844 7:5.97408e-05 
40 1:0.233262 2:0.0829509 3:0.374037 5:0.449174 6:0.82918 7:9.89108e-06 
40 1:0.294696 2:0.0901331 3:0.395503 5:0.428986 6:0.834341 7:9.89108e-06 
40 1:0.204819 2:0.0817443 3:0.415957 5:0.508297 6:0.819474 7:1.30067e-05 
40 1:0.186207 2:0.0658324 3:0.415525 5:0.420573 6:0.875071 7:1.92379e-05 
40 1:0.308227 2:0.0627264 3:0.127319 4:0.0993742 5:0.541503 6:0.8653 7:0.000187493 
40 1:0.408989 2:0.0631328 3:0.135731 4:0.0562281 5:0.515684 6:0.858489 7:7.22082e-05 
40 1:0.45828 2:0.0883733 3:0.143591 5:0.510199 6:0.846433 7:2.5471e-05 
40 1:0.244727 2:0.0817404 3:0.169328 5:0.50161 6:0.829487 7:1.92394e-05 
40 1:0.44147 2:0.0946855 3:0.176501 4:0.0562281 5:0.507416 6:0.784415 7:0.000100251 
40 1:0.193676 2:0.110798 3:0.186718 4:0.0562281 5:0.567027 6:0.830088 7:0.000221767 
40 1:0.456863 2:0.10072 3:0.232394 5:0.469794 6:0.84042 7:3.48185e-05 
40 1:0.106763 2:0.125253 3:0.233824 5:0.509164 6:0.786712 7:3.17027e-05 
40 1:0.312735 2:0.0837394 3:0.247266 5:0.554666 6:0.849106 7:1.61236e-05 
40 1:0.0266634 2:0.216335 3:0.274398 4:0.0562281 5:0.650516 6:0.780836 7:0.000520885 
40 1:0.398435 2:0.0845063 3:0.295987 5:0.425846 6:0.847269 7:2.5471e-05 
40 1:0.00593127 2:0.148084 3:0.310769 5:0.594685 6:0.690677 7:3.17027e-05 
40 1:0.456399 2:0.115236 3:0.343123 5:0.413757 6:0.839773 7:1.30078e-05 
40 1:0.00501876 2:0.182087 3:0.35264 5:0.641997 6:0.573763 7:0.000118945 
40 1:0.250717 2:0.114031 3:0.357253 5:0.486861 6:0.832249 7:1.92394e-05 
40 1:0.1936 2:0.0985851 3:0.357399 5:0.537326 6:0.809527 7:4.41658e-05 
40 1:0.043496 2:0.106494 3:0.147282 4:0.0562281 5:0.627064 6:0.706473 7:8.15543e-05 
40 1:0.0406906 2:0.119062 3:0.213119 4:0.0562281 5:0.5622 6:0.799333 7:0.000106481 
40 1:0.0438405 2:0.126574 3:0.26267 5:0.618273 6:0.668569 7:0.000421174 
40 1:0.0115137 2:0.107241 3:0.219845 5:0.608826 6:0.652022 7:5.03968e-05 
40 2:0.152695 3:0.216982 5:0.561671 6:0.799655 7:3.66023e-06 
40 1:0.0464053 2:0.173534 3:0.242357 5:0.702724 6:0.691429 7:0.000361975 
40 1:0.0427409 2:0.132724 3:0.267442 5:0.624549 6:0.653522 7:0.000449215 
40 1:0.043496 2:0.168646 3:0.254836 5:0.559499 6:0.70525 7:1.61233e-05 
40 1:0.246715 2:0.0913033 3:0.127576 4:0.0562281 5:0.445675 6:0.868979 7:0.000106471 
40 1:0.0647269 2:0.0973396 3:0.164304 4:0.0562281 5:0.497615 6:0.777707 7:0.000414907 
40 1:0.276651 2:0.104766 3:0.137984 5:0.552433 6:0.841643 7:9.89072e-06 
40 1:0.0453903 2:0.148678 3:0.207996 4:0.0562281 5:0.577449 6:0.705874 7:0.00118444 
40 1:0.312829 2:0.0747536 3:0.186738 5:0.409336 6:0.82259 7:1.61217e-05 
40 1:0.0220851 2:0.140974 3:0.252431 4:0.0993742 5:0.541619 6:0.65054 7:0.000823037 
40 1:0.215172 2:0.0995943 3:0.208229 5:0.378453 6:0.881132 7:3.16994e-05 
40 1:0.0383942 2:0.156156 3:0.217925 5:0.616656 6:0.636353 7:9.40093e-05 
40 1:0.364526 2:0.0909559 3:0.234822 5:0.457876 6:0.812868 7:3.16994e-05 
40 1:0.105328 2:0.13933 3:0.235754 5:0.486879 6:0.832353 7:1.92372e-05 
40 1:0.0420079 2:0.164604 3:0.243126 4:0.0562281 5:0.512067 6:0.692072 7:0.000184359 
40 1:0.195312 2:0.0698448 3:0.257043 5:0.472665 6:0.873698 7:1.92372e-05 
40 1:0.282549 2:0.0827389 3:0.269834 5:0.463289 6:0.810409 7:2.54683e-05 
40 1:0.206638 2:0.0633192 3:0.270447 5:0.522213 6:0.823252 7:3.16994e-05 
40 1:0.250587 2:0.0773057 3:0.271826 5:0.527825 6:0.829703 7:9.89072e-06 
40 1:0.363873 2:0.0935972 3:0.275966 5:0.444252 6:0.857704 7:1.30062e-05 
40 1:0.174428 2:0.126851 3:0.285165 4:0.0562281 5:0.419002 6:0.801151 7:3.48149e-05 
40 1:0.341158 2:0.117255 3:0.285427 5:0.403687 6:0.82991 7:1.92372e-05 
40 1:0.380589 2:0.0882571 3:0.291604 5:0.472513 6:0.808645 7:1.61217e-05 
38.76316504605305 1:0.313466 2:0.108251 3:0.300251 4:0.135748 5:0.422098 6:0.821092 7:2.85838e-05 
40 1:0.292569 2:0.086298 3:0.302182 5:0.465284 6:0.818724 7:9.89072e-06 
40 1:0.321363 2:0.0836054 3:0.323432 5:0.500928 6:0.753175 7:1.30062e-05 
40 1:0.554573 2:0.106642 3:0.32288 5:0.447617 6:0.793895 7:9.89072e-06 
40 1:0.248119 2:0.0878184 3:0.325869 5:0.470794 6:0.78083 7:7.22007e-05 
40 1:0.391796 2:0.112279 3:0.330699 5:0.458162 6:0.782685 7:3.48149e-05 
40 1:0.419221 2:0.0944405 3:0.333524 5:0.358739 6:0.837859 7:1.92372e-05 
40 1:0.174292 2:0.0948438 3:0.346337 5:0.444338 6:0.833173 7:9.89072e-06 
40 1:0.374235 2:0.109891 3:0.350016 5:0.372618 6:0.802129 7:3.48149e-05 
40 1:0.195732 2:0.0822641 3:0.377521 5:0.471909 6:0.850977 7:1.30062e-05 
40 1:0.0715478 2:0.104743 3:0.248635 4:0.0993742 5:0.504915 6:0.694752 7:0.0292391 
40 1:0.0758695 2:0.0841273 3:0.184811 4:0.0993742 5:0.460588 6:0.69645 7:0.0257682 
40 1:0.212576 2:0.0891066 3:0.179482 5:0.459368 6:0.835404 7:0.000112713 
40 1:0.308634 2:0.0917822 3:0.179006 4:0.0562281 5:0.540526 6:0.785553 7:0.000464797 
40 1:0.34737 2:0.0718691 3:0.183874 4:0.0562281 5:0.471202 6:0.836599 7:1.92392e-05 
40 1:0.152185 2:0.0946862 3:0.187552 5:0.478584 6:0.784272 7:5.03971e-05 
40 1:0.280394 2:0.0652636 3:0.187552 5:0.49501 6:0.876271 7:3.66026e-06 
40 1:0.0195732 2:0.11547 3:0.209687 5:0.427471 6:0.79522 7:2.85866e-05 
40 1:0.204499 2:0.0857896 3:0.218009 4:0.0562281 5:0.521238 6:0.835315 7:3.48181e-05 
40 1:0.0117439 2:0.142475 3:0.242221 5:0.505632 6:0.775662 7:0.000153218 
40 1:0.0244665 2:0.124503 3:0.226803 5:0.514418 6:0.733195 7:2.2355e-05 
40 1:0.236025 2:0.0608316 3:0.258333 5:0.392308 6:0.8813 7:9.89187e-06 
40 1:0.311165 2:0.0730379 3:0.261091 5:0.517003 6:0.834754 7:1.92392e-05 
40 1:0.292346 2:0.0848832 3:0.264033 5:0.490717 6:0.823695 7:1.92392e-05 
40 1:0.296102 2:0.125962 3:0.270946 5:0.457087 6:0.823701 7:5.97444e-05 
40 1:0.437922 2:0.0794667 3:0.288791 5:0.425287 6:0.875404 7:2.54708e-05 
40 1:0.351674 2:0.066185 3:0.288791 5:0.442822 6:0.850698 7:1.61234e-05 
14.96839760442951 1:0.323349 2:0.0701575 3:0.30595 4:0.0562281 5:0.455555 6:0.872063 7:5.03971e-05 
40 1:0.334384 2:0.068609 3:0.328043 5:0.44165 6:0.827228 7:7.22076e-05 
40 1:0.045748 2:0.147088 3:0.347562 5:0.473938 6:0.70794 7:3.48181e-05 
40 1:0.00593127 2:0.138597 3:0.355089 5:0.493529 6:0.7549 7:3.17024e-05 
40 1:0.0391463 2:0.140636 3:0.365665 5:0.423809 6:0.752552 7:2.85866e-05 
40 1:0.162248 2:0.0594751 3:0.377447 4:0.0562281 5:0.511093 6:0.848774 7:2.54708e-05 
40 1:0.305445 2:0.0618949 3:0.390889 4:0.0562281 5:0.403752 6:0.904635 7:4.10497e-05 
40 1:0.204282 2:0.070457 3:0.418172 5:0.445201 6:0.868848 7:1.30077e-05 
40 1:0.221685 2:0.053968 3:0.452662 5:0.419897 6:0.852667 7:1.61234e-05 
40 1:0.0229168 2:0.135461 3:0.184573 4:0.0562281 5:0.571254 6:0.828907 7:0.000514638 
40 1:0.0510123 2:0.13687 3:0.175007 4:0.0993742 5:0.579175 6:0.726595 7:0.000321464 
40 1:0.0255706 2:0.225107 3:0.260823 4:0.0993742 5:0.630262 6:0.754569 7:0.00134654 
40 1:0.0251706 2:0.161568 3:0.257199 4:0.0562281 5:0.51914 6:0.74385 7:0.000277844 
40 1:0.00932055 2:0.167415 3:0.312312 5:0.478406 6:0.819341 7:1.92387e-05 
40 1:0.0713194 2:0.0936389 3:0.205005 4:0.167794 5:0.496534 6:0.683858 7:0.033449 
40 1:0.328804 2:0.0849797 3:0.184169 5:0.519586 6:0.818712 7:1.30064e-05 
40 1:0.19201 2:0.0652754 3:0.20129 4:0.0562281 5:0.527337 6:0.800701 7:3.16997e-05 
40 1:0.340433 2:0.0771245 3:0.238662 5:0.544464 6:0.820115 7:9.89092e-06 
40 1:0.222685 2:0.07435 3:0.253631 4:0.0993742 5:0.465747 6:0.842483 7:0.00011582 
40 1:0.262412 2:0.119705 3:0.27272 5:0.445668 6:0.85501 7:2.23531e-05 
40 1:0.198678 2:0.0419311 3:0.298147 4:0.135748 5:0.438994 6:0.819064 7:5.35086e-05 
40 1:0.338279 2:0.0993944 3:0.304786 5:0.42227 6:0.826694 7:1.6122e-05 
40 1:0.0279616 2:0.139001 3:0.3049 5:0.511832 6:0.861018 7:1.92376e-05 
40 1:0.342452 2:0.0723188 3:0.310363 5:0.486795 6:0.849055 7:4.41619e-05 
40 1:0.235681 2:0.0484727 3:0.308451 5:0.411066 6:0.836123 7:2.85842e-05 
40 1:0.0354178 2:0.152408 3:0.327787 4:0.0562281 5:0.510022 6:0.737353 7:9.40109e-05 
40 1:0.288504 2:0.0947209 3:0.316099 5:0.470028 6:0.837464 7:2.85842e-05 
40 1:0.280394 2:0.105901 3:0.324703 5:0.454279 6:0.839447 7:9.89092e-06 
40 1:0.225511 2:0.128943 3:0.338087 5:0.48126 6:0.811849 7:1.30064e-05 
40 1:0.306102 2:0.1009 3:0.340239 5:0.440957 6:0.855284 7:0.000109589 
40 1:0.010874 2:0.14791 3:0.343823 5:0.386359 6:0.766984 7:1.6122e-05 
40 1:0.594039 2:0.128397 3:0.345736 5:0.467689 6:0.813532 7:1.30064e-05 
40 2:0.171888 3:0.350728 5:0.416921 6:0.815165 7:2.54687e-05 
40 1:0.046032 2:0.155203 3:0.366141 4:0.0562281 5:0.55384 6:0.680219 7:0.000486571 
40 1:0.462709 2:0.0854093 3:0.348604 5:0.412871 6:0.851901 7:1.30064e-05 
40 1:0.00899916 2:0.160427 3:0.36179 5:0.471536 6:0.755027 7:8.77797e-05 
40 1:0.570623 2:0.100108 3:0.365334 5:0.431553 6:0.828201 7:1.6122e-05 
40 1:0.016311 2:0.155912 3:0.372504 5:0.481682 6:0.775831 7:5.97399e-05 
40 1:0.385327 2:0.136788 3:0.382064 5:0.425652 6:0.795943 7:6.77536e-06 
40 1:0.217198 2:0.0964998 3:0.393536 5:0.500828 6:0.814269 7:1.30064e-05 
17.67781188899127 1:0.286474 2:0.110062 3:0.410745 5:0.442142 6:0.859999 7:6.77536e-06 
40 1:0.198095 2:0.0543778 3:0.487226 5:0.580605 6:0.812882 7:1.6122e-05 
40 1:0.102948 2:0.0877091 3:0.209528 4:0.196765 5:0.473154 6:0.60816 7:0.0941004 
40 1:0.0410795 2:0.113172 3:0.187275 5:0.512631 6:0.776011 7:8.15494e-05 
40 1:0.0268652 2:0.113535 3:0.182552 5:0.47889 6:0.764214 7:5.03935e-05 
40 1:0.0320045 2:0.11337 3:0.23203 4:0.0562281 5:0.488687 6:0.745156 7:0.000664164 
40 1:0.0521951 2:0.115894 3:0.203527 4:0.0562281 5:0.476989 6:0.755363 7:4.41622e-05 
40 1:0.31057 2:0.103212 3:0.225571 5:0.385924 6:0.842627 7:1.61222e-05 
40 1:0.0089375 2:0.155691 3:0.29825 5:0.522294 6:0.673541 7:0.000452302 
40 1:0.0137355 2:0.13618 3:0.268205 5:0.528051 6:0.762714 7:5.66247e-05 
40 2:0.140329 3:0.275513 5:0.48109 6:0.793342 7:3.17001e-05 
40 2:0.149006 3:0.298024 5:0.476892 6:0.746104 7:5.03935e-05 
40 2:0.14927 3:0.299753 5:0.43781 6:0.735162 7:4.41622e-05 
40 1:0.0409742 2:0.142872 3:0.333203 4:0.0562281 5:0.550406 6:0.685373 7:0.000159439 
40 1:0.0583327 2:0.142885 3:0.335886 4:0.0562281 5:0.504672 6:0.693179 7:0.000115821 
40 1:0.0391463 2:0.118086 3:0.295936 5:0.543041 6:0.791711 7:1.30064e-05 
40 1:0.476223 2:0.090433 3:0.320713 5:0.454695 6:0.856146 7:1.30064e-05 
40 1:0.278452 2:0.0633216 3:0.329562 5:0.477111 6:0.891402 7:9.89092e-06 
40 1:0.304472 2:0.0618176 3:0.381182 5:0.487004 6:0.885706 7:1.6122e-05 
40 1:0.610569 2:0.134176 3:0.404779 5:0.479062 6:0.819832 7:1.6122e-05 
40 2:0.170157 3:0.413629 5:0.44443 6:0.8035 7:6.77536e-06 
40 1:0.220575 2:0.14323 3:0.452564 5:0.414885 6:0.860201 7:1.30064e-05 
40 1:0.221645 2:0.15712 3:0.469304 5:0.471002 6:0.813589 7:3.48152e-05 
40 1:0.127213 2:0.0877251 3:0.510492 4:0.0562281 5:0.529604 6:0.767009 7:0.00019994 
6.557464078389533 1:0.256076 2:0.125591 3:0.33426 4:0.678739 5:0.6738 6:0.766953 7:0.0347311 
40 1:0.0399685 2:0.114752 3:0.215597 5:0.548709 6:0.768601 7:5.03954e-05 
40 1:0.313616 2:0.119154 3:0.246703 4:0.0562281 5:0.450968 6:0.836762 7:9.7131e-05 
40 1:0.0236349 2:0.16589 3:0.290453 4:0.0562281 5:0.668699 6:0.763966 7:0.00029342 
40 1:0.0283397 2:0.151165 3:0.336468 4:0.0562281 5:0.596711 6:0.743985 7:0.000592526 
40 1:0.0268652 2:0.165495 3:0.300067 5:0.451318 6:0.788197 7:5.03954e-05 
40 1:0.238042 2:0.101058 3:0.335827 5:0.525425 6:0.839506 7:1.61229e-05 
40 1:0.374841 2:0.142596 3:0.338537 4:0.0562281 5:0.379108 6:0.805535 7:7.22053e-05 
40 1:0.335564 2:0.0959088 3:0.343332 5:0.445242 6:0.812093 7:1.61229e-05 
37.99773676334246 1:0.380516 2:0.0965033 3:0.348335 5:0.450907 6:0.822497 7:2.23543e-05 
40 1:0.484365 2:0.125745 3:0.350212 5:0.448859 6:0.820577 7:2.23543e-05 
40 1:0.434372 2:0.119619 3:0.362596 4:0.0562281 5:0.371507 6:0.825107 7:0.000122057 
40 1:0.456497 2:0.126975 3:0.356779 4:0.0562281 5:0.360478 6:0.821683 7:4.728e-05 
40 1:0.364834 2:0.106173 3:0.358797 5:0.443533 6:0.829011 7:3.17014e-05 
40 1:0.283998 2:0.114967 3:0.360219 5:0.478776 6:0.819485 7:2.23543e-05 
40 1:0.370497 2:0.113188 3:0.370351 5:0.389607 6:0.816532 7:4.41642e-05 
40 1:0.294137 2:0.119858 3:0.391442 4:0.135748 5:0.363117 6:0.81576 7:3.79326e-05 
40 1:0.0402158 2:0.126598 3:0.273159 4:0.0562281 5:0.531691 6:0.788276 7:0.000657926 
40 1:0.0640064 2:0.12536 3:0.269696 4:0.0562281 5:0.557648 6:0.75085 7:0.00019994 
40 1:0.0144986 2:0.138138 3:0.339044 5:0.493483 6:0.803427 7:8.15487e-05 
40 1:0.394334 2:0.128044 3:0.33916 5:0.457426 6:0.815419 7:0.000125167 
40 1:0.146322 2:0.140431 3:0.356879 4:0.0562281 5:0.486446 6:0.818216 7:0.000206171 
40 2:0.153557 3:0.384313 5:0.436745 6:0.79776 7:5.03932e-05 
40 1:0.184141 2:0.143195 3:0.404172 4:0.0562281 5:0.416267 6:0.833191 7:0.000122051 
40 1:0.189304 2:0.141375 3:0.416828 5:0.439194 6:0.798283 7:3.16997e-05 
40 1:0.241392 2:0.133083 3:0.427953 5:0.448235 6:0.842709 7:1.30064e-05 
40 1:0.0687638 2:0.0980143 3:0.280566 4:0.135748 5:0.513041 6:0.649927 7:0.0218983 
40 1:0.279851 2:0.0561699 3:0.213487 5:0.497228 6:0.841756 7:2.23514e-05 
40 1:0.0479228 2:0.116763 3:0.275479 4:0.0562281 5:0.577824 6:0.745487 7:0.000184349 
40 1:0.0503531 2:0.197633 3:0.373521 5:0.603593 6:0.783518 7:0.000128273 
40 1:0.0612516 2:0.150306 3:0.411446 5:0.541936 6:0.728434 7:9.08889e-05 
40 1:0.016311 2:0.151244 3:0.41425 5:0.564136 6:0.686631 7:3.48129e-05 
40 1:0.183759 2:0.159965 3:0.425722 5:0.547671 6:0.850491 7:6.77471e-06 
40 1:0.269977 2:0.135568 3:0.626299 5:0.627029 6:0.82752 7:9.51473e-05 
40 1:0.315735 2:0.168433 3:0.586168 4:0.0562281 5:0.686452 6:0.810715 7:0.000306017 
40 1:0.327137 2:0.148741 3:0.591561 5:0.636691 6:0.816988 7:0.000138865 
10.68229444268137 1:0.177221 2:0.170506 3:0.775742 5:0.751915 6:0.764832 7:0.00021344 
40 1:0.100193 2:0.364684 3:0.780306 5:0.661408 6:0.739546 7:0.000159438 
40 1:0.223516 2:0.207606 3:0.579641 4:0.0562281 5:0.635166 6:0.814987 7:0.000213438 
40 1:0.131724 2:0.0724326 3:0.650372 4:0.0562281 5:0.477789 6:0.814889 7:0.00011572 
40 1:0.180345 2:0.293668 3:0.767839 4:0.0562281 5:0.687991 6:0.768372 7:0.0018078 
29.03480559127389 1:0.366993 2:0.269313 3:0.729501 4:0.135748 5:0.569404 6:0.862795 7:4.6288e-05 
40 1:0.0661919 2:0.116275 3:0.740571 5:0.669339 6:0.83525 7:0.000144007 
40 1:0.49622 2:0.166771 3:0.740571 5:0.570831 6:0.828015 7:4.37166e-05 
40 1:0.466147 2:0.226409 3:0.746519 4:0.0562281 5:0.534683 6:0.849412 7:0.000113148 
40 1:0.433396 2:0.232973 3:0.740571 5:0.550165 6:0.855642 7:2.57157e-05 
40 1:0.348426 2:0.196393 3:0.759691 5:0.544361 6:0.855716 7:4.11451e-05 
40 1:0.14749 2:0.19766 3:0.601723 5:0.659017 6:0.796911 7:0.000380563 
40 1:0.128468 2:0.260756 3:0.69344 4:0.0562281 5:0.695446 6:0.784354 7:0.000681412 
40 1:0.273704 2:0.232369 3:0.635409 5:0.681797 6:0.805312 7:0.000143997 
40 2:0.261147 3:0.635409 5:0.727215 6:0.84469 7:2.0571e-05 
40 1:0.0342359 2:0.355922 3:0.688761 4:0.0562281 5:0.655708 6:0.775815 7:0.000246852 
40 1:0.152798 2:0.311595 3:0.780404 5:0.532989 6:0.847675 7:6.42845e-05 
40 1:0.258568 2:0.29373 3:0.791558 5:0.587531 6:0.833474 7:1.54283e-05 
40 1:0.207868 2:0.255902 3:0.836172 5:0.591062 6:0.805861 7:2.31424e-05 
40 1:0.133055 2:0.35596 3:0.858479 5:0.661869 6:0.807872 7:2.82851e-05 
40 1:0.10556 2:0.184414 3:0.674338 4:0.0562281 5:0.78026 6:0.811748 7:0.000514291 
40 1:0.00283669 2:0.285113 3:0.66763 5:0.656174 6:0.857276 7:5.65725e-05 
40 1:0.144112 2:0.329915 3:0.803069 4:0.0562281 5:0.657594 6:0.790507 7:0.000149145 
40 1:0.159281 2:0.185627 3:0.593218 4:0.0562281 5:0.741048 6:0.825431 7:0.00321692 
40 1:0.101196 2:0.335034 3:0.700116 5:0.726069 6:0.759431 7:0.0013706 
40 1:0.010219 2:0.262006 3:0.626808 4:0.0562281 5:0.647885 6:0.874773 7:0.000210862 
40 1:0.101032 2:0.244225 3:0.683873 4:0.0993742 5:0.666783 6:0.852996 7:0.00194918 
40 1:0.226447 2:0.220896 3:0.657716 5:0.684229 6:0.808946 7:5.40013e-05 
40 2:0.265078 3:0.657716 5:0.600219 6:0.852927 7:3.85724e-05 
40 1:0.179414 2:0.18652 3:0.657716 5:0.609668 6:0.822243 7:6.94303e-05 
40 1:0.303917 2:0.266275 3:0.685135 5:0.541158 6:0.841385 7:0.00012086 
40 1:0.17109 2:0.242967 3:0.70233 5:0.616395 6:0.8095 7:3.08581e-05 
40 1:0.239433 2:0.238057 3:0.70233 5:0.575704 6:0.855053 7:3.85724e-05 
40 1:0.202678 2:0.162495 3:0.724637 5:0.638843 6:0.854612 7:5.65728e-05 
40 1:0.17272 2:0.326435 3:0.791558 5:0.577062 6:0.814646 7:2.5715e-05 
40 1:0.0696733 2:0.239769 3:0.694567 5:0.744214 6:0.805635 7:0.00013372 
40 1:0.0645806 2:0.234794 3:0.690162 4:0.0562281 5:0.729013 6:0.78842 7:0.00016715 
40 1:0.468689 2:0.203909 3:0.687458 5:0.661232 6:0.851704 7:4.37162e-05 
40 1:0.114513 2:0.345198 3:0.759594 5:0.696719 6:0.790373 7:0.000714887 
40 1:0.135629 2:0.36592 3:0.765758 5:0.764754 6:0.723887 7:0.000450018 
40 1:0.206282 2:0.10093 3:0.590582 4:0.0562281 5:0.810462 6:0.80805 7:0.000177432 
40 1:0.0827038 2:0.157719 3:0.774771 5:0.788392 6:0.754251 7:0.000303434 
40 1:0.0993489 2:0.420939 3:0.776435 4:0.0562281 5:0.680481 6:0.814117 7:0.00151713 
40 1:0.409379 2:0.221241 3:0.61411 4:0.0562281 5:0.649104 6:0.848162 7:0.000293159 
40 1:0.211617 2:0.276773 3:0.675561 5:0.514034 6:0.862312 7:1.80012e-05 
40 1:0.260976 2:0.265933 3:0.696976 5:0.581552 6:0.848249 7:5.91462e-05 
40 1:0.138146 2:0.280951 3:0.696976 5:0.691474 6:0.819007 7:6.94326e-05 
40 1:0.0465656 2:0.221085 3:0.715231 4:0.0562281 5:0.56649 6:0.793872 7:0.000154294 
40 1:0.347524 2:0.357171 3:0.718391 5:0.645116 6:0.883567 7:5.91462e-05 
40 1:0.421158 2:0.306991 3:0.720038 5:0.594624 6:0.850638 7:3.0859e-05 
40 1:0.29005 2:0.224716 3:0.739806 5:0.346362 6:0.815231 7:2.57159e-05 
40 1:0.186281 2:0.1853 3:0.76122 5:0.63592 6:0.837759 7:0.000102863 
40 1:0.115969 2:0.222204 3:0.782635 5:0.586551 6:0.8735 7:3.0859e-05 
40 1:0.21529 2:0.286926 3:0.80405 5:0.556007 6:0.85727 7:2.05728e-05 
40 1:0.0769565 2:0.281647 3:0.80405 5:0.577418 6:0.859469 7:2.57159e-05 
40 1:0.0652439 2:0.265435 3:0.80405 5:0.66247 6:0.815399 7:4.88601e-05 
40 1:0.0652439 2:0.27695 3:0.84688 5:0.554269 6:0.839571 7:4.62883e-05 
40 1:0.047897 2:0.430215 3:0.715534 4:0.135748 5:0.627158 6:0.786979 7:0.00226019 
40 1:0.0389308 2:0.47255 3:0.664862 4:0.135748 5:0.656318 6:0.813274 7:0.00679613 
40 1:0.0630794 2:0.342743 3:0.607436 5:0.637572 6:0.833132 7:6.9427e-05 
40 1:0.0792002 2:0.392267 3:0.711032 4:0.0562281 5:0.703588 6:0.78883 7:0.00115454 
40 1:0.118157 2:0.230127 3:0.630635 5:0.679314 6:0.815955 7:0.000552843 
40 1:0.261382 2:0.22331 3:0.633459 5:0.708037 6:0.814744 7:0.000647983 
40 1:0.33303 2:0.248917 3:0.650819 5:0.699013 6:0.841156 7:0.000233994 
40 1:0.0774589 2:0.345927 3:0.70632 4:0.0562281 5:0.68005 6:0.805186 7:0.000313707 
40 1:0.0716874 2:0.369376 3:0.726671 4:0.0562281 5:0.69208 6:0.81767 7:0.000686555 
40 1:0.0265399 2:0.444471 3:0.715353 4:0.0562281 5:0.691727 6:0.794396 7:0.000149139 
40 1:0.0514565 2:0.43042 3:0.755601 4:0.0562281 5:0.700135 6:0.79162 7:0.000362563 
40 1:0.110704 2:0.385971 3:0.75942 4:0.0562281 5:0.643808 6:0.803008 7:0.00022628 
40 1:0.0885158 2:0.352243 3:0.706047 5:0.569745 6:0.850189 7:5.91429e-05 
40 1:0.00932055 2:0.416528 3:0.741695 4:0.0562281 5:0.70744 6:0.828679 7:0.000303429 
40 1:0.276225 2:0.338138 3:0.742978 5:0.628634 6:0.841065 7:6.68572e-05 
40 1:0.0244665 2:0.222137 3:0.746944 5:0.686888 6:0.861071 7:3.85714e-05 
40 1:0.0856333 2:0.283059 3:0.798175 4:0.0562281 5:0.714386 6:0.788829 7:0.000455142 
40 1:0.00955458 2:0.552118 3:0.806006 5:0.82014 6:0.812457 7:0.000612 
40 2:0.552433 3:0.76479 5:0.734848 6:0.873462 7:5.14286e-05 
40 1:0.219133 2:0.231976 3:0.782635 5:0.478549 6:0.868918 7:3.85714e-05 
40 1:0.132919 2:0.175503 3:0.800481 5:0.528901 6:0.83486 7:4.62857e-05 
40 1:0.117153 2:0.230745 3:0.809404 4:0.0562281 5:0.505163 6:0.838848 7:7.97144e-05 
40 1:0.263653 2:0.280601 3:0.800481 5:0.575619 6:0.858256 7:1.28573e-05 
40 1:0.196694 2:0.227502 3:0.836172 5:0.469559 6:0.829109 7:2.57144e-05 
40 1:0.0652439 2:0.223867 3:0.836172 5:0.569971 6:0.896982 7:1.80001e-05 
40 1:0.00120822 2:0.435972 3:0.836172 5:0.734003 6:0.83009 7:0.000136286 
40 1:0.0652439 2:0.243904 3:0.836172 5:0.710805 6:0.833465 7:5.91429e-05 
40 1:0.0755622 2:0.254972 3:0.854018 5:0.58059 6:0.827946 7:8.74288e-05 
40 1:0.13603 2:0.235744 3:0.625848 5:0.767018 6:0.798627 7:0.000115719 
40 1:0.139127 2:0.225032 3:0.68321 5:0.552092 6:0.858986 7:3.60019e-05 
40 1:0.0329607 2:0.415372 3:0.714671 4:0.135748 5:0.758623 6:0.727758 7:0.000563168 
40 1:0.02879 2:0.454303 3:0.723929 5:0.680719 6:0.759793 7:0.000136292 
40 1:0.00221166 2:0.462198 3:0.761311 5:0.727907 6:0.81133 7:0.00030087 
40 1:0.0775633 2:0.287339 3:0.740571 5:0.72297 6:0.852817 7:0.000131149 
40 1:0.0811523 2:0.150079 3:0.740571 5:0.64945 6:0.839534 7:7.20034e-05 
40 1:0.198336 2:0.304293 3:0.751496 5:0.628313 6:0.866095 7:5.14309e-05 
40 1:0.0652439 2:0.223571 3:0.740571 5:0.639484 6:0.874096 7:4.37162e-05 
40 1:0.196073 2:0.261349 3:0.759691 5:0.640158 6:0.838662 7:8.74327e-05 
40 1:0.158905 2:0.225543 3:0.76778 5:0.572679 6:0.899517 7:6.42887e-05 
40 1:0.196108 2:0.294218 3:0.759691 5:0.627807 6:0.859873 7:6.17173e-05 
40 1:0.187563 2:0.313682 3:0.759691 5:0.63918 6:0.861473 7:6.68602e-05 
40 2:0.513215 3:0.778811 5:0.546138 6:0.950338 7:4.11448e-05 
40 1:0.109996 2:0.292533 3:0.797931 5:0.598189 6:0.879755 7:3.85734e-05 
40 1:0.129568 2:0.257003 3:0.797931 5:0.594447 6:0.839636 7:4.6288e-05 
40 1:0.395655 2:0.40307 3:0.836172 5:0.669396 6:0.848255 7:5.40026e-05 
40 1:0.0652439 2:0.344945 3:0.855292 5:0.603199 6:0.863913 7:2.05725e-05 
40 1:0.121679 2:0.327494 3:0.893533 5:0.583345 6:0.860598 7:3.60019e-05 
40 1:0.046581 2:0.47265 3:0.921638 5:0.631346 6:0.85979 7:0.000210866 
40 1:0.111156 2:0.44461 3:0.918319 5:0.578393 6:0.861836 7:6.68602e-05 
40 1:0.0276701 2:0.508856 3:0.686742 4:0.0562281 5:0.752456 6:0.780862 7:0.0022089 
40 1:0.325859 2:0.34088 3:0.654147 5:0.689912 6:0.818538 7:5.14296e-05 
23.92815127434608 1:0.16155 2:0.409022 3:0.736671 5:0.718219 6:0.798939 7:0.00198261 
40 1:0.108614 2:0.307103 3:0.678081 4:0.0562281 5:0.69842 6:0.869022 7:0.000347148 
40 1:0.319278 2:0.35706 3:0.718391 5:0.66892 6:0.853413 7:7.71443e-05 
40 1:0.0671745 2:0.222409 3:0.739806 5:0.640558 6:0.894053 7:3.34292e-05 
40 1:0.33009 2:0.393259 3:0.782635 5:0.592063 6:0.843832 7:5.65725e-05 
40 1:0.392207 2:0.271169 3:0.746944 5:0.663859 6:0.824852 7:7.4568e-05 
40 1:0.040962 2:0.56493 3:0.7068 5:0.684356 6:0.787573 7:0.0020211 
40 1:0.11371 2:0.347825 3:0.694363 4:0.0562281 5:0.572072 6:0.86736 7:0.000336852 
40 1:0.186004 2:0.474517 3:0.726913 4:0.0562281 5:0.613483 6:0.84225 7:0.000105427 
40 1:0.0025461 2:0.650731 3:0.808378 5:0.731021 6:0.827114 7:0.000524561 
40 1:0.137267 2:0.539375 3:0.931774 5:0.593819 6:0.870342 7:9.77126e-05 
40 1:0.103721 2:0.373846 3:0.586828 4:0.135748 5:0.67401 6:0.809874 7:0.00132176 
40 1:0.142221 2:0.358889 3:0.571781 4:0.135748 5:0.654964 6:0.791635 7:0.000534876 
40 1:0.0338427 2:0.687818 3:0.735236 4:0.0562281 5:0.778912 6:0.796333 7:0.00230151 
40 1:0.0652439 2:0.359809 3:0.70233 5:0.534872 6:0.878179 7:3.60016e-05 
40 1:0.0177979 2:0.440622 3:0.726726 4:0.167794 5:0.730006 6:0.80938 7:0.00146063 
40 1:0.0514043 2:0.433321 3:0.70233 5:0.681959 6:0.839787 7:8.22891e-05 
40 1:0.0446848 2:0.556001 3:0.754114 4:0.0562281 5:0.713815 6:0.785872 7:0.000614594 
40 1:0.157429 2:0.364834 3:0.72145 5:0.624303 6:0.892259 7:6.42884e-05 
40 2:0.305431 3:0.740571 5:0.425423 6:0.824895 7:4.11445e-05 
40 1:0.218836 2:0.339362 3:0.740571 5:0.613868 6:0.853739 7:5.91452e-05 
40 1:0.126237 2:0.338575 3:0.751339 5:0.708298 6:0.813341 7:0.000221151 
40 1:0.0652439 2:0.378094 3:0.740571 5:0.729456 6:0.842135 7:2.57154e-05 
40 1:0.0499862 2:0.517327 3:0.759275 5:0.629052 6:0.885518 7:0.000115719 
40 1:0.115649 2:0.345424 3:0.759691 5:0.618202 6:0.881951 7:6.94313e-05 
40 1:0.0785106 2:0.513847 3:0.760573 4:0.0562281 5:0.66538 6:0.871129 7:0.000164578 
40 1:0.104225 2:0.388994 3:0.778811 5:0.630293 6:0.842497 7:4.88591e-05 
40 1:0.104777 2:0.346743 3:0.836172 5:0.522841 6:0.862435 7:6.42884e-05 
40 1:0.0652439 2:0.470252 3:0.836172 5:0.553732 6:0.890788 7:1.54294e-05 
40 1:0.104118 2:0.382897 3:0.855292 5:0.692368 6:0.807595 7:9.00035e-05 
40 1:0.130488 2:0.460622 3:0.855292 5:0.626468 6:0.847642 7:3.60016e-05 
40 1:0.229347 2:0.524639 3:0.855292 5:0.677582 6:0.84623 7:6.42884e-05 
40 1:0.221157 2:0.444478 3:0.855292 5:0.606097 6:0.866355 7:3.8573e-05 
40 1:0.134498 2:0.502804 3:0.855292 5:0.642731 6:0.84106 7:2.05724e-05 
40 1:0.0813833 2:0.480979 3:0.874413 5:0.644588 6:0.815637 7:5.65738e-05 
40 1:0.173887 2:0.462565 3:0.893533 5:0.601576 6:0.866649 7:3.8573e-05 
40 1:0.118165 2:0.321522 3:0.424349 5:0.660864 6:0.824656 7:4.11441e-05 
40 1:0.257854 2:0.398888 3:0.447363 4:0.0562281 5:0.694611 6:0.827218 7:0.000216005 
40 1:0.0452652 2:0.567581 3:0.551689 5:0.578919 6:0.865644 7:0.000290579 
40 1:0.199191 2:0.44226 3:0.547896 5:0.642545 6:0.837627 7:0.00012086 
40 1:0.147525 2:0.350397 3:0.568487 5:0.531468 6:0.899654 7:2.57151e-05 
40 1:0.224014 2:0.485536 3:0.60967 5:0.614641 6:0.854016 7:4.37156e-05 
40 1:0.0132639 2:0.448712 3:0.667257 4:0.135748 5:0.622614 6:0.884132 7:0.000465441 
40 1:0.0964866 2:0.434417 3:0.781733 4:0.0562281 5:0.629217 6:0.876441 7:0.000185147 
40 1:0.185952 2:0.515363 3:0.777144 4:0.0562281 5:0.588347 6:0.847909 7:0.000113146 
40 1:0.160017 2:0.448111 3:0.788438 4:0.0562281 5:0.614316 6:0.878185 7:5.40013e-05 
40 1:0.0840642 2:0.53656 3:0.838094 5:0.661611 6:0.84825 7:0.000190291 
40 1:0.0786874 2:0.554786 3:0.815581 5:0.630275 6:0.904678 7:4.88585e-05 
40 1:0.0749287 2:0.55007 3:0.850944 4:0.0562281 5:0.598194 6:0.859376 7:0.000115717 
40 1:0.0790632 2:0.566193 3:0.856764 5:0.61685 6:0.803536 7:3.85727e-05 
40 1:0.132075 2:0.366819 3:0.504243 5:0.627715 6:0.846769 7:7.71404e-05 
40 2:0.442066 3:0.611317 5:0.610681 6:0.917059 7:8.48544e-05 
40 1:0.33103 2:0.364903 3:0.532405 4:0.0562281 5:0.688376 6:0.825694 7:0.000547736 
40 1:0.0425454 2:0.619324 3:0.60967 4:0.0562281 5:0.693657 6:0.768095 7:0.0031167 
40 1:0.0948862 2:0.462073 3:0.664487 4:0.0562281 5:0.675789 6:0.845159 7:0.000378015 
40 1:0.319585 2:0.554693 3:0.667938 5:0.726694 6:0.801018 7:0.000118291 
40 1:0.00767575 2:0.697369 3:0.666194 5:0.716652 6:0.817614 7:0.000128577 
40 1:0.0139809 2:0.688856 3:0.669237 5:0.731157 6:0.830823 7:0.000141435 
6.740194486982126 1:0.0226944 2:0.69529 3:0.700414 4:0.135748 5:0.740467 6:0.730941 7:0.000439733 
40 1:0.155164 2:0.566284 3:0.720359 5:0.70033 6:0.796978 7:0.000565736 
40 1:0.219119 2:0.397351 3:0.712625 5:0.695742 6:0.831294 7:6.42887e-05 
40 1:0.455365 2:0.423871 3:0.733216 5:0.604993 6:0.835174 7:2.57156e-05 
40 1:0.147123 2:0.386561 3:0.733216 5:0.672373 6:0.886905 7:3.60016e-05 
40 1:0.120092 2:0.621819 3:0.918537 5:0.640836 6:0.82108 7:4.11448e-05 
40 1:0.0552064 2:0.267232 3:0.461414 5:0.498628 6:0.762288 7:3.08558e-05 
40 1:0.032313 2:0.358559 3:0.532996 4:0.0562281 5:0.615762 6:0.813475 7:0.00238361 
40 1:0.0897913 2:0.309033 3:0.565015 4:0.135748 5:0.526469 6:0.815542 7:9.25674e-05 
40 1:0.0167847 2:0.448785 3:0.581638 4:0.135748 5:0.642683 6:0.769586 7:0.000617116 
40 1:0.0788421 2:0.522679 3:0.583019 4:0.0562281 5:0.743746 6:0.86921 7:6.94254e-05 
40 1:0.0844576 2:0.373509 3:0.613658 4:0.0562281 5:0.641273 6:0.852141 7:0.000797107 
40 1:0.250515 2:0.326717 3:0.570742 4:0.0562281 5:0.497632 6:0.841769 7:4.62838e-05 
40 1:0.0456016 2:0.53529 3:0.608363 5:0.758873 6:0.788609 7:0.000221133 
40 1:0.0654514 2:0.31213 3:0.611317 5:0.516143 6:0.754125 7:9.51385e-05 
40 1:0.0464903 2:0.322322 3:0.611317 5:0.468103 6:0.766264 7:5.65689e-05 
40 2:0.522672 3:0.658061 5:0.667919 6:0.805473 7:0.000236561 
40 1:0.151315 2:0.404725 3:0.611317 5:0.608147 6:0.764579 7:7.71394e-05 
40 1:0.0143 2:0.550532 3:0.618944 4:0.0562281 5:0.697188 6:0.795735 7:0.000185135 
29.35314352626791 1:0.0101396 2:0.674381 3:0.667184 4:0.135748 5:0.746424 6:0.794105 7:0.000930816 
40 1:0.294372 2:0.368623 3:0.611317 5:0.635623 6:0.83511 7:4.11409e-05 
40 1:0.130488 2:0.360871 3:0.611317 5:0.658789 6:0.842907 7:3.34272e-05 
40 1:0.100881 2:0.397243 3:0.630711 5:0.708795 6:0.835325 7:0.000133708 
40 1:0.0463021 2:0.497508 3:0.645166 4:0.135748 5:0.704764 6:0.754948 7:0.00015685 
40 1:0.126752 2:0.342866 3:0.654147 5:0.412452 6:0.754967 7:8.74245e-05 
40 1:0.227569 2:0.385795 3:0.659338 4:0.135748 5:0.48734 6:0.858189 7:8.2282e-05 
40 1:0.0663883 2:0.325019 3:0.675185 5:0.605347 6:0.813859 7:0.000143994 
40 1:0.0940576 2:0.328264 3:0.654147 5:0.610173 6:0.820683 7:2.05705e-05 
40 1:0.16097 2:0.433057 3:0.654147 5:0.592868 6:0.839042 7:0.00015685 
40 1:0.130488 2:0.433241 3:0.654147 5:0.662156 6:0.836161 7:5.91403e-05 
40 1:0.120094 2:0.485161 3:0.681177 4:0.0562281 5:0.680552 6:0.85321 7:0.000575973 
40 1:0.078568 2:0.455611 3:0.6682 4:0.0562281 5:0.561719 6:0.885245 7:7.97108e-05 
40 1:0.162541 2:0.374721 3:0.658665 4:0.135748 5:0.613334 6:0.830145 7:0.000557976 
40 1:0.146373 2:0.312563 3:0.654147 5:0.459345 6:0.82603 7:6.17114e-05 
40 1:0.128241 2:0.306648 3:0.695594 5:0.525881 6:0.772589 7:7.71394e-05 
40 1:0.00815549 2:0.375206 3:0.675561 5:0.528572 6:0.838538 7:5.91403e-05 
40 1:0.0669722 2:0.32798 3:0.675561 5:0.612233 6:0.809995 7:0.000113138 
40 1:0.191977 2:0.400956 3:0.692515 5:0.647466 6:0.834007 7:0.000120852 
40 1:0.0103017 2:0.3454 3:0.675561 5:0.577694 6:0.836604 7:4.62838e-05 
40 1:0.252769 2:0.451936 3:0.675561 5:0.639405 6:0.88185 7:4.62838e-05 
40 1:0.0500383 2:0.50261 3:0.690411 5:0.674213 6:0.845759 7:0.0003497 
40 2:0.548831 3:0.675561 5:0.725859 6:0.876446 7:0.000172278 
40 1:0.0630323 2:0.341749 3:0.696976 5:0.474972 6:0.777015 7:0.000149136 
40 1:0.0949906 2:0.367225 3:0.696976 5:0.643802 6:0.810139 7:8.99959e-05 
40 1:0.147898 2:0.395345 3:0.696976 5:0.689536 6:0.824346 7:0.000164564 
40 1:0.0955399 2:0.401158 3:0.696976 5:0.594358 6:0.869122 7:1.79992e-05 
40 1:0.072516 2:0.257794 3:0.696976 5:0.500909 6:0.712277 7:3.34272e-05 
40 1:0.138419 2:0.359604 3:0.696976 5:0.70807 6:0.796268 7:0.00019542 
40 1:0.0652439 2:0.341409 3:0.696976 5:0.588762 6:0.828943 7:2.57131e-05 
40 1:0.0992751 2:0.319893 3:0.718391 5:0.398166 6:0.721413 7:6.68543e-05 
40 1:0.0801809 2:0.379815 3:0.718391 5:0.526656 6:0.823948 7:4.37123e-05 
40 1:0.196488 2:0.38145 3:0.718391 5:0.567706 6:0.833353 7:3.34272e-05 
40 1:0.141376 2:0.440012 3:0.736646 4:0.0562281 5:0.618732 6:0.841097 7:0.000154279 
40 1:0.0555782 2:0.440799 3:0.718391 5:0.579646 6:0.868005 7:6.68543e-05 
40 1:0.0786574 2:0.359621 3:0.743213 4:0.0993742 5:0.420027 6:0.800639 7:0.000110566 
23.50474546963249 1:0.143272 2:0.425908 3:0.74832 4:0.135748 5:0.631032 6:0.840027 7:0.000210848 
40 1:0.0811497 2:0.39961 3:0.76122 5:0.617855 6:0.806457 7:3.59983e-05 
40 1:0.0902108 2:0.507499 3:0.825465 5:0.5943 6:0.849503 7:3.08558e-05 
17.93727730499829 1:0.118476 2:0.616093 3:0.847389 4:0.0562281 5:0.698477 6:0.827352 7:0.000105424 
40 1:0.0243643 2:0.620556 3:0.658032 4:0.0562281 5:0.714601 6:0.779336 7:0.00330165 
40 1:0.173441 2:0.382741 3:0.585025 5:0.660728 6:0.81685 7:0.00125226 
2.970955920743608 1:0.189162 2:0.365434 3:0.570831 4:0.135748 5:0.659639 6:0.79123 7:0.00080227 
26.30348326691873 1:0.104758 2:0.803193 3:0.734115 4:0.135748 5:0.602644 6:0.819516 7:0.00452568 
40 1:0.163722 2:0.709796 3:0.632732 5:0.565934 6:0.804307 7:6.42855e-05 
40 1:0.0210774 2:0.902768 3:0.679694 5:0.655728 6:0.8342 7:0.00029057 
40 1:0.0362616 2:0.649214 3:0.658851 4:0.0562281 5:0.61577 6:0.86727 7:0.000336855 
40 1:0.333628 2:0.595934 3:0.654147 5:0.562344 6:0.848499 7:2.82856e-05 
40 1:0.0130488 2:0.798935 3:0.708754 5:0.679782 6:0.631279 7:0.000100285 
40 1:0.0719999 2:0.656863 3:0.718391 5:0.452642 6:0.87173 7:2.82856e-05 
40 1:0.130488 2:0.706763 3:0.718391 5:0.545507 6:0.851781 7:2.31428e-05 
40 1:0.261868 2:0.645498 3:0.739806 5:0.495294 6:0.882337 7:2.05714e-05 
40 1:0.0565447 2:0.722702 3:0.739806 5:0.450348 6:0.835455 7:3.6e-05 
40 1:0.126237 2:0.685608 3:0.782635 5:0.453579 6:0.844698 7:3.34285e-05 
40 1:0.12874 2:0.717007 3:0.782635 5:0.463372 6:0.856516 7:2.31428e-05 
40 2:0.761331 3:0.782635 5:0.520831 6:0.865851 7:3.34285e-05 
40 1:0.139435 2:0.666833 3:0.80405 5:0.403416 6:0.837773 7:1.8e-05 
40 1:0.023725 2:0.682072 3:0.80405 5:0.460801 6:0.835182 7:5.39997e-05 
40 1:0.235303 2:0.773227 3:0.80405 5:0.464407 6:0.856338 7:2.57142e-05 
40 1:0.0652439 2:0.680968 3:0.825465 5:0.44993 6:0.855685 7:2.05714e-05 
40 1:0.195732 2:0.745853 3:0.84688 5:0.462325 6:0.842112 7:2.57142e-05 
40 1:0.283386 2:0.865823 3:0.916279 4:0.0562281 5:0.53748 6:0.797825 7:0.000136285 
40 1:0.215041 2:0.667041 3:0.585534 4:0.0562281 5:0.627665 6:0.833272 7:0.000210852 
40 1:0.0304831 2:0.940938 3:0.717284 4:0.0562281 5:0.712121 6:0.773427 7:0.00203909 
40 1:0.0118625 2:0.77363 3:0.68321 5:0.648807 6:0.881818 7:5.39987e-05 
40 1:0.104564 2:0.749202 3:0.73614 4:0.0562281 5:0.666922 6:0.835215 7:0.000419132 
40 1:0.0744172 2:0.890944 3:0.753657 4:0.0562281 5:0.689531 6:0.818625 7:0.000673698 
40 1:0.11879 2:0.881675 3:0.767641 4:0.0562281 5:0.691984 6:0.810646 7:0.000974546 
40 1:0.410811 2:0.645293 3:0.70233 5:0.641739 6:0.876167 7:4.62847e-05 
40 2:0.972098 3:0.72145 5:0.697925 6:0.829704 7:0.000164567 
40 1:0.0835879 2:0.83004 3:0.773188 4:0.0562281 5:0.647412 6:0.811788 7:0.000215995 
40 1:0.0364617 2:0.92157 3:0.713712 4:0.0562281 5:0.782808 6:0.806066 7:0.00175118 
30.85404862063912 1:0.495466 2:0.63373 3:0.608144 5:0.763494 6:0.864391 7:9.77168e-05 
40 1:0.0436056 2:0.713895 3:0.687162 5:0.661379 6:0.851058 7:0.000169718 
40 1:0.205792 2:0.825164 3:0.826258 5:0.612461 6:0.885701 7:3.60009e-05 
40 1:0.136782 2:0.736403 3:0.865915 5:0.589187 6:0.877239 7:2.82865e-05 
40 1:0.0298452 2:0.896598 3:0.653202 4:0.0562281 5:0.624244 6:0.775081 7:0.0030883 
40 1:0.280278 2:0.739343 3:0.547073 5:0.583043 6:0.790214 7:0.000218572 
40 1:0.0805221 2:0.731819 3:0.676886 4:0.0562281 5:0.511837 6:0.787569 7:0.000246858 
40 1:0.092709 2:0.728515 3:0.678166 4:0.0562281 5:0.508869 6:0.805969 7:0.000187715 
-40 1:0.0120822 2:0.0754581 3:0.249844 5:0.530523 6:0.740321 7:0.000165678 
-40 2:0.182409 3:0.265468 5:0.626596 6:0.739203 7:1.30073e-05 
-40 2:0.143948 3:0.327571 5:0.596406 6:0.600525 7:3.66013e-06 
-29.48713688875167 1:0.180058 2:0.107969 3:0.162927 4:0.0562281 5:0.540417 6:0.632431 7:0.00332802 
-40 1:0.0549662 2:0.121504 3:0.187633 4:0.0562281 5:0.533276 6:0.78608 7:0.000760751 
-40 1:0.0380687 2:0.120707 3:0.1936 4:0.0993742 5:0.517692 6:0.791668 7:0.000542659 
-40 1:0.0443077 2:0.132636 3:0.235072 4:0.0993742 5:0.506792 6:0.776801 7:0.000735827 
-40 1:0.0360843 2:0.023583 3:0.330019 4:0.0562281 5:0.524783 6:0.624656 7:0.00983961 
-40 1:0.290678 2:0.0589549 3:0.208239 5:0.577762 6:0.859284 7:6.77549e-06 
-40 1:0.521925 2:0.106192 3:0.237426 5:0.407588 6:0.796596 7:1.61223e-05 
-40 1:0.0100375 2:0.159054 3:0.253655 5:0.587046 6:0.816643 7:3.79316e-05 
-40 1:0.494577 2:0.0979292 3:0.244931 5:0.395548 6:0.794853 7:2.54691e-05 
-40 1:0.327278 2:0.113705 3:0.253628 5:0.403071 6:0.797065 7:4.10471e-05 
-40 1:0.280549 2:0.0906294 3:0.265278 5:0.429446 6:0.765055 7:2.85847e-05 
-40 1:0.472474 2:0.0632324 3:0.298301 5:0.602806 6:0.788035 7:3.6599e-06 
-27.44905375853692 1:0.084761 2:0.0767501 3:0.253912 4:0.135748 5:0.459104 6:0.635945 7:0.0241173 
-40 1:0.236452 2:0.0987632 3:0.214199 5:0.504627 6:0.776307 7:9.89213e-06 
-40 1:0.0472456 2:0.101777 3:0.23637 4:0.0562281 5:0.4811 6:0.829429 7:8.77888e-05 
-40 1:0.0210464 2:0.0866125 3:0.255427 4:0.0562281 5:0.572555 6:0.715559 7:9.40204e-05 
-12.25835838960909 2:0.129856 3:0.243067 5:0.51651 6:0.764555 7:5.44547e-07 
-40 1:0.381845 2:0.0660587 3:0.251815 5:0.474298 6:0.793118 7:6.77628e-06 
-40 1:0.00611662 2:0.164308 3:0.284236 5:0.572401 6:0.678833 7:9.71362e-05 
-40 2:0.139194 3:0.258813 5:0.563295 6:0.790474 7:5.44547e-07 
-40 2:0.106183 3:0.277183 5:0.592688 6:0.565945 7:2.23556e-05 
-40 2:0.108824 3:0.280762 5:0.610638 6:0.537591 7:3.17033e-05 
-40 1:0.0657587 2:0.0761213 3:0.224204 4:0.167794 5:0.477422 6:0.66387 7:0.0512749 
-40 1:0.225668 2:0.085418 3:0.253564 5:0.482877 6:0.810604 7:1.3006e-05 
-40 1:0.32622 2:0.103475 3:0.253564 5:0.416406 6:0.813969 7:6.77507e-06 
-29.2535531637652 1:0.266173 2:0.0982995 3:0.274996 5:0.390077 6:0.79027 7:3.48142e-05 
-40 1:0.298089 2:0.0564368 3:0.288206 5:0.465623 6:0.824425 7:1.3006e-05 
-40 2:0.165992 3:0.288556 5:0.58443 6:0.741702 7:1.61215e-05 
-40 1:0.173984 2:0.051165 3:0.290305 5:0.545287 6:0.784808 7:6.77507e-06 
-40 1:0.342566 2:0.0569619 3:0.2946 5:0.558313 6:0.789999 7:3.16988e-05 
-40 1:0.298601 2:0.0870667 3:0.298178 5:0.458338 6:0.786097 7:9.89053e-06 
-40 1:0.260426 2:0.0582313 3:0.313827 4:0.0562281 5:0.520416 6:0.780362 7:8.15461e-05 
-40 1:0.264459 2:0.0285065 3:0.314799 5:0.455418 6:0.870564 7:1.61215e-05 
-40 1:0.391463 2:0.0909643 3:0.384782 5:0.48414 6:0.756572 7:3.65961e-06 
-40 1:0.23266 2:0.0546152 3:0.390031 5:0.431036 6:0.793342 7:9.89053e-06 
-40 1:0.17081 2:0.13759 3:0.178973 4:0.0562281 5:0.459256 6:0.836593 7:0.00021865 
-40 1:0.311456 2:0.0861696 3:0.180082 5:0.488138 6:0.793074 7:6.77605e-06 
-40 1:0.016311 2:0.117537 3:0.1955 5:0.581489 6:0.688125 7:4.72813e-05 
-40 1:0.25042 2:0.0972175 3:0.205801 5:0.508249 6:0.809655 7:2.85866e-05 
-40 1:0.0043496 2:0.142807 3:0.242017 5:0.60107 6:0.722005 7:4.41655e-05 
-40 1:0.214596 2:0.0926304 3:0.250224 4:0.0562281 5:0.47365 6:0.79634 7:3.17024e-05 
-40 1:0.0554163 2:0.154958 3:0.277183 4:0.0562281 5:0.584283 6:0.67991 7:0.000140755 
-40 1:0.435732 2:0.0549702 3:0.262312 5:0.54872 6:0.770927 7:1.61234e-05 
-40 1:0.229581 2:0.1082 3:0.265749 4:0.0562281 5:0.366718 6:0.819327 7:8.46707e-05 
-40 2:0.167668 3:0.284307 5:0.546145 6:0.760551 7:1.92392e-05 
-40 2:0.14724 3:0.295554 5:0.545528 6:0.748952 7:5.44479e-07 
-40 1:0.343414 2:0.104156 3:0.302302 4:0.0562281 5:0.395948 6:0.820077 7:1.92392e-05 
-40 1:0.237769 2:0.0295609 3:0.31025 5:0.450624 6:0.846977 7:1.30077e-05 
-13.04296814481007 1:0.121899 2:0.126709 3:0.312681 5:0.380918 6:0.809592 7:5.66287e-05 
-40 1:0.280394 2:0.0723514 3:0.316549 5:0.568153 6:0.788047 7:3.66026e-06 
-40 1:0.0356247 2:0.0785561 3:0.188009 4:0.0562281 5:0.521805 6:0.80464 7:0.00029967 
-40 1:0.0325302 2:0.091033 3:0.208731 4:0.0562281 5:0.459619 6:0.797241 7:0.00029967 
-40 1:0.0297558 2:0.0898708 3:0.238541 4:0.135748 5:0.454831 6:0.788781 7:0.0011098 
-40 1:0.00815549 2:0.0798116 3:0.188862 5:0.550362 6:0.736574 7:2.23558e-05 
-40 1:0.260976 2:0.0543508 3:0.193729 5:0.469853 6:0.811825 7:1.30081e-05 
-12.81287253534142 1:0.195732 2:0.056298 3:0.198596 5:0.47126 6:0.819986 7:9.89223e-06 
-40 1:0.238987 2:0.0476953 3:0.218064 4:0.0562281 5:0.490347 6:0.789511 7:5.66306e-05 
-40 1:0.309449 2:0.0540794 3:0.221957 5:0.454907 6:0.750492 7:1.30081e-05 
-40 1:0.243818 2:0.0596725 3:0.258622 5:0.546282 6:0.795979 7:6.77634e-06 
-40 1:0.0511662 2:0.132765 3:0.268496 4:0.0562281 5:0.42874 6:0.856779 7:0.00017815 
-40 1:0.229447 2:0.138757 3:0.273274 4:0.0562281 5:0.531022 6:0.773216 7:9.71372e-05 
-40 1:0.191842 2:0.0411347 3:0.276815 5:0.497104 6:0.770338 7:4.1051e-05 
-40 1:0.29178 2:0.0406165 3:0.276467 5:0.46163 6:0.81188 7:3.66046e-06 
-40 1:0.269335 2:0.035351 3:0.276467 5:0.47021 6:0.807778 7:6.77634e-06 
-40 1:0.213723 2:0.063154 3:0.282957 5:0.438218 6:0.773819 7:1.6124e-05 
-40 1:0.132994 2:0.0913988 3:0.295327 4:0.0562281 5:0.545211 6:0.802542 7:4.72829e-05 
-40 1:0.214437 2:0.131226 3:0.30859 5:0.395328 6:0.828097 7:4.41671e-05 
-40 1:0.25869 2:0.146954 3:0.311348 5:0.382258 6:0.808144 7:5.35148e-05 
-40 1:0.25251 2:0.0409289 3:0.302888 5:0.412871 6:0.818459 7:1.92399e-05 
-40 1:0.032622 2:0.152077 3:0.31297 5:0.479635 6:0.800962 7:3.66046e-06 
-40 1:0.0387468 2:0.173591 3:0.332554 4:0.0562281 5:0.491355 6:0.808923 7:0.00019373 
-40 1:0.147668 2:0.0398288 3:0.313318 5:0.431198 6:0.845897 7:1.92399e-05 
-40 1:0.176104 2:0.0250177 3:0.310537 5:0.4678 6:0.831933 7:3.66046e-06 
-40 1:0.0588432 2:0.174883 3:0.34104 4:0.0562281 5:0.543928 6:0.822399 7:0.000312133 
-40 1:0.206061 2:0.0346059 3:0.320271 5:0.438352 6:0.828656 7:3.66046e-06 
-40 1:0.195914 2:0.0284687 3:0.331303 4:0.0562281 5:0.445805 6:0.827824 7:4.41671e-05 
-40 1:0.273764 2:0.0724219 3:0.334385 5:0.392543 6:0.797252 7:2.85876e-05 
-40 1:0.165214 2:0.054576 3:0.334871 5:0.503167 6:0.783355 7:3.66046e-06 
-40 1:0.266215 2:0.0680284 3:0.362249 5:0.450052 6:0.769789 7:2.23558e-05 
-40 1:0.253114 2:0.0378406 3:0.365401 4:0.0562281 5:0.449758 6:0.781371 7:3.17033e-05 
-40 1:0.192365 2:0.0431988 3:0.368941 5:0.496218 6:0.773444 7:1.30081e-05 
-40 1:0.188102 2:0.0479299 3:0.378675 5:0.404861 6:0.865018 7:3.66046e-06 
-40 1:0.272928 2:0.0641704 3:0.397331 5:0.45478 6:0.755455 7:1.6124e-05 
-40 1:0.225206 2:0.0871896 3:0.458632 5:0.322739 6:0.815172 7:1.92399e-05 
-40 1:0.423451 2:0.0944842 3:0.464334 5:0.251052 6:0.833755 7:1.30081e-05 
-40 1:0.227583 2:0.0959001 3:0.466281 5:0.426771 6:0.842125 7:9.89223e-06 
-40 1:0.408616 2:0.0822808 3:0.469525 5:0.36892 6:0.790425 7:6.77634e-06 
-40 1:0.258034 2:0.0396917 3:0.484126 5:0.476541 6:0.796597 7:6.77634e-06 
-40 1:0.188427 2:0.0665692 3:0.497429 5:0.445437 6:0.81865 7:1.30081e-05 
-40 1:0.259863 2:0.0518948 3:0.573729 5:0.424742 6:0.810013 7:3.79352e-05 
-40 1:0.0725186 2:0.0848922 3:0.315187 4:0.167794 5:0.46938 6:0.665785 7:0.0296793 
-40 1:0.0228354 2:0.154883 3:0.283541 4:0.0562281 5:0.587448 6:0.690355 7:5.97399e-05 
-40 1:0.023725 2:0.171391 3:0.31786 5:0.489791 6:0.773942 7:3.16997e-05 
-40 1:0.0177938 2:0.16732 3:0.33287 5:0.47994 6:0.741485 7:3.16997e-05 
-40 2:0.154762 3:0.353339 5:0.545082 6:0.614962 7:1.30064e-05 
-40 1:0.237186 2:0.127538 3:0.353339 5:0.389267 6:0.80742 7:6.77536e-06 
-40 1:0.00932055 2:0.155066 3:0.359057 5:0.506625 6:0.69551 7:1.92376e-05 
-40 1:0.0358705 2:0.137115 3:0.383789 4:0.0562281 5:0.415516 6:0.775092 7:0.000106473 
-40 1:0.0652439 2:0.0826806 3:0.388363 5:0.462673 6:0.773727 7:3.6598e-06 
-40 1:0.0303366 2:0.114173 3:0.211097 4:0.0562281 5:0.470132 6:0.791524 7:0.0002716 
-30.59913351504455 1:0.046235 2:0.115384 3:0.212886 4:0.0562281 5:0.465626 6:0.751897 7:0.0002716 
-40 1:0.433332 2:0.0765526 3:0.216823 5:0.426337 6:0.770981 7:1.61222e-05 
-40 1:0.280902 2:0.0468309 3:0.239568 4:0.0562281 5:0.536981 6:0.812592 7:1.61222e-05 
-40 1:0.0179657 2:0.126219 3:0.266344 4:0.0562281 5:0.641565 6:0.646665 7:0.000212404 
-40 1:0.231341 2:0.0477995 3:0.264062 5:0.51669 6:0.804937 7:2.23533e-05 
-40 1:0.504743 2:0.0899332 3:0.285056 5:0.482027 6:0.77881 7:3.65984e-06 
-40 1:0.498948 2:0.0892485 3:0.31025 5:0.409141 6:0.76164 7:1.30066e-05 
-40 1:0.178357 2:0.0336318 3:0.306051 5:0.433372 6:0.815331 7:9.89099e-06 
-40 1:0.402051 2:0.0806348 3:0.306051 5:0.496253 6:0.800939 7:3.65984e-06 
-40 1:0.372401 2:0.0761095 3:0.3113 5:0.492109 6:0.781942 7:1.30066e-05 
-40 1:0.243555 2:0.0693218 3:0.324797 5:0.48116 6:0.797363 7:1.92377e-05 
-40 1:0.422475 2:0.0959331 3:0.333607 5:0.475219 6:0.767894 7:9.89099e-06 
-40 1:0.481042 2:0.100618 3:0.369036 5:0.445262 6:0.794115 7:6.77543e-06 
-40 1:0.289791 2:0.0439217 3:0.493592 4:0.135748 5:0.526324 6:0.746161 7:0.000159439 
-40 1:0.0691553 2:0.0992043 3:0.274586 4:0.135748 5:0.515656 6:0.702235 7:0.0293558 
-40 1:0.415568 2:0.0794781 3:0.190884 4:0.135748 5:0.567449 6:0.811702 7:0.000642357 
-40 1:0.330924 2:0.0795271 3:0.192288 4:0.167794 5:0.599386 6:0.795257 7:0.000623664 
-40 1:0.0858695 2:0.14084 3:0.234737 5:0.529405 6:0.689386 7:0.00172036 
-40 1:0.0742521 2:0.140293 3:0.233881 5:0.488876 6:0.824418 7:6.77549e-06 
-40 1:0.363337 2:0.113197 3:0.321118 4:0.0562281 5:0.459439 6:0.78658 7:4.72783e-05 
-40 1:0.42835 2:0.11232 3:0.327435 5:0.382129 6:0.80173 7:1.92379e-05 
-40 1:0.460081 2:0.114146 3:0.351392 4:0.135748 5:0.360409 6:0.801531 7:3.48159e-05 
-40 1:0.275604 2:0.130454 3:0.354977 4:0.0562281 5:0.482108 6:0.779236 7:1.61223e-05 
-40 1:0.502041 2:0.120724 3:0.359529 5:0.457218 6:0.799475 7:1.92379e-05 
-40 1:0.398387 2:0.118722 3:0.370114 5:0.361381 6:0.814916 7:2.85847e-05 
-40 1:0.256763 2:0.125573 3:0.376089 5:0.40296 6:0.820333 7:9.89108e-06 
-40 2:0.178801 3:0.396404 5:0.616002 6:0.659713 7:6.77549e-06 
-40 2:0.171496 3:0.401184 5:0.702646 6:0.625183 7:9.89108e-06 
-40 1:0.322931 2:0.105536 3:0.45974 5:0.466673 6:0.809471 7:9.89108e-06 
-40 1:0.368052 2:0.104989 3:0.465716 5:0.478503 6:0.816241 7:9.89108e-06 
-40 1:0.430136 2:0.0567748 3:0.0747001 5:0.50728 6:0.843147 7:3.65964e-06 
-40 1:0.146059 2:0.0909455 3:0.166797 4:0.0562281 5:0.533399 6:0.714889 7:0.00811328 
-40 1:0.176582 2:0.102157 3:0.171299 4:0.0562281 5:0.538791 6:0.652781 7:0.00242127 
-40 1:0.0423436 2:0.110969 3:0.1916 4:0.0993742 5:0.520882 6:0.766905 7:0.00097569 
-40 1:0.010874 2:0.140971 3:0.251424 5:0.622472 6:0.692674 7:1.61216e-05 
-40 1:0.0153515 2:0.189487 3:0.265947 5:0.637054 6:0.790033 7:0.000103355 
-40 1:0.333262 2:0.0789291 3:0.263552 4:0.0562281 5:0.497929 6:0.771394 7:2.5468e-05 
-40 1:0.043496 2:0.13084 3:0.265285 5:0.635583 6:0.762478 7:6.77513e-06 
-40 1:0.0380589 2:0.150678 3:0.286509 5:0.475186 6:0.823908 7:3.48145e-05 
-40 1:0.0652439 2:0.197785 3:0.284343 5:0.640446 6:0.786971 7:6.77513e-06 
-40 2:0.17987 3:0.303401 5:0.649285 6:0.611669 7:1.92371e-05 
-40 1:0.567361 2:0.122252 3:0.322707 5:0.449077 6:0.788623 7:1.92371e-05 
-40 1:0.335489 2:0.0775746 3:0.360577 5:0.519289 6:0.797849 7:3.65964e-06 
-40 1:0.253165 2:0.071267 3:0.42988 5:0.486626 6:0.841091 7:6.77513e-06 
-32.47494139186097 1:0.714303 2:0.091717 3:0.13247 5:0.451819 6:0.812568 7:2.85866e-05 
-40 1:0.125024 2:0.104459 3:0.191229 4:0.0562281 5:0.474382 6:0.800933 7:4.10497e-05 
-40 1:0.279422 2:0.0720443 3:0.211574 5:0.508373 6:0.798888 7:6.77605e-06 
-40 1:0.195732 2:0.107482 3:0.223586 5:0.506034 6:0.779324 7:6.77605e-06 
-40 1:0.0602811 2:0.161242 3:0.244949 5:0.591349 6:0.764226 7:5.97444e-05 
-40 1:0.020075 2:0.148016 3:0.248731 5:0.595096 6:0.695846 7:7.84392e-05 
-40 1:0.253156 2:0.0916517 3:0.250354 5:0.457494 6:0.795195 7:1.30077e-05 
-40 1:0.0521951 2:0.133064 3:0.253443 5:0.597176 6:0.775467 7:1.30077e-05 
-40 1:0.00815549 2:0.155178 3:0.275385 5:0.532883 6:0.753441 7:4.72813e-05 
-40 2:0.164219 3:0.280211 5:0.574046 6:0.755193 7:6.77605e-06 
-40 1:0.279422 2:0.0663026 3:0.285359 5:0.531389 6:0.778472 7:6.77605e-06 
-40 1:0.446514 2:0.0646959 3:0.316246 5:0.524509 6:0.80294 7:9.89187e-06 
-40 2:0.128522 3:0.347132 5:0.499701 6:0.78986 7:6.77605e-06 
-40 1:0.032622 2:0.142054 3:0.347132 5:0.464707 6:0.803964 7:3.66026e-06 
-40 1:0.0469189 2:0.102172 3:0.203945 4:0.0562281 5:0.496293 6:0.72185 7:0.000941471 
-40 1:0.273471 2:0.0663863 3:0.191296 5:0.48937 6:0.803869 7:1.61226e-05 
-40 1:0.0332229 2:0.112437 3:0.238609 4:0.0562281 5:0.498888 6:0.778604 7:0.000897851 
-40 1:0.00724932 2:0.103674 3:0.370022 5:0.490831 6:0.725436 7:2.54695e-05 
-40 2:0.158331 3:0.377052 5:0.496025 6:0.775631 7:1.61226e-05 
-40 1:0.0279616 2:0.103839 3:0.389799 5:0.425785 6:0.726719 7:6.28573e-05 
-40 1:0.130488 2:0.106989 3:0.398142 5:0.494883 6:0.790676 7:6.77562e-06 
-40 1:0.209603 2:0.0610961 3:0.446001 5:0.438094 6:0.857323 7:1.61226e-05 
-40 1:0.308473 2:0.0532174 3:0.525901 5:0.487271 6:0.794303 7:9.89128e-06 
-40 1:0.0217479 2:0.174379 3:0.241044 5:0.59369 6:0.777541 7:1.61239e-05 
-40 1:0.0272705 2:0.162048 3:0.271502 5:0.549775 6:0.695424 7:0.000178149 
-40 1:0.00724932 2:0.122275 3:0.273243 5:0.498539 6:0.742882 7:2.54715e-05 
-40 1:0.0330981 2:0.126118 3:0.301512 5:0.631505 6:0.764982 7:0.000137643 
-5.953577561837861 2:0.135439 3:0.300312 5:0.490284 6:0.77704 7:1.3008e-05 
-40 1:0.00501876 2:0.181783 3:0.311571 5:0.587534 6:0.714253 7:3.79349e-05 
-40 1:0.156585 2:0.0617669 3:0.123396 4:0.0562281 5:0.493587 6:0.84583 7:1.30077e-05 
-40 1:0.0147267 2:0.155896 3:0.214991 4:0.0562281 5:0.632022 6:0.730177 7:0.000523999 
-40 1:0.218642 2:0.091447 3:0.197578 4:0.0562281 5:0.464595 6:0.81299 7:3.48181e-05 
-40 1:0.0492412 2:0.0830255 3:0.295015 4:0.0562281 5:0.49704 6:0.638131 7:0.00624459 
-40 1:0.198346 2:0.062765 3:0.212886 5:0.468096 6:0.837923 7:2.2355e-05 
-40 1:0.338807 2:0.0873968 3:0.218255 5:0.441579 6:0.821369 7:3.17024e-05 
-40 1:0.166084 2:0.0416399 3:0.236768 5:0.521294 6:0.847377 7:1.30077e-05 
-11.5631947304226 1:0.145783 2:0.0843515 3:0.245452 4:0.0562281 5:0.404851 6:0.833658 7:3.17024e-05 
-40 1:0.00724932 2:0.165072 3:0.275142 5:0.556473 6:0.63245 7:2.54708e-05 
-40 1:0.134864 2:0.0502728 3:0.275871 5:0.473014 6:0.814298 7:2.2355e-05 
-40 1:0.336749 2:0.0761289 3:0.279808 5:0.504472 6:0.829447 7:6.77605e-06 
-40 1:0.319314 2:0.092755 3:0.283557 5:0.482753 6:0.816213 7:4.10497e-05 
-40 1:0.16271 2:0.0857834 3:0.340693 5:0.454892 6:0.794666 7:1.30077e-05 
-40 1:0.0530585 2:0.0826559 3:0.221892 4:0.135748 5:0.522129 6:0.670634 7:0.0550958 
-40 1:0.0289973 2:0.0896733 3:0.239752 5:0.575525 6:0.789819 7:2.5467e-05 
-40 2:0.167409 3:0.27106 5:0.598584 6:0.788206 7:6.77477e-06 
-40 1:0.389851 2:0.146029 3:0.285775 5:0.458593 6:0.801867 7:2.85823e-05 
-40 1:0.0122332 2:0.179852 3:0.29552 5:0.604973 6:0.731624 7:4.72744e-05 
-40 1:0.0778001 2:0.0925339 3:0.245178 4:0.135748 5:0.556608 6:0.660514 7:0.023692 
-40 1:0.0396531 2:0.145457 3:0.21691 4:0.0562281 5:0.586101 6:0.637159 7:0.000486587 
-40 2:0.145636 3:0.262385 5:0.525099 6:0.742399 7:2.23539e-05 
-40 2:0.197233 3:0.274492 5:0.700011 6:0.693342 7:3.79323e-05 
-40 1:0.0177938 2:0.200914 3:0.275116 5:0.587275 6:0.639816 7:3.17007e-05 
-40 1:0.00477394 2:0.145342 3:0.307513 5:0.493512 6:0.786867 7:0.000252912 
-40 1:0.0575682 2:0.115335 3:0.331129 5:0.464945 6:0.791931 7:5.03948e-05 
-40 1:0.0652439 2:0.146201 3:0.32658 5:0.457381 6:0.743084 7:1.30069e-05 
-40 1:0.0206033 2:0.145917 3:0.332111 5:0.444982 6:0.752442 7:5.6626e-05 
-40 1:0.0472477 2:0.14018 3:0.338934 5:0.481484 6:0.722061 7:3.79323e-05 
-40 1:0.0729655 2:0.134898 3:0.346833 5:0.489138 6:0.776747 7:1.92383e-05 
-28.90901413846657 1:0.0144986 2:0.0619435 3:0.392923 5:0.47532 6:0.708488 7:0.000109592 
-18.52399066907678 1:0.409814 2:0.0633289 3:0.161197 5:0.44729 6:0.817489 7:3.17033e-05 
-40 1:0.425101 2:0.0534766 3:0.17175 4:0.0562281 5:0.425102 6:0.835805 7:7.53253e-05 
-40 1:0.434023 2:0.0504321 3:0.181049 5:0.451088 6:0.873263 7:1.61239e-05 
-40 1:0.319818 2:0.0656211 3:0.201755 4:0.0562281 5:0.476819 6:0.81513 7:3.17033e-05 
-40 1:0.435337 2:0.0588174 3:0.205313 5:0.442736 6:0.852175 7:6.77628e-06 
-40 1:0.0494737 2:0.114888 3:0.250703 4:0.0993742 5:0.45535 6:0.791069 7:0.000710962 
-40 1:0.305017 2:0.0867586 3:0.230359 5:0.522721 6:0.821278 7:9.89213e-06 
-40 1:0.394163 2:0.0867586 3:0.230359 5:0.394778 6:0.839798 7:9.89213e-06 
-40 1:0.139777 2:0.113827 3:0.26699 4:0.0562281 5:0.47852 6:0.873787 7:5.97461e-05 
-40 1:0.163428 2:0.118307 3:0.273052 5:0.497408 6:0.842184 7:3.17033e-05 
-40 1:0.346036 2:0.0643218 3:0.277321 4:0.135748 5:0.540336 6:0.784978 7:4.72826e-05 
-40 1:0.025179 2:0.15614 3:0.324249 4:0.0562281 5:0.51125 6:0.622154 7:0.000421187 
-40 1:0.00343389 2:0.128037 3:0.28622 5:0.542375 6:0.764883 7:5.663e-05 
-40 1:0.16849 2:0.11695 3:0.293289 5:0.404079 6:0.865297 7:1.3008e-05 
-40 1:0.232789 2:0.140742 3:0.303412 5:0.475129 6:0.841786 7:2.54715e-05 
-40 1:0.171864 2:0.0556497 3:0.313013 5:0.433119 6:0.846094 7:1.3008e-05 
-40 1:0.299537 2:0.0705521 3:0.322405 5:0.494402 6:0.828043 7:1.3008e-05 
-40 1:0.439137 2:0.0767196 3:0.333472 4:0.0562281 5:0.509323 6:0.790434 7:6.90934e-05 
-40 1:0.307697 2:0.0683682 3:0.350896 5:0.441723 6:0.835505 7:6.77628e-06 
-40 1:0.276219 2:0.0687864 3:0.353505 4:0.0562281 5:0.387004 6:0.864529 7:2.54715e-05 
-40 1:0.466494 2:0.0750958 3:0.365696 5:0.426199 6:0.780712 7:3.17033e-05 
-40 2:0.17105 3:0.371246 5:0.501536 6:0.749316 7:5.44547e-07 
-40 1:0.198691 2:0.0368922 3:0.381309 5:0.483176 6:0.831827 7:1.92397e-05 
-40 1:0.192702 2:0.031814 3:0.391205 5:0.398274 6:0.84453 7:2.23556e-05 
-40 1:0.38119 2:0.112255 3:0.394727 5:0.269766 6:0.820464 7:9.89213e-06 
-40 1:0.287896 2:0.072027 3:0.399424 5:0.485327 6:0.82666 7:3.66042e-06 
-40 1:0.271607 2:0.108715 3:0.436993 5:0.439574 6:0.791398 7:6.77628e-06 
-40 1:0.471468 2:0.119225 3:0.452021 5:0.410405 6:0.785975 7:2.85873e-05 
-40 1:0.240719 2:0.0495083 3:0.471745 5:0.475806 6:0.856774 7:1.3008e-05 
-40 1:0.378898 2:0.112949 3:0.473624 5:0.399461 6:0.806104 7:1.3008e-05 
-40 1:0.209889 2:0.0497248 3:0.512133 5:0.472086 6:0.846948 7:3.66042e-06 
-40 1:0.130488 2:0.0268553 3:0.606057 5:0.41283 6:0.866872 7:3.66042e-06 
-40 1:0.0660001 2:0.0388144 3:0.16057 5:0.698782 6:0.766194 7:0.00114959 
-40 1:0.402336 2:0.0813469 3:0.180142 5:0.668021 6:0.927929 7:3.34337e-05 
-40 1:0.208538 2:0.176624 3:0.272112 4:0.0993742 5:0.841991 6:0.910808 7:0.000888555 
-40 1:0.0399346 2:0.183892 3:0.277818 4:0.0993742 5:0.899449 6:0.56359 7:0.00282833 
-39.40600624452088 1:0.0495434 2:0.0672504 3:0.229258 4:0.135748 5:0.993905 6:0.725999 7:0.00123061 
-40 1:0.223666 2:0.0922663 3:0.283284 4:0.0993742 5:0.783413 6:0.765269 7:0.000965068 
-40 1:0.405595 2:0.104941 3:0.266854 4:0.0562281 5:0.769266 6:0.84847 7:1.76816e-05 
-21.46825560851414 1:0.0137355 2:0.159098 3:0.310622 5:0.838141 6:0.758229 7:4.01848e-05 
-40 1:0.0570884 2:0.163406 3:0.324462 5:0.650666 6:0.838435 7:1.54312e-05 
-40 1:0.236955 2:0.113605 3:0.231567 4:0.0562281 5:0.551254 6:0.678433 7:0.00283568 
-40 1:0.0261663 2:0.139304 3:0.277446 5:0.491854 6:0.784675 7:8.15481e-05 
-40 1:0.250302 2:0.0687659 3:0.270988 5:0.549939 6:0.808477 7:1.92374e-05 
-40 1:0.279566 2:0.08314 3:0.278968 4:0.0562281 5:0.486912 6:0.763467 7:4.7277e-05 
-40 1:0.152085 2:0.142235 3:0.278117 5:0.516416 6:0.820779 7:1.61219e-05 
-40 1:0.0410926 2:0.137974 3:0.314147 5:0.535384 6:0.804907 7:0.000209285 
-40 1:0.251879 2:0.111955 3:0.300803 5:0.611636 6:0.839816 7:2.8584e-05 
-40 1:0.0719999 2:0.106803 3:0.306474 5:0.495817 6:0.835289 7:9.89082e-06 
-40 1:0.26359 2:0.166913 3:0.311939 5:0.575366 6:0.849036 7:3.16994e-05 
-40 1:0.263663 2:0.153287 3:0.316304 4:0.0562281 5:0.576368 6:0.866478 7:3.48152e-05 
-40 1:0.0217479 2:0.169661 3:0.343148 5:0.563073 6:0.681527 7:2.54685e-05 
-40 1:0.0489329 2:0.148051 3:0.405154 5:0.428429 6:0.746806 7:9.89082e-06 
-40 1:0.517729 2:0.109098 3:0.414228 5:0.560162 6:0.791635 7:6.77526e-06 
-40 1:0.360229 2:0.0935264 3:0.42124 4:0.135748 5:0.509064 6:0.802476 7:3.16994e-05 
-40 1:0.418591 2:0.119089 3:0.418765 5:0.482963 6:0.785559 7:6.77526e-06 
-40 1:0.191524 2:0.0563226 3:0.427839 5:0.524616 6:0.822068 7:9.89082e-06 
-40 1:0.179363 2:0.0543664 3:0.497029 5:0.439093 6:0.875803 7:2.23529e-05 
-40 1:0.324023 2:0.0464884 3:0.532191 5:0.433973 6:0.906199 7:6.77526e-06 
-40 1:0.338784 2:0.0542231 3:0.586636 5:0.533075 6:0.895966 7:3.65974e-06 
-40 1:0.359334 2:0.0870469 3:0.158204 5:0.480963 6:0.812514 7:3.6599e-06 
-40 1:0.357997 2:0.0723664 3:0.334159 5:0.372815 6:0.856078 7:1.61223e-05 
-40 1:0.0657698 2:0.15647 3:0.33739 5:0.513127 6:0.670895 7:4.72783e-05 
-40 1:0.623701 2:0.105301 3:0.343332 5:0.45032 6:0.809112 7:3.6599e-06 
-40 1:0.102155 2:0.0657234 3:0.209198 4:0.167794 5:0.476652 6:0.633205 7:0.0420155 
-40 1:0.0595533 2:0.138083 3:0.216095 4:0.135748 5:0.522626 6:0.769213 7:0.00133084 
-40 1:0.279316 2:0.0832594 3:0.204903 5:0.511113 6:0.846756 7:4.41603e-05 
-40 1:0.360101 2:0.0884035 3:0.227814 4:0.0562281 5:0.499924 6:0.840037 7:0.000175009 
-40 1:0.185385 2:0.093194 3:0.214076 5:0.471438 6:0.828557 7:7.21991e-05 
-40 1:0.0575674 2:0.138434 3:0.274718 4:0.0562281 5:0.531663 6:0.757115 7:0.000866634 
-40 1:0.0253726 2:0.17039 3:0.248266 5:0.565849 6:0.771579 7:0.000109584 
-40 1:0.0553956 2:0.141158 3:0.278246 4:0.0562281 5:0.563571 6:0.645122 7:0.000380629 
-40 2:0.112217 3:0.233256 5:0.553069 6:0.767958 7:3.65954e-06 
-40 1:0.260976 2:0.100197 3:0.248266 5:0.472693 6:0.86562 7:3.65954e-06 
-40 1:0.0289973 2:0.125924 3:0.295313 5:0.49422 6:0.79671 7:0.00022174 
-40 1:0.00186411 2:0.129872 3:0.333325 5:0.47421 6:0.760306 7:0.000106469 
-40 1:0.0347967 2:0.102267 3:0.323985 5:0.45733 6:0.730384 7:4.41603e-05 
-40 2:0.119025 3:0.346548 5:0.539394 6:0.710163 7:4.10448e-05 
-40 1:0.292078 2:0.125529 3:0.340552 5:0.465696 6:0.809807 7:2.54676e-05 
-40 1:0.010874 2:0.0687277 3:0.463206 5:0.523573 6:0.666355 7:7.21991e-05 
-40 1:0.109537 2:0.0848513 3:0.187613 4:0.167794 5:0.50955 6:0.634877 7:0.056374 
-40 1:0.117838 2:0.0958484 3:0.259049 4:0.0562281 5:0.492015 6:0.671908 7:0.00883658 
-40 1:0.195744 2:0.0763753 3:0.218333 4:0.0562281 5:0.492768 6:0.85524 7:0.000598754 
-40 1:0.214637 2:0.0854742 3:0.260399 4:0.0993742 5:0.508563 6:0.838518 7:0.000891626 
-40 1:0.0413821 2:0.117993 3:0.30683 4:0.0562281 5:0.49822 6:0.761891 7:0.00115958 
-40 1:0.306455 2:0.0524757 3:0.317385 5:0.414579 6:0.894798 7:1.30071e-05 
-40 1:0.26584 2:0.0965324 3:0.326861 5:0.4074 6:0.83248 7:6.77572e-06 
-40 1:0.0808235 2:0.170522 3:0.363183 5:0.526977 6:0.809064 7:0.00021241 
-40 2:0.144441 3:0.355287 5:0.457333 6:0.720428 7:3.66003e-06 
-40 1:0.315133 2:0.160328 3:0.378976 5:0.426441 6:0.880738 7:1.61227e-05 
-40 1:0.243348 2:0.0532097 3:0.407403 5:0.434851 6:0.897812 7:9.89138e-06 
-40 2:0.143324 3:0.412141 5:0.442346 6:0.724476 7:9.89138e-06 
-40 1:0.0534026 2:0.0972532 3:0.350088 4:0.0562281 5:0.558369 6:0.632223 7:0.00668327 
-40 1:0.209056 2:0.103788 3:0.286955 4:0.0562281 5:0.489651 6:0.817246 7:0.000221744 
-40 1:0.275292 2:0.0903275 3:0.327817 5:0.539763 6:0.827626 7:6.77513e-06 
-40 1:0.431308 2:0.116822 3:0.330496 5:0.49015 6:0.812971 7:3.16991e-05 
-40 1:0.068373 2:0.133045 3:0.167095 4:0.0562281 5:0.492797 6:0.83354 7:0.000748283 
-40 2:0.204839 3:0.216194 4:0.0562281 5:0.550426 6:0.833294 7:2.54689e-05 
-21.75777885000576 1:0.064622 2:0.1627 3:0.2546 5:0.486398 6:0.833694 7:5.35093e-05 
-40 1:0.44222 2:0.15158 3:0.280531 5:0.544679 6:0.834165 7:1.30066e-05 
-40 1:0.218747 2:0.151425 3:0.299936 5:0.480222 6:0.833887 7:6.77543e-06 
-40 1:0.201154 2:0.102784 3:0.140841 4:0.0562281 5:0.514879 6:0.71031 7:0.00376738 
-40 1:0.146015 2:0.103857 3:0.152349 4:0.135748 5:0.515976 6:0.706137 7:0.00724137 
-40 1:0.0538229 2:0.124416 3:0.165925 4:0.0562281 5:0.541811 6:0.751061 7:0.000823083 
-40 1:0.199119 2:0.0878142 3:0.167836 4:0.0562281 5:0.551352 6:0.849665 7:0.000150097 
-40 1:0.211354 2:0.0619591 3:0.178655 5:0.475589 6:0.86578 7:3.66003e-06 
-40 1:0.245137 2:0.0963423 3:0.185802 5:0.491876 6:0.876441 7:2.23541e-05 
-40 1:0.319814 2:0.097247 3:0.23713 5:0.441106 6:0.8786 7:9.89138e-06 
-40 1:0.195817 2:0.0742754 3:0.246226 5:0.434921 6:0.854355 7:6.77572e-06 
-40 1:0.281906 2:0.107511 3:0.279269 4:0.0562281 5:0.382936 6:0.833732 7:4.10481e-05 
-40 1:0.256574 2:0.0486934 3:0.298204 5:0.476939 6:0.83332 7:1.61227e-05 
-40 1:0.31861 2:0.114815 3:0.303401 5:0.48478 6:0.822834 7:9.89138e-06 
-40 1:0.301812 2:0.0449142 3:0.335888 5:0.437346 6:0.892234 7:9.89138e-06 
-40 1:0.267 2:0.0797047 3:0.342385 5:0.478951 6:0.796607 7:9.89138e-06 
-40 1:0.382526 2:0.112968 3:0.347954 5:0.474477 6:0.790654 7:1.92384e-05 
-40 1:0.302376 2:0.102283 3:0.3533 5:0.407332 6:0.824519 7:1.30071e-05 
-40 1:0.092664 2:0.0906977 3:0.2991 4:0.167794 5:0.524403 6:0.635411 7:0.0440955 
-40 1:0.041514 2:0.117112 3:0.369792 5:0.470283 6:0.69962 7:0.00500765 
-40 1:0.234699 2:0.076882 3:0.243148 5:0.440134 6:0.858129 7:4.41658e-05 
-40 2:0.12497 3:0.254473 5:0.592131 6:0.534181 7:1.30078e-05 
-40 1:0.00543699 2:0.150302 3:0.272919 4:0.0562281 5:0.609486 6:0.664377 7:0.000109598 
-40 1:0.291683 2:0.109465 3:0.282614 4:0.0562281 5:0.430253 6:0.855593 7:9.09033e-05 
-40 2:0.17736 3:0.311369 5:0.622351 6:0.643828 7:5.66293e-05 
-40 1:0.233718 2:0.0840444 3:0.300803 5:0.43701 6:0.818774 7:9.89197e-06 
-40 2:0.16276 3:0.314187 5:0.544021 6:0.740641 7:1.30078e-05 
-40 1:0.298258 2:0.0517799 3:0.319188 4:0.0562281 5:0.373104 6:0.8967 7:1.92394e-05 
-40 1:0.26461 2:0.0921539 3:0.322424 5:0.455244 6:0.853299 7:1.30078e-05 
-40 1:0.200853 2:0.0558458 3:0.366694 5:0.431086 6:0.849385 7:1.30078e-05 
-40 1:0.0471539 2:0.121207 3:0.198079 4:0.0562281 5:0.493537 6:0.792166 7:0.000760751 
-1.252753276221087 1:0.0185631 2:0.183374 3:0.231777 5:0.570908 6:0.737355 7:3.48159e-05 
-40 1:0.0594439 2:0.11546 3:0.248391 4:0.0993742 5:0.493869 6:0.71534 7:0.000352608 
-40 2:0.170459 3:0.298277 5:0.57251 6:0.753863 7:9.89108e-06 
-40 1:0.0102857 2:0.149306 3:0.326056 5:0.482479 6:0.772604 7:8.46655e-05 
-40 1:0.0195732 2:0.192283 3:0.336662 5:0.55461 6:0.76918 7:9.08968e-05 
-40 2:0.0650887 3:0.360989 5:0.513499 6:0.706639 7:3.48159e-05 
-40 1:0.0384911 2:0.139264 3:0.380248 5:0.425773 6:0.775455 7:0.000112706 
-40 1:0.0524289 2:0.0877129 3:0.203726 4:0.0562281 5:0.505106 6:0.662601 7:0.00605769 
-40 1:0.0377876 2:0.115786 3:0.212045 4:0.0562281 5:0.478255 6:0.784404 7:0.000975795 
-40 1:0.0493737 2:0.131103 3:0.184429 4:0.0562281 5:0.51217 6:0.770734 7:0.00032459 
-40 1:0.26584 2:0.106389 3:0.174184 5:0.507715 6:0.854001 7:6.77615e-06 
-40 1:0.169814 2:0.145618 3:0.2516 5:0.500187 6:0.787557 7:5.97451e-05 
-40 1:0.114574 2:0.153902 3:0.255551 4:0.0562281 5:0.600755 6:0.767007 7:2.23552e-05 
-40 1:0.262022 2:0.141988 3:0.281101 4:0.135748 5:0.582532 6:0.833369 7:0.000707836 
-40 1:0.118354 2:0.145279 3:0.279595 4:0.0993742 5:0.597888 6:0.824239 7:0.000280968 
-40 1:0.194206 2:0.0670553 3:0.285223 4:0.0562281 5:0.451322 6:0.885441 7:2.5471e-05 
-40 1:0.19838 2:0.0383809 3:0.366577 4:0.0562281 5:0.44872 6:0.880818 7:2.85869e-05 
-40 1:0.12924 2:0.0862349 3:0.128487 4:0.167794 5:0.527638 6:0.682251 7:0.0144951 
-40 1:0.061366 2:0.118989 3:0.167218 5:0.544394 6:0.783173 7:0.000259153 
-40 1:0.016311 2:0.0950461 3:0.198055 5:0.535328 6:0.79387 7:9.89177e-06 
-40 1:0.0315696 2:0.0315589 3:0.327942 5:0.515123 6:0.811147 7:8.15543e-05 
-40 1:0.0566038 2:0.0286349 3:0.320531 4:0.0562281 5:0.484484 6:0.771124 7:0.00016568 
-40 1:0.0169924 2:0.107115 3:0.347176 5:0.517976 6:0.698009 7:0.000617466 
-40 1:0.0260976 2:0.0692351 3:0.398683 5:0.555331 6:0.799128 7:1.30075e-05 
-40 1:0.209711 2:0.085773 3:0.0726727 4:0.0562281 5:0.505495 6:0.820621 7:0.000146973 
-40 1:0.256668 2:0.0809988 3:0.132465 5:0.485909 6:0.873386 7:6.7752e-06 
-40 1:0.495877 2:0.081045 3:0.237331 5:0.439949 6:0.85099 7:1.30062e-05 
-40 1:0.209889 2:0.0697206 3:0.262168 5:0.48873 6:0.826632 7:9.89072e-06 
-40 1:0.0350788 2:0.0627545 3:0.392874 4:0.0562281 5:0.521208 6:0.696507 7:6.59698e-05 
-40 1:0.279446 2:0.0936066 3:0.430506 5:0.475786 6:0.825232 7:9.89072e-06 
-40 1:0.203738 2:0.0565173 3:0.205568 5:0.467308 6:0.845224 7:1.61234e-05 
-40 2:0.164244 3:0.257561 5:0.561448 6:0.646891 7:1.30077e-05 
-40 1:0.032622 2:0.0969607 3:0.353568 4:0.0562281 5:0.437645 6:0.671207 7:2.2355e-05 
-40 1:0.197294 2:0.0582775 3:0.356693 5:0.422669 6:0.858701 7:4.10497e-05 
-40 1:0.290916 2:0.0719711 3:0.352281 5:0.442344 6:0.865319 7:9.89187e-06 
-40 1:0.268274 2:0.0565812 3:0.374416 5:0.418564 6:0.865182 7:2.85866e-05 
-40 1:0.0762519 2:0.121139 3:0.19257 4:0.135748 5:0.527098 6:0.695822 7:0.0194271 
-40 1:0.275731 2:0.125756 3:0.181543 5:0.456652 6:0.863836 7:2.54702e-05 
-40 1:0.284108 2:0.109112 3:0.19165 5:0.45718 6:0.791889 7:3.48175e-05 
-40 1:0.058503 2:0.0883258 3:0.269816 5:0.602322 6:0.766742 7:3.79329e-05 
-40 1:0.0373138 2:0.124404 3:0.192674 4:0.135748 5:0.49176 6:0.773465 7:0.00114707 
-40 1:0.106545 2:0.0749459 3:0.197658 4:0.0993742 5:0.451401 6:0.855816 7:0.000477223 
-40 1:0.269008 2:0.0481201 3:0.190861 5:0.466412 6:0.8788 7:5.4424e-07 
-40 1:0.370604 2:0.0726402 3:0.238662 5:0.44653 6:0.878653 7:3.6598e-06 
-40 1:0.427631 2:0.112956 3:0.264952 5:0.387878 6:0.866359 7:1.6122e-05 
-40 1:0.257073 2:0.10342 3:0.272919 4:0.0562281 5:0.485274 6:0.826635 7:1.6122e-05 
-40 1:0.387776 2:0.105261 3:0.285097 5:0.375659 6:0.848065 7:1.92376e-05 
-40 1:0.00869917 2:0.126482 3:0.284232 5:0.533123 6:0.742863 7:4.41619e-05 
-40 1:0.248108 2:0.0663918 3:0.286462 5:0.419561 6:0.875666 7:3.6598e-06 
-40 1:0.62879 2:0.112212 3:0.332351 5:0.415118 6:0.81914 7:1.30064e-05 
-40 1:0.189436 2:0.0531632 3:0.337678 5:0.406881 6:0.897785 7:1.92376e-05 
-40 1:0.235453 2:0.0442819 3:0.472886 4:0.0562281 5:0.417739 6:0.869337 7:2.23531e-05 
-40 1:0.29484 2:0.127848 3:0.305888 5:0.44623 6:0.802957 7:9.71274e-05 
-40 1:0.101644 2:0.16743 3:0.266779 4:0.0993742 5:0.437721 6:0.723806 7:0.00109722 
-40 1:0.032622 2:0.118574 3:0.254345 5:0.497342 6:0.822804 7:9.89092e-06 
-40 1:0.0487931 2:0.140439 3:0.273158 4:0.0562281 5:0.460186 6:0.814257 7:0.000393104 
-40 1:0.0472477 2:0.114158 3:0.261833 5:0.508921 6:0.772305 7:3.7931e-05 
-40 1:0.120413 2:0.197503 3:0.27868 5:0.489193 6:0.794446 7:9.89092e-06 
-40 1:0.306208 2:0.100934 3:0.285317 4:0.0562281 5:0.555263 6:0.849941 7:3.7931e-05 
-40 2:0.184727 3:0.300557 5:0.583251 6:0.780565 7:2.54687e-05 
-40 1:0.327121 2:0.111518 3:0.309936 4:0.0993742 5:0.586127 6:0.821627 7:0.000118935 
-40 1:0.0708986 2:0.138955 3:0.328179 5:0.438939 6:0.853362 7:0.000146975 
-40 1:0.00114463 2:0.153897 3:0.371789 5:0.497871 6:0.768843 7:0.000175015 
-40 1:0.054884 2:0.173322 3:0.360609 4:0.0562281 5:0.658712 6:0.668798 7:0.000181246 
-40 1:0.0113468 2:0.208749 3:0.361304 5:0.555164 6:0.687079 7:6.90866e-05 
-40 1:0.33104 2:0.130882 3:0.366567 5:0.450359 6:0.801344 7:3.16997e-05 
-40 2:0.156227 3:0.388977 5:0.451626 6:0.765955 7:4.10464e-05 
-40 1:0.293003 2:0.11688 3:0.428008 5:0.370082 6:0.828139 7:9.89092e-06 
-40 1:0.016311 2:0.0893589 3:0.181033 5:0.540809 6:0.8197 7:9.7131e-05 
-40 1:0.237255 2:0.110132 3:0.203712 4:0.135748 5:0.497007 6:0.829049 7:0.000128288 
-40 1:0.30814 2:0.109695 3:0.21217 4:0.0562281 5:0.46862 6:0.814383 7:4.10484e-05 
-40 1:0.0581545 2:0.101024 3:0.248105 4:0.0562281 5:0.481424 6:0.839838 7:9.40152e-05 
-40 1:0.0481021 2:0.139836 3:0.276964 5:0.526466 6:0.762985 7:0.000268494 
-40 1:0.032622 2:0.138093 3:0.25327 5:0.534176 6:0.81045 7:3.6601e-06 
-40 2:0.185213 3:0.311643 5:0.589807 6:0.682288 7:2.547e-05 
-40 1:0.392204 2:0.152801 3:0.343332 4:0.0562281 5:0.35852 6:0.816159 7:3.48172e-05 
-40 1:0.420982 2:0.120473 3:0.343332 5:0.444057 6:0.857862 7:6.77579e-06 
-40 1:0.503282 2:0.102429 3:0.385583 4:0.0562281 5:0.415815 6:0.798027 7:2.547e-05 
-40 1:0.443992 2:0.115435 3:0.401449 5:0.391733 6:0.82417 7:3.79326e-05 
-40 1:0.499197 2:0.0956659 3:0.40525 4:0.0562281 5:0.411 6:0.804536 7:2.23543e-05 
-40 1:0.522542 2:0.119598 3:0.415465 4:0.0562281 5:0.33753 6:0.818811 7:3.48172e-05 
-40 1:0.077697 2:0.113374 3:0.178163 4:0.0993742 5:0.478379 6:0.746749 7:0.00340584 
-40 1:0.0393453 2:0.123926 3:0.22048 4:0.0562281 5:0.494173 6:0.799754 7:0.000838629 
-40 1:0.0441971 2:0.107607 3:0.285718 4:0.0993742 5:0.475268 6:0.740046 7:0.00417852 
-40 1:0.0258278 2:0.176272 3:0.256801 5:0.54915 6:0.775303 7:0.000118935 
-40 1:0.032622 2:0.169086 3:0.319923 5:0.490808 6:0.73013 7:3.6598e-06 
-40 1:0.288259 2:0.12889 3:0.322313 5:0.414566 6:0.854747 7:2.85842e-05 
-40 1:0.540004 2:0.12608 3:0.369896 4:0.0562281 5:0.447539 6:0.808713 7:3.16997e-05 
-40 1:0.247715 2:0.139744 3:0.386844 5:0.437559 6:0.82846 7:1.30064e-05 
-40 1:0.287064 2:0.0800386 3:0.396404 5:0.462312 6:0.852311 7:6.77536e-06 
-40 1:0.0168734 2:0.124643 3:0.447996 5:0.456128 6:0.686784 7:0.000178131 
-40 1:0.0567265 2:0.0839413 3:0.267272 4:0.0993742 5:0.524987 6:0.635253 7:0.0182409 
-40 1:0.0731639 2:0.113715 3:0.377471 4:0.0993742 5:0.486353 6:0.656798 7:0.00965186 
-40 1:0.3991 2:0.0771999 3:0.23197 5:0.534002 6:0.813185 7:3.65938e-06 
-40 1:0.00213915 2:0.146283 3:0.294074 5:0.518962 6:0.785396 7:0.000187465 
-40 1:0.010874 2:0.143441 3:0.289755 5:0.536852 6:0.732112 7:5.35047e-05 
-40 1:0.258419 2:0.0953813 3:0.308961 4:0.0562281 5:0.416001 6:0.829011 7:2.85821e-05 
-40 1:0.0279616 2:0.159737 3:0.325204 5:0.515394 6:0.832948 7:1.92361e-05 
-40 1:0.170675 2:0.100134 3:0.325447 5:0.440513 6:0.906375 7:6.77471e-06 
-4.630350698531008 1:0.00534786 2:0.189558 3:0.357934 5:0.642749 6:0.426361 7:0.000187465 
-40 1:0.261062 2:0.0687468 3:0.344142 5:0.441805 6:0.848501 7:1.30054e-05 
-40 1:0.0411429 2:0.185416 3:0.351426 5:0.633413 6:0.77663 7:1.92361e-05 
-40 1:0.187381 2:0.0720995 3:0.35264 5:0.492102 6:0.805619 7:2.54668e-05 
-40 2:0.145026 3:0.365464 5:0.533715 6:0.727009 7:3.16974e-05 
-40 1:0.394126 2:0.0711146 3:0.369636 5:0.48918 6:0.853848 7:9.89004e-06 
-40 1:0.357473 2:0.0756295 3:0.374735 5:0.484133 6:0.841668 7:9.89004e-06 
-40 1:0.353327 2:0.0796617 3:0.379833 5:0.485555 6:0.875339 7:3.65938e-06 
-40 1:0.0521951 2:0.159587 3:0.400228 5:0.477161 6:0.587763 7:1.30054e-05 
-40 1:0.0765559 2:0.234217 3:0.66767 5:0.672018 6:0.784918 7:0.000390875 
-40 1:0.144226 2:0.255295 3:0.676788 4:0.135748 5:0.576171 6:0.793723 7:0.000786893 
-13.3707901780857 1:0.0669207 2:0.214946 3:0.690475 4:0.0562281 5:0.651743 6:0.781419 7:0.000128577 
-40 1:0.0652439 2:0.331819 3:0.697714 5:0.601507 6:0.897492 7:1.54295e-05 
-40 1:0.0327426 2:0.261835 3:0.75285 4:0.0993742 5:0.663299 6:0.860594 7:0.000573454 
-40 2:0.434709 3:0.79002 5:0.490659 6:0.891382 7:1.54295e-05 
-40 2:0.443166 3:0.808481 5:0.534047 6:0.898134 7:3.60019e-05 
-40 1:0.128241 2:0.0830023 3:0.808481 5:0.602622 6:0.866105 7:4.88594e-05 
-40 1:0.190049 2:0.215145 3:0.826942 5:0.57651 6:0.783619 7:6.94319e-05 
-15.72583762264524 2:0.412967 3:0.826942 5:0.488052 6:0.871428 7:3.34301e-05 
-40 1:0.112876 2:0.219008 3:0.882325 5:0.655713 6:0.769458 7:1.02864e-05 
-21.84837278237709 1:0.0652439 2:0.152373 3:0.993091 5:0.667596 6:0.788408 7:1.28579e-05 
-40 1:0.121254 2:0.197639 3:0.56788 5:0.546509 6:0.809911 7:0.000249442 
-40 1:0.148371 2:0.15949 3:0.707287 5:0.632259 6:0.785477 7:3.34305e-05 
-40 1:0.335564 2:0.22253 3:0.549367 5:0.500534 6:0.821889 7:5.40026e-05 
-40 1:0.294782 2:0.192534 3:0.568487 5:0.492856 6:0.835492 7:5.65741e-05 
-40 1:0.130488 2:0.177985 3:0.606728 5:0.602644 6:0.839022 7:1.54295e-05 
-40 1:0.0858643 2:0.31591 3:0.617024 4:0.0562281 5:0.402142 6:0.845089 7:6.42887e-05 
-40 1:0.283529 2:0.246049 3:0.664089 5:0.40457 6:0.774981 7:6.17173e-05 
-40 1:0.174514 2:0.195189 3:0.664089 5:0.602232 6:0.772722 7:1.80011e-05 
-40 1:0.216882 2:0.177321 3:0.664089 5:0.549717 6:0.8255 7:4.88594e-05 
-40 1:0.239884 2:0.135832 3:0.699682 5:0.624235 6:0.835677 7:0.000666029 
-40 1:0.29259 2:0.111804 3:0.702506 5:0.673681 6:0.834572 7:0.000555454 
-40 1:0.32622 2:0.25553 3:0.778811 5:0.556741 6:0.846171 7:7.71487e-06 
-40 1:0.124226 2:0.287713 3:0.512755 5:0.563354 6:0.757247 7:0.00244795 
-40 1:0.0275813 2:0.394116 3:0.600025 4:0.0993742 5:0.670106 6:0.793835 7:0.00641044 
-40 1:0.0967985 2:0.165203 3:0.611668 4:0.0562281 5:0.523504 6:0.778591 7:0.000717412 
-40 1:0.196791 2:0.208546 3:0.568487 5:0.633565 6:0.742547 7:2.31424e-05 
-40 1:0.153378 2:0.287678 3:0.638361 5:0.621505 6:0.783155 7:0.000172282 
-40 1:0.286595 2:0.164542 3:0.607525 5:0.678627 6:0.813256 7:4.88562e-05 
-40 1:0.248564 2:0.137616 3:0.594591 4:0.0562281 5:0.721981 6:0.808004 7:0.000118283 
-40 1:0.265592 2:0.121295 3:0.590794 5:0.752315 6:0.811793 7:0.000185139 
-40 1:0.0206863 2:0.432391 3:0.635409 5:0.77552 6:0.794919 7:8.99979e-05 
-40 1:0.367048 2:0.168126 3:0.680023 5:0.631791 6:0.770481 7:1.79996e-05 
-40 1:0.16232 2:0.140953 3:0.680023 5:0.560511 6:0.834572 7:2.31424e-05 
-40 1:0.24818 2:0.326262 3:0.74577 5:0.582297 6:0.834325 7:0.000192853 
-40 1:0.165436 2:0.330108 3:0.746944 5:0.641238 6:0.798109 7:9.77122e-05 
-40 1:0.094727 2:0.157303 3:0.60484 5:0.567054 6:0.795922 7:0.00010543 
-40 1:0.028707 2:0.443954 3:0.667012 4:0.0562281 5:0.695413 6:0.740095 7:0.00164831 
-40 1:0.0381492 2:0.444818 3:0.662953 4:0.0562281 5:0.663475 6:0.832363 7:0.00127287 
-34.58072008854866 1:0.0981947 2:0.109008 3:0.642018 5:0.676984 6:0.801431 7:5.91439e-05 
-40 1:0.032415 2:0.430985 3:0.740083 4:0.0562281 5:0.700664 6:0.843374 7:0.00128316 
-40 1:0.113718 2:0.100884 3:0.66763 5:0.65251 6:0.830153 7:1.0286e-05 
-40 1:0.0519989 2:0.3126 3:0.687458 5:0.709409 6:0.785371 7:7.7144e-05 
-40 1:0.0687717 2:0.336837 3:0.727115 5:0.765789 6:0.741049 7:5.14292e-05 
-40 1:0.0267052 2:0.404774 3:0.727115 5:0.743951 6:0.815593 7:5.65725e-05 
-40 1:0.0564242 2:0.396809 3:0.727115 5:0.674972 6:0.857844 7:3.08577e-05 
-40 1:0.0668104 2:0.216374 3:0.849692 4:0.0562281 5:0.652357 6:0.819512 7:0.000223717 
-40 1:0.0296563 2:0.220331 3:0.905572 5:0.671225 6:0.814107 7:5.40007e-05 
-40 1:0.0549422 2:0.163712 3:0.501566 5:0.599404 6:0.745257 7:4.62867e-05 
-40 1:0.14666 2:0.239769 3:0.523873 5:0.604318 6:0.841964 7:2.31435e-05 
-40 1:0.0652439 2:0.152201 3:0.54618 5:0.535857 6:0.820308 7:2.31435e-05 
-40 1:0.107461 2:0.201984 3:0.613102 5:0.591691 6:0.780627 7:2.82865e-05 
-40 1:0.0767099 2:0.339543 3:0.711361 5:0.698639 6:0.738169 7:0.000632584 
-40 1:0.257207 2:0.261797 3:0.680023 5:0.551132 6:0.831836 7:3.85724e-05 
-40 1:0.219291 2:0.33358 3:0.724637 5:0.634249 6:0.767252 7:0.000100288 
-40 1:0.0545226 2:0.313921 3:0.582367 4:0.0993742 5:0.557132 6:0.790219 7:0.000280298 
-40 1:0.145784 2:0.318338 3:0.578234 4:0.0562281 5:0.664186 6:0.757539 7:0.000149149 
-40 1:0.0301846 2:0.405076 3:0.645886 4:0.135748 5:0.641527 6:0.806992 7:0.00364387 
-40 1:0.332322 2:0.292948 3:0.606342 5:0.693834 6:0.850021 7:2.57156e-05 
-40 1:0.343601 2:0.113709 3:0.608907 5:0.745809 6:0.803389 7:0.000264868 
-40 1:0.127145 2:0.281807 3:0.624178 4:0.135748 5:0.557964 6:0.76288 7:0.000534879 
-40 1:0.288205 2:0.162444 3:0.608144 5:0.608869 6:0.798066 7:5.14309e-05 
-17.00362794938226 1:0.674655 2:0.145308 3:0.608144 5:0.677319 6:0.769535 7:9.25756e-05 
-40 1:0.213096 2:0.121799 3:0.625535 4:0.0562281 5:0.762298 6:0.821318 7:0.000311156 
-4.163288847943059 1:0.0854154 2:0.184605 3:0.627973 5:0.603867 6:0.8636 7:6.94316e-05 
-40 1:0.036311 2:0.35917 3:0.70233 4:0.0562281 5:0.631831 6:0.833444 7:0.000182579 
-40 1:0.35587 2:0.210024 3:0.709295 4:0.0562281 5:0.570502 6:0.792535 7:0.00020058 
-40 1:0.182168 2:0.24487 3:0.865915 5:0.54756 6:0.803787 7:2.05725e-05 
-40 1:0.0521026 2:0.172009 3:0.5663 4:0.0562281 5:0.563319 6:0.793221 7:0.000347148 
-40 1:0.027185 2:0.285086 3:0.588316 5:0.21091 6:0.83759 7:2.82864e-05 
-40 1:0.0683071 2:0.210688 3:0.649289 4:0.0562281 5:0.754026 6:0.794405 7:0.000306005 
-40 1:0.335249 2:0.217895 3:0.627973 5:0.532141 6:0.844097 7:4.37153e-05 
-40 1:0.0706344 2:0.262201 3:0.628481 4:0.0562281 5:0.557088 6:0.848901 7:0.000198004 
-40 1:0.0164113 2:0.479542 3:0.640414 4:0.0562281 5:0.755803 6:0.689966 7:0.000128574 
-40 1:0.0959966 2:0.181744 3:0.649327 4:0.135748 5:0.802282 6:0.786539 7:0.000164574 
-40 1:0.0398606 2:0.350043 3:0.698389 4:0.0993742 5:0.603115 6:0.859361 7:0.00238118 
-40 1:0.0324759 2:0.381096 3:0.699413 4:0.0562281 5:0.638137 6:0.876792 7:0.000884585 
-40 1:0.200489 2:0.336359 3:0.66763 5:0.49856 6:0.82295 7:4.11438e-05 
-40 1:0.127574 2:0.155663 3:0.687458 5:0.577332 6:0.784923 7:1.28575e-05 
-40 1:0.325114 2:0.284179 3:0.687458 5:0.501784 6:0.862467 7:1.28575e-05 
-40 1:0.156398 2:0.350661 3:0.704583 5:0.600528 6:0.857372 7:5.4001e-05 
-40 1:0.128581 2:0.316166 3:0.707287 5:0.710339 6:0.826781 7:7.97157e-05 
-40 1:0.00191894 2:0.431315 3:0.732948 5:0.764121 6:0.838585 7:8.48586e-05 
-2.748356618017548 1:0.435874 2:0.270316 3:0.746944 5:0.575191 6:0.824954 7:3.34292e-05 
-40 1:0.137648 2:0.347336 3:0.813648 5:0.721186 6:0.747905 7:0.000612009 
-40 1:0.0367497 2:0.296749 3:0.778912 4:0.0562281 5:0.668998 6:0.822896 7:0.000249433 
-40 1:0.0158167 2:0.488544 3:0.778189 5:0.708333 6:0.836622 7:0.000167146 
-40 1:0.134536 2:0.355748 3:0.803694 5:0.701397 6:0.733006 7:0.000146574 
-40 1:0.0901495 2:0.255057 3:0.826258 5:0.636208 6:0.809441 7:6.17153e-05 
-40 1:0.136926 2:0.243757 3:0.489173 5:0.590144 6:0.787624 7:2.82855e-05 
-17.26724357995721 1:0.129852 2:0.409764 3:0.585465 4:0.0562281 5:0.581175 6:0.773459 7:0.00158913 
-40 1:0.26735 2:0.237037 3:0.605677 4:0.0562281 5:0.650592 6:0.848885 7:0.000555425 
-40 1:0.139601 2:0.390306 3:0.619711 4:0.0562281 5:0.57757 6:0.778842 7:8.99992e-05 
-40 1:0.029304 2:0.478383 3:0.680622 4:0.0562281 5:0.650197 6:0.805475 7:0.00277197 
-40 1:0.150944 2:0.289701 3:0.628097 5:0.684968 6:0.817403 7:0.000408853 
-40 1:0.0774021 2:0.283304 3:0.622953 4:0.0562281 5:0.623658 6:0.834914 7:0.000200569 
-40 1:0.196793 2:0.204153 3:0.608144 5:0.693183 6:0.821238 7:9.77135e-05 
-40 1:0.271391 2:0.319877 3:0.627973 5:0.616213 6:0.82061 7:2.05713e-05 
-40 1:0.112118 2:0.352608 3:0.637267 4:0.0562281 5:0.690654 6:0.735522 7:7.97135e-05 
-40 1:0.0902904 2:0.241489 3:0.627973 5:0.597482 6:0.831822 7:8.74278e-05 
-40 1:0.115082 2:0.359052 3:0.711557 5:0.696393 6:0.831541 7:0.000331713 
-40 1:0.0159485 2:0.533176 3:0.724765 5:0.735536 6:0.806832 7:0.00034457 
-40 1:0.088534 2:0.417628 3:0.769189 5:0.679314 6:0.803244 7:0.000820276 
-40 1:0.00521951 2:0.548036 3:0.746944 5:0.727586 6:0.785032 7:6.17137e-05 
-40 1:0.109563 2:0.399329 3:0.768707 5:0.640623 6:0.823907 7:0.000102856 
-40 1:0.26088 2:0.385385 3:0.766772 5:0.675041 6:0.838984 7:0.000131142 
-40 1:0.0482746 2:0.29367 3:0.46421 4:0.0562281 5:0.589349 6:0.786557 7:0.000686607 
-40 1:0.204477 2:0.341436 3:0.576553 4:0.0562281 5:0.531491 6:0.794762 7:0.000195439 
-40 1:0.117748 2:0.172195 3:0.547073 5:0.625733 6:0.888137 7:1.28581e-05 
-40 1:0.126195 2:0.261652 3:0.568487 5:0.569265 6:0.825793 7:5.14315e-05 
