svm_type c_svc
kernel_type rbf
gamma 2.8
nr_class 2
total_sv 624
rho -2.46
label 0 1
probA -1.91599
probB -0.0140292
nr_sv 319 305
SV
40 1:0.147335 2:0.826045 3:0.462962 4:0.104847 5:0.740162 6:0.659011 
40 1:0.0949945 2:0.791542 3:0.578043 4:0.0573424 5:0.649876 6:0.774024 
40 1:0.422967 2:0.599097 3:0.616402 4:0.0708792 5:0.486856 6:0.680546 
40 1:0.577204 2:0.554893 3:0.616402 4:0.0708792 5:0.433476 6:0.751037 
40 1:0.278109 2:0.70958 3:0.616402 4:0.104847 5:0.49612 6:0.748603 
40 1:0.234235 2:0.383191 3:0.371173 4:0.0237518 5:0.681307 6:0.69885 
40 1:0.162231 2:0.523843 3:0.408163 4:0.0708792 5:0.710969 6:0.721822 
40 1:0.28386 2:0.311104 3:0.408163 4:0.104847 5:0.571515 6:0.766812 
40 1:0.298548 2:0.315516 3:0.408163 4:0.0708792 5:0.549477 6:0.767917 
40 1:0.210563 2:0.482111 3:0.445153 4:0.0708792 5:0.583402 6:0.683854 
40 1:0.35076 2:0.277077 3:0.445153 4:0.104847 5:0.452878 6:0.787002 
40 1:0.188028 2:0.612191 3:0.519132 4:0.0573424 5:0.682337 6:0.710385 
40 1:0.363065 2:0.444838 3:0.519132 4:0.0573424 5:0.351321 6:0.772987 
40 1:0.735949 2:0.606545 3:0.593112 4:0.12399 5:0.377698 6:0.776608 
40 1:0.233054 2:0.311561 3:0.309523 4:0.0573424 5:0.579488 6:0.731316 
40 1:0.394008 2:0.305127 3:0.309523 4:0.0708792 5:0.621035 6:0.742673 
40 1:0.13791 2:0.725509 3:0.352679 4:0.149409 5:0.34366 6:0.76516 
10.06332403484944 1:0.228173 2:0.790908 3:0.395834 4:0.0573424 5:0.168773 6:0.760546 
40 1:0.0520897 2:0.725998 3:0.438988 4:0.104847 5:0.635237 6:0.812653 
40 1:0.131861 2:0.709494 3:0.525298 4:0.0573424 5:0.740681 6:0.865149 
40 1:0.178806 2:0.885151 3:0.525298 4:0.0573424 5:0.62451 6:0.8671 
40 1:0.213436 2:0.567523 3:0.568452 4:0.0708792 5:0.503973 6:0.73095 
40 1:0.244472 2:0.554348 3:0.568452 4:0.0573424 5:0.550323 6:0.77716 
40 1:0.748044 2:0.599746 3:0.611607 4:0.0708792 5:0.489223 6:0.783375 
40 1:0.773486 2:0.622 3:0.611607 4:0.0573424 5:0.456003 6:0.759347 
18.5083826117319 1:0.166904 2:0.861696 3:0.654762 4:0.0573424 5:0.544449 6:0.778093 
30.76023798598673 1:0.250581 2:0.381887 3:0.386243 4:0.0573424 5:0.676507 6:0.839225 
40 1:0.500875 2:0.353969 3:0.386243 4:0.0708792 5:0.404372 6:0.739906 
40 1:0.257073 2:0.413548 3:0.424603 4:0.0573424 5:0.70762 6:0.840297 
40 1:0.17281 2:0.672214 3:0.462962 4:0.0573424 5:0.73495 6:0.778385 
40 1:0.229056 2:0.816105 3:0.462962 4:0.0573424 5:0.839378 6:0.796384 
40 1:0.113281 2:0.760488 3:0.501323 4:0.104847 5:0.695836 6:0.862054 
40 1:0.144771 2:0.829119 3:0.539683 4:0.0573424 5:0.747842 6:0.90775 
40 1:0.159734 2:0.93187 3:0.539683 4:0.114685 5:0.72876 6:0.914313 
40 1:0.242297 2:0.392626 3:0.309523 4:0.0708792 5:0.466753 6:0.751118 
40 1:0.297037 2:0.398577 3:0.352679 4:0.104847 5:0.596093 6:0.821373 
40 1:0.457743 2:0.368817 3:0.395834 4:0.0573424 5:0.389951 6:0.771064 
40 1:0.155621 2:0.661641 3:0.482143 4:0.0708792 5:0.854757 6:0.802385 
40 1:0.0397627 2:0.697886 3:0.482143 4:0.114685 5:0.72032 6:0.665664 
22.86187262320299 1:0.114435 2:0.714633 3:0.525298 4:0.0573424 5:0.71866 6:0.862882 
40 1:0.60625 2:0.481553 3:0.525298 4:0.0573424 5:0.386736 6:0.772268 
40 1:0.12941 2:0.837997 3:0.568452 4:0.0573424 5:0.798551 6:0.905468 
40 1:0.160214 2:0.897261 3:0.568452 4:0.0573424 5:0.8264 6:0.925192 
40 1:0.167369 2:0.651984 3:0.611607 4:0.0573424 5:0.748665 6:0.794117 
1.477635183052284 1:0.241011 2:0.0663732 3:0.611607 4:0.0573424 5:0.561802 6:0.817037 
40 1:0.410979 2:0.464306 3:0.232804 4:0.0708792 5:0.482918 6:0.776114 
40 1:0.406064 2:0.380906 3:0.271164 4:0.0573424 5:0.448654 6:0.762218 
40 1:0.206625 2:0.350378 3:0.271164 4:0.0708792 5:0.525097 6:0.721134 
40 1:0.205343 2:0.324145 3:0.271164 4:0.114685 5:0.615189 6:0.723699 
40 1:0.245831 2:0.319961 3:0.309523 4:0.0708792 5:0.658275 6:0.740119 
40 1:0.238623 2:0.475277 3:0.462962 4:0.0573424 5:0.660587 6:0.761682 
40 1:0.181667 2:0.739618 3:0.462962 4:0.0708792 5:0.743457 6:0.87519 
40 1:0.262051 2:0.423137 3:0.309523 4:0.0708792 5:0.605154 6:0.790437 
40 1:0.246139 2:0.404548 3:0.347883 4:0.0708792 5:0.701741 6:0.737406 
40 1:0.0834743 2:0.650415 3:0.386243 4:0.149409 5:0.646279 6:0.830538 
40 1:0.239881 2:0.61697 3:0.424603 4:0.114685 5:0.599957 6:0.777992 
40 1:0.252151 2:0.504757 3:0.462962 4:0.0708792 5:0.572389 6:0.78001 
40 1:0.214704 2:0.863457 3:0.462962 4:0.0573424 5:0.837414 6:0.656944 
40 1:0.230691 2:0.476704 3:0.501323 4:0.0573424 5:0.739411 6:0.753264 
40 1:0.199926 2:0.720767 3:0.578043 4:0.104847 5:0.836443 6:0.825696 
40 1:0.182366 2:0.677187 3:0.654762 4:0.12399 5:0.748226 6:0.797432 
40 1:0.337981 2:0.650718 3:0.693122 4:0.0708792 5:0.44392 6:0.766636 
39.73692723939052 1:0.170436 2:0.434007 3:0.117725 4:0.0708792 5:0.557711 6:0.738456 
40 1:0.36175 2:0.336684 3:0.194444 4:0.104847 5:0.312466 6:0.795436 
40 1:0.325409 2:0.463627 3:0.232804 4:0.114685 5:0.399192 6:0.793023 
40 1:0.241219 2:0.361026 3:0.232804 4:0.114685 5:0.548877 6:0.777569 
40 1:0.227956 2:0.435693 3:0.271164 4:0.0573424 5:0.737623 6:0.691638 
19.45526535451328 1:0.453084 2:0.357471 3:0.271164 4:0.0708792 5:0.355489 6:0.771606 
39.34151943898683 1:0.264044 2:0.53639 3:0.347883 4:0.0573424 5:0.708368 6:0.814681 
40 1:0.285922 2:0.560411 3:0.386243 4:0.104847 5:0.680452 6:0.737898 
40 1:0.281134 2:0.52923 3:0.386243 4:0.104847 5:0.725382 6:0.726001 
40 1:0.170983 2:0.780229 3:0.386243 4:0.104847 5:0.694474 6:0.765927 
40 1:0.17711 2:0.529277 3:0.424603 4:0.0573424 5:0.630941 6:0.723403 
40 1:0.245114 2:0.522216 3:0.424603 4:0.0708792 5:0.675172 6:0.768989 
40 1:0.23624 2:0.551236 3:0.462962 4:0.0573424 5:0.604263 6:0.765036 
40 1:0.0834785 2:0.777077 3:0.462962 4:0.0708792 5:0.65097 6:0.810766 
40 1:0.240236 2:0.87345 3:0.462962 4:0.0708792 5:0.867047 6:0.807898 
40 1:0.206031 2:0.867771 3:0.462962 4:0.114685 5:0.785219 6:0.793558 
40 1:0.269137 2:0.579434 3:0.501323 4:0.0573424 5:0.578326 6:0.782945 
40 1:0.291635 2:0.579335 3:0.539683 4:0.114685 5:0.48243 6:0.776552 
40 1:0.22147 2:0.668956 3:0.539683 4:0.0573424 5:0.66936 6:0.783961 
40 1:0.264209 2:0.637045 3:0.578043 4:0.0573424 5:0.663409 6:0.764787 
40 1:0.232279 2:0.704066 3:0.578043 4:0.0708792 5:0.71087 6:0.751957 
40 1:0.202492 2:0.714587 3:0.578043 4:0.0573424 5:0.685303 6:0.757777 
20.40819168476882 1:0.520972 2:0.681191 3:0.616402 4:0.0573424 5:0.542618 6:0.784053 
40 1:0.447671 2:0.681389 3:0.616402 4:0.0708792 5:0.701782 6:0.740255 
40 1:0.362779 2:0.683216 3:0.616402 4:0.0573424 5:0.567405 6:0.766646 
14.89676609584705 1:0.179549 2:0.20192 3:0.731482 4:0.0573424 5:0.677065 6:0.70938 
24.54793124814948 1:0.14767 2:0.158384 3:0.0885714 4:0.104847 5:0.558333 6:0.719903 
40 1:0.429172 2:0.394121 3:0.295714 4:0.0573424 5:0.694495 6:0.725575 
40 1:0.163353 2:0.527763 3:0.337143 4:0.0708792 5:0.655125 6:0.730976 
40 1:0.24837 2:0.441942 3:0.378571 4:0.0708792 5:0.699551 6:0.826729 
40 1:0.130238 2:0.704468 3:0.42 4:0.0708792 5:0.745274 6:0.776027 
40 1:0.126758 2:0.654583 3:0.42 4:0.0573424 5:0.743887 6:0.78501 
40 1:0.228099 2:0.482991 3:0.42 4:0.0573424 5:0.743209 6:0.762057 
40 1:0.0966237 2:0.69433 3:0.461429 4:0.104847 5:0.547112 6:0.806237 
40 1:0.376769 2:0.52922 3:0.461429 4:0.0573424 5:0.610634 6:0.761274 
40 1:0.276987 2:0.478275 3:0.461429 4:0.0573424 5:0.582238 6:0.821234 
40 1:0.391636 2:0.282162 3:0.502857 4:0.0237518 5:0.654931 6:0.767415 
6.348905783714901 1:0.127393 2:0.452245 3:0.502857 4:0.104847 5:0.473015 6:0.716617 
40 1:0.0952633 2:0.698156 3:0.502857 4:0.104847 5:0.553388 6:0.792612 
40 1:0.206569 2:0.584733 3:0.544286 4:0.0573424 5:0.68955 6:0.848758 
40 1:0.375026 2:0.862415 3:0.585714 4:0.104847 5:0.570415 6:0.775303 
37.88925326042387 1:0.173849 2:0.635053 3:0.585714 4:0.0573424 5:0.693062 6:0.852152 
40 1:0.57991 2:0.601553 3:0.627143 4:0.0708792 5:0.413599 6:0.785055 
40 1:0.783056 2:0.599552 3:0.627143 4:0.0573424 5:0.384853 6:0.760592 
16.18623266955813 1:0.15502 2:0.140914 3:0.156084 4:0.104847 5:0.685905 6:0.720566 
40 1:0.242575 2:0.607642 3:0.386243 4:0.0708792 5:0.683745 6:0.75271 
0.3679294860103328 1:0.200004 2:0.828307 3:0.386243 4:0.114685 5:0.517624 6:0.824894 
40 1:0.213448 2:0.919793 3:0.424603 4:0.0708792 5:0.590505 6:0.711198 
40 1:0.111543 2:0.773917 3:0.462962 4:0.0573424 5:0.790404 6:0.869961 
40 1:0.14749 2:0.805663 3:0.501323 4:0.114685 5:0.618471 6:0.88462 
40 1:0.284798 2:0.603817 3:0.539683 4:0.0573424 5:0.513373 6:0.761226 
40 1:0.111912 2:0.83834 3:0.539683 4:0.0573424 5:0.599667 6:0.825772 
40 1:0.126597 2:0.895889 3:0.539683 4:0.0573424 5:0.813566 6:0.902141 
40 1:0.189138 2:0.669774 3:0.539683 4:0.0573424 5:0.658131 6:0.782702 
40 1:0.24031 2:0.701296 3:0.578043 4:0.0573424 5:0.641884 6:0.711081 
2.078279942174972 1:0.0208073 2:0.00269847 3:0.92328 4:0.22937 5:0.168643 6:0.814705 
39.31255985425292 1:0.13652 2:0.431327 3:0.232804 4:0.185941 5:0.349423 6:0.786494 
40 1:0.15609 2:0.565858 3:0.347883 4:0.104847 5:0.520967 6:0.742178 
40 1:0.236801 2:0.56989 3:0.386243 4:0.0708792 5:0.633904 6:0.766558 
1.772535109107178 1:0.243489 2:0.774339 3:0.386243 4:0.104847 5:0.537584 6:0.753484 
40 1:0.304983 2:0.381777 3:0.386243 4:0.0573424 5:0.528428 6:0.79102 
40 1:0.248301 2:0.558529 3:0.424603 4:0.0573424 5:0.641104 6:0.714352 
40 1:0.139465 2:0.791159 3:0.424603 4:0.0708792 5:0.798948 6:0.786878 
40 1:0.221671 2:0.54428 3:0.424603 4:0.0237518 5:0.779856 6:0.728204 
40 1:0.332578 2:0.42817 3:0.424603 4:0.0708792 5:0.49583 6:0.75235 
40 1:0.220714 2:0.563851 3:0.462962 4:0.0237518 5:0.756609 6:0.737787 
40 1:0.267243 2:0.520261 3:0.501323 4:0.0573424 5:0.647656 6:0.799901 
40 1:0.0492894 2:0.771035 3:0.501323 4:0.0573424 5:0.66393 6:0.813067 
5.451411149103898 1:0.102654 2:0.879413 3:0.501323 4:0.0573424 5:0.796976 6:0.953041 
16.72282370913274 1:0.244593 2:0.557591 3:0.539683 4:0.0573424 5:0.463921 6:0.715374 
40 1:0.365064 2:0.868332 3:0.578043 4:0.0708792 5:0.611988 6:0.789565 
40 1:0.270613 2:0.401099 3:0.447619 4:0.0573424 5:0.57446 6:0.808034 
40 1:0.340911 2:0.417739 3:0.482143 4:0.0573424 5:0.453169 6:0.785844 
40 1:0.114635 2:0.678658 3:0.516666 4:0.0573424 5:0.745239 6:0.75532 
40 1:0.197026 2:0.589771 3:0.585714 4:0.0237518 5:0.859483 6:0.75249 
40 1:0.102209 2:0.944106 3:0.585714 4:0.0573424 5:0.954501 6:0.892674 
40 1:0.189606 2:0.603154 3:0.620238 4:0.0573424 5:0.659853 6:0.764045 
40 1:0.375 2:0.304592 3:0.620238 4:0.0237518 5:0.433383 6:0.780332 
40 1:0.293384 2:0.498979 3:0.689286 4:0.0573424 5:0.397182 6:0.792527 
40 1:0.254494 2:0.544096 3:0.689286 4:0.0573424 5:0.647848 6:0.825369 
40 1:0.491986 2:0.383686 3:0.689286 4:0.0237518 5:0.389457 6:0.778789 
38.20618078532819 1:0.327947 2:0.624331 3:0.482143 4:0.0708792 5:0.462148 6:0.780463 
40 1:0.171334 2:0.706012 3:0.519132 4:0.0708792 5:0.760295 6:0.696014 
5.715128709138354 1:0.169138 2:0.68662 3:0.519132 4:0.0708792 5:0.649717 6:0.66519 
40 1:0.429105 2:0.258108 3:0.519132 4:0.0237518 5:0.568773 6:0.777683 
40 1:0.170772 2:0.958841 3:0.519132 4:0.0573424 5:0.840776 6:0.895065 
40 1:0.414056 2:0.546749 3:0.519132 4:0.0708792 5:0.365862 6:0.768769 
40 1:0.724227 2:0.374233 3:0.630102 4:0.0573424 5:0.497 6:0.772912 
40 1:0.635119 2:0.609537 3:0.667091 4:0.0708792 5:0.235442 6:0.790493 
19.43928805080111 1:0.988119 2:0.581152 3:0.704082 4:0.0573424 5:0.359018 6:0.780562 
40 1:0.479529 2:0.549111 3:0.741071 4:0.0237518 5:0.472889 6:0.791374 
40 1:0.303024 2:0.36557 3:0.778061 4:0.0237518 5:0.594838 6:0.819492 
40 1:0.385073 2:0.258556 3:0.92602 4:0.0237518 5:0.572432 6:0.772742 
40 1:0.315724 2:0.373111 3:0.254286 4:0.114685 5:0.477111 6:0.722705 
40 1:0.274512 2:0.402331 3:0.337143 4:0.104847 5:0.643817 6:0.818628 
40 1:0.289483 2:0.359619 3:0.461429 4:0.0237518 5:0.640883 6:0.786331 
40 1:0.154469 2:0.601203 3:0.461429 4:0.0708792 5:0.695987 6:0.694144 
40 1:0.542576 2:0.560926 3:0.502857 4:0.0573424 5:0.423851 6:0.791622 
40 1:0.414232 2:0.470389 3:0.544286 4:0.0573424 5:0.542624 6:0.765877 
40 1:0.648852 2:0.479585 3:0.668571 5:0.567396 6:0.764026 
19.04715947904713 1:0.141718 2:0.360025 3:0.0333333 4:0.0237518 5:0.483832 6:0.728728 
3.103286773569437 1:0.167122 2:0.46014 3:0.275 4:0.0573424 5:0.880997 6:0.823857 
40 1:0.152756 2:0.547042 3:0.309523 4:0.114685 5:0.598408 6:0.729562 
40 1:0.0876841 2:0.501889 3:0.309523 4:0.0708792 5:0.850527 6:0.795673 
40 1:0.226831 2:0.519501 3:0.413095 4:0.0573424 5:0.734797 6:0.780017 
40 1:0.174459 2:0.57854 3:0.413095 4:0.0237518 5:0.903982 6:0.747452 
40 1:0.0916838 2:0.430592 3:0.447619 4:0.114685 5:0.606351 6:0.727244 
40 1:0.154177 2:0.410004 3:0.447619 4:0.104847 5:0.471787 6:0.693631 
40 1:0.127545 2:0.467551 3:0.447619 4:0.104847 5:0.536666 6:0.732535 
40 1:0.175031 2:0.70681 3:0.447619 4:0.0708792 5:0.82672 6:0.835972 
40 1:0.0902151 2:0.814878 3:0.447619 4:0.104847 5:0.575329 6:0.834711 
40 1:0.152066 2:0.740324 3:0.447619 4:0.12399 5:0.738956 6:0.672573 
40 1:0.268575 2:0.521048 3:0.482143 4:0.0573424 5:0.653153 6:0.829736 
40 1:0.252612 2:0.972541 3:0.482143 4:0.0573424 5:0.732785 6:0.779431 
40 1:0.128763 2:0.477407 3:0.516666 4:0.12399 5:0.594993 6:0.694234 
40 1:0.0924616 2:0.876966 3:0.516666 4:0.0573424 5:0.79133 6:0.922561 
40 1:0.162014 2:0.996577 3:0.516666 4:0.104847 5:0.859609 6:0.894596 
40 1:0.15385 2:0.951823 3:0.551191 4:0.0708792 5:0.911011 6:0.908077 
40 1:0.151689 2:0.739473 3:0.551191 4:0.0708792 5:0.730166 6:0.78682 
40 1:0.238896 2:0.720219 3:0.585714 4:0.0573424 5:0.796533 6:0.839458 
40 1:0.183449 2:0.702437 3:0.585714 4:0.0573424 5:0.720785 6:0.862606 
10.92816778328295 1:0.12851 2:0.883205 3:0.654762 4:0.0573424 5:0.45683 6:0.774253 
40 1:0.351888 2:0.246075 3:0.334184 4:0.0708792 5:0.51443 6:0.814442 
40 1:0.237357 2:0.406667 3:0.371173 4:0.0708792 5:0.650513 6:0.811943 
40 1:0.270883 2:0.418261 3:0.408163 4:0.0708792 5:0.517336 6:0.814067 
40 1:0.359292 2:0.365521 3:0.408163 4:0.0708792 5:0.561782 6:0.776328 
40 1:0.472476 2:0.367767 3:0.482143 4:0.0573424 5:0.367463 6:0.775952 
40 1:0.263775 2:0.610398 3:0.556123 4:0.0708792 5:0.475143 6:0.765854 
40 1:0.352946 2:0.576362 3:0.556123 4:0.0573424 5:0.494999 6:0.757501 
40 1:0.498585 2:0.522115 3:0.556123 4:0.0237518 5:0.546969 6:0.761474 
5.045758951290902 1:0.51957 2:0.475164 3:0.556123 4:0.0708792 5:0.16817 6:0.796465 
40 1:0.32294 2:0.120934 3:0.556123 4:0.0237518 5:0.586978 6:0.78702 
40 1:0.216077 2:0.604784 3:0.593112 4:0.0573424 5:0.694214 6:0.852417 
40 1:0.550433 2:0.496287 3:0.630102 4:0.0573424 5:0.321787 6:0.78697 
40 1:0.784054 2:0.59177 3:0.667091 4:0.0708792 5:0.421136 6:0.78248 
40 1:0.867972 2:0.609828 3:0.667091 4:0.0573424 5:0.331855 6:0.785584 
40 1:0.520148 2:0.529036 3:0.704082 4:0.0573424 5:0.42333 6:0.768129 
40 1:0.487004 2:0.510482 3:0.741071 4:0.0237518 5:0.397172 6:0.791704 
40 1:0.28891 2:0.56463 3:0.392857 4:0.0573424 5:0.766408 6:0.76897 
40 1:0.361492 2:0.577788 3:0.428572 4:0.0708792 5:0.601765 6:0.773676 
40 1:0.276664 2:0.561699 3:0.428572 4:0.0573424 5:0.700201 6:0.727871 
40 1:0.369578 2:0.587827 3:0.464286 4:0.104847 5:0.605389 6:0.761577 
40 1:0.153845 2:0.765072 3:0.464286 4:0.0708792 5:0.707047 6:0.821479 
40 1:0.184876 2:0.465651 3:0.464286 4:0.0573424 5:0.602119 6:0.75321 
40 1:0.0862398 2:0.864486 3:0.5 4:0.0573424 5:0.642673 6:0.881137 
6.376424523422289 1:0.137938 2:0.888878 3:0.535714 4:0.0573424 5:0.721091 6:0.938469 
40 1:0.147293 2:0.950161 3:0.535714 4:0.0573424 5:0.713359 6:0.934954 
40 1:0.184545 2:0.379957 3:0.607143 4:0.0573424 5:0.602286 6:0.759186 
40 1:0.203869 2:0.295964 3:0.678571 4:0.0573424 5:0.614062 6:0.763051 
40 1:0.187712 2:0.339036 3:0.678571 4:0.0573424 5:0.673687 6:0.774211 
40 1:0.186918 2:0.3791 3:0.678571 4:0.0573424 5:0.572643 6:0.753887 
40 1:0.145911 2:0.363013 3:0.0752552 4:0.114685 5:0.394826 6:0.7697 
40 1:0.476542 2:0.409632 3:0.371173 4:0.0708792 5:0.33703 6:0.778777 
40 1:0.189153 2:0.467558 3:0.408163 4:0.104847 5:0.558147 6:0.759276 
40 1:0.699723 2:0.438568 3:0.519132 4:0.0573424 5:0.419691 6:0.794754 
40 1:0.597092 2:0.526422 3:0.556123 4:0.0708792 5:0.170822 6:0.799953 
40 1:0.806837 2:0.485477 3:0.556123 4:0.0573424 5:0.314457 6:0.789219 
40 1:0.39959 2:0.329475 3:0.593112 4:0.0237518 5:0.529106 6:0.762526 
40 1:0.62755 2:0.389411 3:0.593112 4:0.0237518 5:0.475339 6:0.780119 
40 1:0.834503 2:0.557579 3:0.593112 4:0.0573424 5:0.366809 6:0.75287 
40 1:0.68359 2:0.553312 3:0.630102 4:0.0237518 5:0.518199 6:0.798443 
40 1:0.513947 2:0.565867 3:0.704082 4:0.0573424 5:0.44669 6:0.759279 
40 1:0.522023 2:0.548636 3:0.704082 4:0.0708792 5:0.409774 6:0.779161 
0.8311699699582712 1:0.582055 2:0.578893 3:0.741071 4:0.0237518 5:0.412573 6:0.766458 
7.227951775241318 1:0.319462 2:0.184418 3:0.0837916 4:0.0237518 5:0.432953 6:0.784585 
40 1:0.39214 2:0.389209 3:0.601649 4:0.0573424 5:0.388448 6:0.772028 
40 1:0.147441 2:0.702503 3:0.461429 4:0.0573424 5:0.722929 6:0.798931 
40 1:0.260667 2:0.826672 3:0.461429 4:0.104847 5:0.753202 6:0.744835 
40 1:0.256068 2:0.418272 3:0.502857 4:0.0237518 5:0.699737 6:0.828959 
40 1:0.169065 2:0.652987 3:0.502857 4:0.0573424 5:0.78704 6:0.777076 
40 1:0.263211 2:0.439009 3:0.544286 4:0.0237518 5:0.772817 6:0.816813 
40 1:0.182657 2:0.581877 3:0.544286 4:0.0573424 5:0.791435 6:0.849376 
40 1:0.231748 2:0.57196 3:0.627143 4:0.0573424 5:0.637511 6:0.818087 
18.95431147453247 1:0.218923 2:0.937675 3:0.627143 4:0.0237518 5:0.619807 6:0.824601 
40 1:0.28022 2:0.683823 3:0.627143 4:0.0573424 5:0.706154 6:0.831436 
40 1:0.243139 2:0.69747 3:0.627143 4:0.0573424 5:0.707025 6:0.835489 
21.13275880994384 1:0.202725 2:0.142789 3:0.792857 4:0.0573424 5:0.446093 6:0.834136 
40 1:0.20462 2:0.227417 3:0.0041208 4:0.0237518 5:0.659526 6:0.741454 
40 1:0.228712 2:0.343188 3:0.163462 4:0.114685 5:0.571515 6:0.742467 
23.39405270387191 1:0.118066 2:0.512711 3:0.243132 4:0.104847 5:0.452667 6:0.684535 
40 1:0.236339 2:0.462975 3:0.243132 4:0.0708792 5:0.809611 6:0.742251 
40 1:0.523981 2:0.353096 3:0.243132 4:0.0708792 5:0.533918 6:0.770016 
40 1:0.437233 2:0.337758 3:0.243132 4:0.0573424 5:0.491274 6:0.784301 
40 1:0.269027 2:0.436049 3:0.282967 4:0.104847 5:0.557612 6:0.796696 
40 1:0.27753 2:0.456134 3:0.282967 4:0.0708792 5:0.763814 6:0.794313 
40 1:0.284045 2:0.474672 3:0.322802 4:0.0708792 5:0.525659 6:0.786484 
40 1:0.196084 2:0.523194 3:0.402473 4:0.0573424 5:0.712718 6:0.764842 
40 1:0.140298 2:0.765718 3:0.482143 4:0.0573424 5:0.858825 6:0.799694 
40 1:0.101412 2:0.747184 3:0.482143 4:0.104847 5:0.637187 6:0.770101 
5.733620290730263 1:0.0561529 2:0.753951 3:0.482143 4:0.0573424 5:0.699136 6:0.782088 
40 1:0.26302 2:0.522741 3:0.521978 4:0.0573424 5:0.574374 6:0.825257 
40 1:0.190086 2:0.305061 3:0.521978 4:0.0573424 5:0.570088 6:0.722223 
40 1:0.153925 2:0.914991 3:0.561813 4:0.0573424 5:0.781055 6:0.8095 
40 1:0.203071 2:0.707034 3:0.561813 4:0.0573424 5:0.723948 6:0.85198 
2.533097730433444 1:0.135047 2:0.863939 3:0.681319 4:0.0573424 5:0.542527 6:0.736336 
40 1:0.146106 2:0.892888 3:0.681319 4:0.0573424 5:0.488311 6:0.796604 
40 1:0.563185 2:0.329774 3:0.171429 4:0.104847 5:0.29651 6:0.785312 
40 1:0.264412 2:0.366921 3:0.212857 4:0.0573424 5:0.516667 6:0.748647 
40 1:0.292814 2:0.309673 3:0.254286 4:0.0708792 5:0.560868 6:0.758558 
40 1:0.419915 2:0.323195 3:0.295714 4:0.114685 5:0.288847 6:0.780067 
40 1:0.341728 2:0.462513 3:0.337143 4:0.0708792 5:0.454238 6:0.788542 
40 1:0.376144 2:0.283184 3:0.337143 4:0.0573424 5:0.505985 6:0.743741 
40 1:0.277331 2:0.440545 3:0.378571 4:0.0573424 5:0.503235 6:0.771843 
40 1:0.306356 2:0.240201 3:0.461429 4:0.0573424 5:0.543728 6:0.742227 
40 1:0.190824 2:0.564199 3:0.461429 4:0.0573424 5:0.809245 6:0.735113 
40 1:0.528118 2:0.437374 3:0.461429 4:0.114685 5:0.291594 6:0.790431 
40 1:0.574866 2:0.396082 3:0.461429 4:0.0708792 5:0.30621 6:0.808773 
40 1:0.584446 2:0.481183 3:0.502857 4:0.0573424 5:0.319305 6:0.775262 
40 1:0.457598 2:0.431778 3:0.502857 4:0.0573424 5:0.305181 6:0.767812 
40 1:0.372441 2:0.253657 3:0.544286 4:0.0237518 5:0.467128 6:0.769799 
40 1:0.187165 2:0.868734 3:0.544286 4:0.0573424 5:0.785512 6:0.853945 
40 1:0.366682 2:0.406294 3:0.834286 4:0.0573424 5:0.390368 6:0.800878 
40 1:0.272915 2:0.387745 3:0.271164 4:0.114685 5:0.636695 6:0.811648 
40 1:0.229387 2:0.411438 3:0.309523 4:0.0708792 5:0.594848 6:0.768408 
40 1:0.182581 2:0.533528 3:0.386243 4:0.0708792 5:0.600517 6:0.74554 
40 1:0.375899 2:0.529777 3:0.462962 4:0.0573424 5:0.427057 6:0.778395 
40 1:0.23146 2:0.83518 3:0.462962 4:0.104847 5:0.682742 6:0.882989 
12.45702591228187 1:0.199074 2:0.118002 3:0.00571424 4:0.0708792 5:0.432845 6:0.787281 
40 1:0.475335 2:0.502847 3:0.544286 4:0.0573424 5:0.373737 6:0.785327 
40 1:0.454908 2:0.301509 3:0.260204 4:0.0237518 5:0.544586 6:0.771002 
27.98214142966528 1:0.179153 2:0.707357 3:0.334184 4:0.104847 5:0.754275 6:0.603094 
40 1:0.201591 2:0.902479 3:0.445153 4:0.0573424 5:0.680449 6:0.750541 
40 1:0.151684 2:0.762941 3:0.482143 4:0.0573424 5:0.835171 6:0.792142 
40 1:0.176121 2:0.766516 3:0.482143 4:0.0573424 5:0.785113 6:0.760135 
40 1:0.216819 2:0.697193 3:0.519132 4:0.0573424 5:0.717994 6:0.809018 
40 1:0.164474 2:0.84673 3:0.667091 4:0.0573424 5:0.591683 6:0.745883 
40 1:0.246799 2:0.37648 3:0.117725 4:0.0573424 5:0.439951 6:0.78254 
40 1:0.388148 2:0.340093 3:0.232804 4:0.0573424 5:0.533323 6:0.776252 
40 1:0.266572 2:0.371412 3:0.271164 4:0.0573424 5:0.619714 6:0.748927 
40 1:0.23198 2:0.493424 3:0.424603 4:0.0237518 5:0.779734 6:0.797179 
40 1:0.115159 2:0.727594 3:0.424603 4:0.0573424 5:0.833356 6:0.75864 
40 1:0.189204 2:0.445585 3:0.424603 4:0.0573424 5:0.641574 6:0.746368 
40 1:0.187299 2:0.845635 3:0.424603 4:0.0573424 5:0.932107 6:0.71801 
40 1:0.103252 2:0.772796 3:0.424603 4:0.0573424 5:0.763599 6:0.815424 
40 1:0.177929 2:0.499465 3:0.462962 4:0.0237518 5:0.775014 6:0.710176 
40 1:0.240207 2:0.502753 3:0.462962 4:0.0573424 5:0.658703 6:0.772405 
40 1:0.250325 2:0.5498 3:0.462962 4:0.0708792 5:0.772701 6:0.792062 
40 1:0.195845 2:0.432043 3:0.462962 4:0.0573424 5:0.624907 6:0.778355 
40 1:0.269371 2:0.569429 3:0.501323 4:0.0573424 5:0.708195 6:0.762142 
40 1:0.183212 2:0.875739 3:0.501323 4:0.0573424 5:0.838146 6:0.828954 
40 1:0.113519 2:0.843267 3:0.539683 4:0.0573424 5:0.854536 6:0.906532 
40 1:0.247422 2:0.675908 3:0.578043 4:0.0573424 5:0.663795 6:0.737389 
18.35445053422758 1:0.261449 2:0.907564 3:0.578043 4:0.0573424 5:1 6:0.883495 
40 1:0.302126 2:0.694284 3:0.616402 4:0.0573424 5:0.83734 6:0.824886 
13.93347675760557 1:0.156647 2:0.844817 3:0.693122 4:0.0573424 5:0.622335 6:0.776178 
40 1:0.206406 2:0.350621 3:0.808201 4:0.0573424 5:0.601902 6:0.776705 
40 1:0.229299 2:0.417561 3:0.378571 4:0.0573424 5:0.732014 6:0.78058 
40 1:0.194782 2:0.529958 3:0.42 4:0.0573424 5:0.71866 6:0.746767 
40 1:0.252451 2:0.528576 3:0.461429 4:0.0573424 5:0.563913 6:0.755759 
26.30937328426046 1:0.227973 2:0.498486 3:0.461429 4:0.0237518 5:0.663466 6:0.710468 
40 1:0.21312 2:0.583356 3:0.461429 4:0.0573424 5:0.723509 6:0.789715 
40 1:0.191376 2:0.621605 3:0.502857 4:0.0573424 5:0.74716 6:0.748799 
40 1:0.253932 2:0.52104 3:0.544286 4:0.0573424 5:0.563704 6:0.769349 
40 1:0.226182 2:0.546663 3:0.544286 4:0.0573424 5:0.53612 6:0.774952 
40 1:0.193776 2:0.652881 3:0.544286 4:0.0573424 5:0.679317 6:0.768823 
38.12592093689496 1:0.221587 2:0.885494 3:0.585714 4:0.0573424 5:0.399915 6:0.79725 
15.97799100564449 1:0.188973 2:0.668395 3:0.585714 4:0.0573424 5:0.645663 6:0.77075 
-40 1:0.392802 2:0.290033 3:0.156084 4:0.0573424 5:0.331855 6:0.794425 
-40 1:0.238333 2:0.293951 3:0.194444 4:0.0573424 5:0.428572 6:0.759336 
-40 1:0.228783 2:0.724678 3:0.578043 4:0.0573424 5:0.543149 6:0.710946 
-40 1:0.188166 2:0.407946 3:0.186225 4:0.0573424 5:0.665048 6:0.762792 
-40 1:0.160702 2:0.534671 3:0.297194 4:0.0708792 5:0.489287 6:0.754421 
-40 1:0.161044 2:0.598043 3:0.334184 4:0.0708792 5:0.619627 6:0.736321 
-40 1:0.209411 2:0.475531 3:0.334184 4:0.0708792 5:0.806068 6:0.716619 
-40 1:0.117519 2:0.627315 3:0.371173 4:0.0708792 5:0.711864 6:0.801907 
-40 1:0.104634 2:0.622866 3:0.371173 4:0.0708792 5:0.638055 6:0.817896 
-40 1:0.21399 2:0.466451 3:0.408163 4:0.0573424 5:0.715829 6:0.780355 
-40 1:0.148405 2:0.526657 3:0.408163 4:0.0708792 5:0.740416 6:0.683708 
-40 1:0.36856 2:0.244303 3:0.445153 4:0.0237518 5:0.578004 6:0.757663 
-40 1:0.135247 2:0.667063 3:0.445153 4:0.0573424 5:0.704488 6:0.825597 
-40 1:0.0825907 2:0.709435 3:0.445153 4:0.0708792 5:0.584532 6:0.808322 
-40 1:0.0495396 2:0.738306 3:0.445153 4:0.114685 5:0.536042 6:0.764746 
-40 1:0.259363 2:0.583287 3:0.445153 4:0.0573424 5:0.546535 6:0.821572 
-40 1:0.373927 2:0.493282 3:0.482143 4:0.0708792 5:0.478918 6:0.788731 
-40 1:0.119831 2:0.73324 3:0.482143 4:0.0573424 5:0.690253 6:0.880304 
-40 1:0.4918 2:0.503006 3:0.482143 4:0.0237518 5:0.446899 6:0.787988 
-40 1:0.359157 2:0.572518 3:0.482143 4:0.0237518 5:0.58404 6:0.803023 
-40 1:0.179307 2:0.564829 3:0.519132 4:0.0573424 5:0.497556 6:0.770232 
-40 1:0.18683 2:0.851927 3:0.519132 4:0.114685 5:0.703589 6:0.833758 
-29.12123178359522 1:0.200949 2:0.351555 3:0.352679 4:0.149409 5:0.588659 6:0.752993 
-15.30138545248023 1:0.321765 2:0.499323 3:0.395834 4:0.0573424 5:0.774115 6:0.762886 
-40 1:0.372441 2:0.511235 3:0.395834 4:0.0573424 5:0.749357 6:0.775469 
-40 1:0.211921 2:0.497414 3:0.438988 4:0.0573424 5:0.723024 6:0.759981 
-32.2165307019724 1:0.201452 2:0.471563 3:0.438988 4:0.0708792 5:0.804833 6:0.748361 
-40 1:0.169739 2:0.678111 3:0.482143 4:0.0708792 5:0.87255 6:0.744568 
-40 1:0.3821 2:0.432767 3:0.525298 4:0.0573424 5:0.427694 6:0.793354 
-40 1:0.268755 2:0.484109 3:0.525298 4:0.0573424 5:0.511261 6:0.825449 
-40 1:0.239932 2:0.48412 3:0.525298 4:0.0573424 5:0.566212 6:0.791675 
-40 1:0.224338 2:0.527609 3:0.697916 4:0.0237518 5:0.548204 6:0.780463 
-40 1:0.752909 2:0.494801 3:0.697916 4:0.0237518 5:0.513797 6:0.769113 
-40 1:0.384986 2:0.401134 3:0.784227 4:0.0237518 5:0.503721 6:0.764098 
-40 1:0.341766 2:0.507077 3:0.827381 4:0.0573424 5:0.6024 6:0.759275 
-40 1:0.342493 2:0.332378 3:0.271164 4:0.0573424 5:0.476027 6:0.772612 
-40 1:0.250946 2:0.369674 3:0.309523 4:0.0708792 5:0.793612 6:0.756828 
-40 1:0.227225 2:0.566149 3:0.347883 4:0.0708792 5:0.662631 6:0.756631 
-40 1:0.239155 2:0.506944 3:0.501323 4:0.0708792 5:0.649655 6:0.837426 
-40 1:0.26498 2:0.580519 3:0.578043 4:0.0708792 5:0.622949 6:0.755599 
-40 1:0.159965 2:0.66763 3:0.578043 4:0.0573424 5:0.776007 6:0.845877 
-40 1:0.322621 2:0.636754 3:0.616402 4:0.0573424 5:0.507045 6:0.751833 
-40 1:0.212136 2:0.338513 3:0.223214 4:0.104847 5:0.550068 6:0.700358 
-40 1:0.223765 2:0.460859 3:0.395834 4:0.0708792 5:0.610399 6:0.745133 
-40 1:0.193923 2:0.821177 3:0.395834 4:0.114685 5:0.783077 6:0.665571 
-40 1:0.216538 2:0.500874 3:0.438988 4:0.0708792 5:0.765817 6:0.715262 
-40 1:0.317791 2:0.51954 3:0.438988 4:0.0708792 5:0.458974 6:0.80297 
-40 1:0.30993 2:0.508073 3:0.482143 4:0.0237518 5:0.485889 6:0.768465 
-40 1:0.405487 2:0.517831 3:0.525298 4:0.0708792 5:0.399934 6:0.781053 
-11.19578856283995 1:0.761485 2:0.471392 3:0.568452 4:0.0573424 5:0.53096 6:0.75294 
-40 1:0.178651 2:0.662089 3:0.568452 4:0.0708792 5:0.665908 6:0.765222 
-40 1:0.648403 2:0.449818 3:0.568452 4:0.0237518 5:0.435248 6:0.784304 
-40 1:0.331225 2:0.535494 3:0.741071 4:0.0573424 5:0.513557 6:0.768671 
-40 1:0.244303 2:0.515123 3:0.424603 4:0.0573424 5:0.719792 6:0.804167 
-40 1:0.237526 2:0.496885 3:0.424603 4:0.0573424 5:0.779802 6:0.754396 
-40 1:0.247234 2:0.682451 3:0.578043 4:0.0708792 5:0.732463 6:0.828791 
-7.437484512702239 1:0.879503 2:0.653541 3:0.616402 4:0.12399 5:0.665499 6:0.763415 
-40 1:0.313147 2:0.29823 3:0.194444 4:0.0708792 5:0.660727 6:0.749382 
-40 1:0.308544 2:0.56739 3:0.501323 4:0.0708792 5:0.666975 6:0.72823 
-40 1:0.24372 2:0.524875 3:0.378571 4:0.0573424 5:0.630757 6:0.781095 
-40 1:0.162546 2:0.463376 3:0.378571 4:0.0573424 5:0.747716 6:0.721559 
-40 1:0.338948 2:0.416004 3:0.42 4:0.0237518 5:0.669265 6:0.768881 
-40 1:0.214415 2:0.510079 3:0.42 4:0.0573424 5:0.609204 6:0.76894 
-40 1:0.232449 2:0.832766 3:0.461429 4:0.0708792 5:0.825329 6:0.784332 
-40 1:0.249191 2:0.567526 3:0.502857 4:0.0573424 5:0.629436 6:0.824974 
-40 1:0.192006 2:0.471303 3:0.502857 4:0.0573424 5:0.5701 6:0.787185 
-40 1:0.164936 2:0.764577 3:0.544286 4:0.0708792 5:0.792523 6:0.865216 
-40 1:0.340663 2:0.472058 3:0.309523 4:0.0573424 5:0.759249 6:0.793277 
-40 1:0.218671 2:0.539851 3:0.424603 4:0.0573424 5:0.715759 6:0.732528 
-40 1:0.220414 2:0.546749 3:0.462962 4:0.0708792 5:0.799231 6:0.777082 
-40 1:0.158936 2:0.722185 3:0.462962 4:0.0573424 5:0.880216 6:0.823043 
-40 1:0.088992 2:0.766925 3:0.462962 4:0.0708792 5:0.742841 6:0.767856 
-40 1:0.134031 2:0.785803 3:0.462962 4:0.0708792 5:0.802105 6:0.800757 
-40 1:0.0818947 2:0.829264 3:0.539683 4:0.0573424 5:0.830385 6:0.832951 
-40 1:0.172524 2:0.917346 3:0.539683 4:0.0573424 5:0.769989 6:0.92269 
-40 1:0.213359 2:0.659543 3:0.539683 4:0.0573424 5:0.713934 6:0.790988 
-40 1:0.230945 2:0.65424 3:0.539683 4:0.0573424 5:0.678024 6:0.812534 
-40 1:0.281393 2:0.597219 3:0.578043 4:0.0573424 5:0.559756 6:0.761268 
-40 1:0.264886 2:0.668105 3:0.578043 4:0.0573424 5:0.65294 6:0.75614 
-40 1:0.257805 2:0.680261 3:0.578043 4:0.0573424 5:0.758224 6:0.784069 
-40 1:0.176446 2:0.535451 3:0.413095 4:0.0237518 5:0.739878 6:0.771331 
-40 1:0.309918 2:0.352226 3:0.482143 4:0.0573424 5:0.630822 6:0.781202 
-40 1:0.160301 2:0.6017 3:0.482143 4:0.172027 5:0.461304 6:0.745487 
-40 1:0.218879 2:0.470833 3:0.482143 4:0.0573424 5:0.56228 6:0.773365 
-40 1:0.322494 2:0.307765 3:0.482143 4:0.0237518 5:0.681925 6:0.748741 
-40 1:0.173663 2:0.409675 3:0.516666 4:0.0573424 5:0.656855 6:0.698606 
-40 1:0.24498 2:0.852396 3:0.516666 4:0.0573424 5:0.715604 6:0.83965 
-40 1:0.231658 2:0.861116 3:0.516666 4:0.0573424 5:0.578636 6:0.833752 
-40 1:0.312039 2:0.324952 3:0.551191 4:0.0573424 5:0.558726 6:0.784206 
-40 1:0.318606 2:0.431121 3:0.585714 5:0.580979 6:0.763637 
-40 1:0.264383 2:0.459978 3:0.585714 4:0.0573424 5:0.601354 6:0.768294 
-40 1:0.196072 2:0.585987 3:0.585714 4:0.104847 5:0.627353 6:0.777695 
-40 1:0.354219 2:0.351974 3:0.620238 5:0.508331 6:0.756446 
-40 1:0.180834 2:0.383059 3:0.620238 4:0.114685 5:0.561337 6:0.747483 
-40 1:0.214431 2:0.940208 3:0.620238 4:0.0708792 5:0.811842 6:0.880269 
-40 1:0.200609 2:0.615201 3:0.620238 4:0.0573424 5:0.756022 6:0.780593 
-40 1:0.151083 2:0.737996 3:0.654762 4:0.0573424 5:0.755879 6:0.861711 
-40 1:0.148384 2:0.910143 3:0.654762 4:0.0573424 5:0.836627 6:0.868724 
-40 1:0.72258 2:0.603845 3:0.723809 4:0.0573424 5:0.462933 6:0.762095 
-40 1:0.214285 2:0.428932 3:0.186225 4:0.0573424 5:0.516011 6:0.750112 
-40 1:0.244871 2:0.45381 3:0.186225 4:0.104847 5:0.463617 6:0.784395 
-40 1:0.366959 2:0.349143 3:0.297194 4:0.104847 5:0.412699 6:0.748893 
-40 1:0.263015 2:0.45387 3:0.371173 4:0.0708792 5:0.622304 6:0.733367 
-24.63806428933581 1:0.24686 2:0.428779 3:0.371173 4:0.104847 5:0.766388 6:0.840344 
-40 1:0.109301 2:0.66666 3:0.408163 4:0.114685 5:0.759125 6:0.696603 
-40 1:0.159483 2:0.707502 3:0.445153 4:0.0708792 5:0.828287 6:0.769829 
-40 1:0.221157 2:0.937332 3:0.445153 4:0.114685 5:0.80824 6:0.807984 
-40 1:0.147797 2:0.726743 3:0.482143 4:0.104847 5:0.650031 6:0.791523 
-40 1:0.214399 2:0.970879 3:0.482143 4:0.0708792 5:0.828 6:0.808131 
-40 1:0.195009 2:0.760349 3:0.482143 4:0.0237518 5:0.80283 6:0.743373 
-40 1:0.248861 2:0.166648 3:0.519132 4:0.0573424 5:0.724996 6:0.789903 
-40 1:0.26669 2:0.543289 3:0.519132 4:0.0573424 5:0.716288 6:0.770045 
-40 1:0.574804 2:0.298604 3:0.519132 4:0.0573424 5:0.437346 6:0.805341 
-40 1:0.215198 2:0.75341 3:0.556123 4:0.0708792 5:0.570673 6:0.733095 
-40 1:0.675376 2:0.473661 3:0.556123 4:0.0573424 5:0.384301 6:0.77926 
-40 1:0.207002 2:0.942919 3:0.556123 4:0.0573424 5:0.894199 6:0.803125 
-40 1:0.574633 2:0.483181 3:0.556123 4:0.0573424 5:0.471029 6:0.778276 
-40 1:0.451807 2:0.284051 3:0.593112 4:0.0237518 5:0.415253 6:0.810973 
-40 1:0.364377 2:0.745627 3:0.593112 4:0.0708792 5:0.725992 6:0.769448 
-40 1:0.353601 2:0.822523 3:0.593112 4:0.0573424 5:0.32481 6:0.801828 
-40 1:0.241547 2:0.913349 3:0.593112 4:0.0573424 5:0.600777 6:0.784607 
-40 1:0.292959 2:0.387375 3:0.593112 4:0.0573424 5:0.600469 6:0.799398 
-40 1:0.85356 2:0.611749 3:0.630102 4:0.114685 5:0.40498 6:0.766662 
-40 1:0.718487 2:0.580416 3:0.630102 4:0.104847 5:0.278907 6:0.78896 
-40 1:0.815744 2:0.638529 3:0.704082 4:0.0708792 5:0.348363 6:0.772652 
-15.21035546719677 1:0.671891 2:0.628206 3:0.704082 4:0.104847 5:0.320729 6:0.779126 
-40 1:0.458135 2:0.612604 3:0.741071 4:0.0237518 5:0.458387 6:0.81278 
-40 1:0.58404 2:0.59246 3:0.741071 4:0.0573424 5:0.503618 6:0.783178 
-30.80182373329427 1:0.405588 2:0.51992 3:0.852041 4:0.0708792 5:0.520576 6:0.785398 
-40 1:0.281385 2:0.362516 3:0.171429 4:0.114685 5:0.518081 6:0.743834 
-40 1:0.265161 2:0.361743 3:0.254286 4:0.114685 5:0.573361 6:0.751347 
-40 1:0.444367 2:0.323943 3:0.254286 4:0.0708792 5:0.455563 6:0.778094 
-40 1:0.240639 2:0.378772 3:0.295714 4:0.114685 5:0.658395 6:0.826337 
-40 1:0.250991 2:0.402215 3:0.378571 4:0.104847 5:0.489167 6:0.827905 
-40 1:0.436534 2:0.371299 3:0.378571 4:0.0573424 5:0.613022 6:0.770084 
-40 1:0.283397 2:0.405767 3:0.378571 4:0.0708792 5:0.495291 6:0.808078 
-40 1:0.0695018 2:0.708907 3:0.42 4:0.0573424 5:0.698462 6:0.79462 
-40 1:0.095141 2:0.726571 3:0.42 4:0.104847 5:0.665563 6:0.823104 
-40 1:0.198038 2:0.504859 3:0.42 4:0.0573424 5:0.644877 6:0.761514 
-40 1:0.328156 2:0.46169 3:0.42 4:0.0573424 5:0.605551 6:0.776184 
-40 1:0.667079 2:0.414709 3:0.42 4:0.0708792 5:0.303696 6:0.766625 
-40 1:0.478877 2:0.431542 3:0.42 4:0.0708792 5:0.47409 6:0.753238 
-40 1:0.109598 2:0.70652 3:0.461429 4:0.0708792 5:0.922563 6:0.824529 
-40 1:0.0842315 2:0.86132 3:0.461429 4:0.0573424 5:0.771779 6:0.972078 
-40 1:0.230948 2:0.638014 3:0.502857 4:0.0573424 5:0.615288 6:0.788953 
-40 1:0.0851895 2:0.868068 3:0.544286 4:0.114685 5:0.537292 6:0.759817 
-40 1:0.114927 2:0.930703 3:0.544286 4:0.0573424 5:0.682707 6:0.89761 
-40 1:0.227912 2:0.664827 3:0.544286 4:0.0573424 5:0.754164 6:0.810283 
-40 1:0.126774 2:0.726195 3:0.544286 4:0.0573424 5:0.650527 6:0.740064 
-40 1:0.514362 2:0.517732 3:0.544286 4:0.0708792 5:0.439341 6:0.763423 
-40 1:0.64322 2:0.338311 3:0.334184 4:0.114685 5:0.337495 6:0.775055 
-40 1:0.232795 2:0.524222 3:0.371173 4:0.0237518 5:0.631897 6:0.777618 
-40 1:0.194537 2:0.499622 3:0.371173 4:0.0708792 5:0.697385 6:0.773746 
-40 1:0.263238 2:0.35552 3:0.371173 4:0.12399 5:0.612216 6:0.844136 
-40 1:0.17076 2:0.544925 3:0.408163 4:0.0708792 5:0.569348 6:0.739725 
-40 1:0.397307 2:0.395438 3:0.445153 4:0.0708792 5:0.453047 6:0.781874 
-40 1:0.130066 2:0.778712 3:0.556123 4:0.0573424 5:0.80056 6:0.904834 
-40 1:0.17604 2:0.905882 3:0.556123 4:0.114685 5:0.805877 6:0.930065 
-40 1:0.378639 2:0.500808 3:0.556123 4:0.0573424 5:0.535787 6:0.749961 
-40 1:0.375962 2:0.373454 3:0.556123 4:0.0708792 5:0.361823 6:0.779274 
-40 1:0.312951 2:0.854414 3:0.593112 4:0.0573424 5:0.755162 6:0.778025 
-40 1:0.660231 2:0.537196 3:0.593112 4:0.0708792 5:0.380117 6:0.785272 
-40 1:0.817057 2:0.619378 3:0.630102 4:0.0573424 5:0.482907 6:0.769082 
-40 1:0.748777 2:0.551101 3:0.630102 4:0.0708792 5:0.379567 6:0.761854 
-40 1:0.782331 2:0.609054 3:0.667091 4:0.0708792 5:0.417043 6:0.774179 
-40 1:0.221218 2:0.328418 3:0.186225 4:0.0573424 5:0.635477 6:0.703917 
-40 1:0.393629 2:0.36273 3:0.297194 4:0.104847 5:0.436866 6:0.775568 
-40 1:0.524453 2:0.376227 3:0.297194 4:0.0708792 5:0.455084 6:0.754399 
-40 1:0.150736 2:0.542875 3:0.371173 4:0.0573424 5:0.602737 6:0.765147 
-40 1:0.154852 2:0.568611 3:0.408163 4:0.0573424 5:0.654244 6:0.74252 
-40 1:0.421902 2:0.348666 3:0.408163 4:0.0573424 5:0.448152 6:0.769982 
-40 1:0.122263 2:0.477095 3:0.445153 4:0.0708792 5:0.506053 6:0.747311 
-40 1:0.412839 2:0.511571 3:0.445153 4:0.104847 5:0.527584 6:0.818117 
-40 1:0.444462 2:0.584725 3:0.482143 4:0.0237518 5:0.628262 6:0.764384 
-40 1:0.160594 2:0.701315 3:0.519132 4:0.0573424 5:0.790997 6:0.840205 
-40 1:0.299056 2:0.36284 3:0.519132 4:0.0237518 5:0.741543 6:0.764147 
-40 1:0.181137 2:0.689383 3:0.556123 4:0.0573424 5:0.680358 6:0.80049 
-40 1:0.529944 2:0.611101 3:0.556123 4:0.0708792 5:0.328287 6:0.789557 
-40 1:0.160534 2:0.559691 3:0.593112 4:0.0708792 5:0.753109 6:0.7997 
-40 1:0.213344 2:0.920473 3:0.593112 4:0.0573424 5:0.6744 6:0.837539 
-40 1:0.390689 2:0.459413 3:0.704082 4:0.0237518 5:0.558317 6:0.773518 
-34.57623815577058 1:0.312822 2:0.169837 3:0.043956 4:0.0573424 5:0.641493 6:0.750005 
-40 1:0.266719 2:0.357631 3:0.0837916 4:0.0708792 5:0.40731 6:0.769128 
-40 1:0.170284 2:0.375504 3:0.123626 4:0.149409 5:0.364924 6:0.754198 
-40 1:0.165768 2:0.425489 3:0.123626 4:0.0573424 5:0.48472 6:0.720465 
-1.641672191578936 1:0.172902 2:0.408052 3:0.163462 4:0.277018 5:0.433714 6:0.757119 
-20.49585917330998 1:0.547987 2:0.310435 3:0.203296 4:0.149409 5:0.270907 6:0.739326 
-40 1:0.201863 2:0.454645 3:0.282967 4:0.0708792 5:0.630906 6:0.715338 
-40 1:0.32009 2:0.312574 3:0.322802 4:0.0573424 5:0.50474 6:0.802935 
-40 1:0.251294 2:0.519747 3:0.322802 4:0.179087 5:0.341049 6:0.773126 
-40 1:0.176271 2:0.604972 3:0.322802 4:0.0573424 5:0.517262 6:0.771182 
-40 1:0.389111 2:0.381622 3:0.322802 4:0.0708792 5:0.566722 6:0.746664 
-40 1:0.158776 2:0.525558 3:0.362637 4:0.104847 5:0.546502 6:0.742681 
-40 1:0.522002 2:0.495204 3:0.362637 4:0.114685 5:0.285812 6:0.77371 
-40 1:0.174703 2:0.48053 3:0.402473 4:0.0708792 5:0.545985 6:0.70989 
-40 1:0.280942 2:0.528777 3:0.402473 4:0.0573424 5:0.450467 6:0.773908 
-40 1:0.390529 2:0.527318 3:0.402473 4:0.0573424 5:0.469391 6:0.757716 
-40 1:0.217863 2:0.833004 3:0.402473 4:0.114685 5:0.817494 6:0.669673 
-40 1:0.406559 2:0.511992 3:0.442307 4:0.104847 5:0.434665 6:0.773126 
-40 1:0.430185 2:0.530451 3:0.442307 4:0.114685 5:0.398297 6:0.768967 
-40 1:0.146698 2:0.675143 3:0.482143 4:0.12399 5:0.587966 6:0.788422 
-40 1:0.133645 2:0.86008 3:0.521978 4:0.114685 5:0.67801 6:0.861769 
-13.04472343629796 1:0.318648 2:0.4747 3:0.521978 4:0.185941 5:0.194673 6:0.791218 
-40 1:0.227292 2:0.284058 3:0.760989 4:0.0573424 5:0.605828 6:0.827948 
-22.47259108353076 1:0.362975 2:0.148073 3:0.880494 4:0.0708792 5:0.305778 6:0.808114 
-40 1:0.38921 2:0.353895 3:0.212857 4:0.0573424 5:0.486978 6:0.765991 
-40 1:0.26402 2:0.370309 3:0.212857 4:0.149409 5:0.428058 6:0.791839 
-40 1:0.229297 2:0.39014 3:0.295714 4:0.114685 5:0.661378 6:0.774938 
-40 1:0.229836 2:0.368794 3:0.203296 4:0.104847 5:0.627772 6:0.773775 
-32.02851841399144 1:0.242862 2:0.336681 3:0.203296 4:0.114685 5:0.656717 6:0.711302 
-40 1:0.0978947 2:0.729203 3:0.442307 4:0.0573424 5:0.706041 6:0.74022 
-40 1:0.0887616 2:0.743483 3:0.442307 4:0.0573424 5:0.740333 6:0.828449 
-40 1:0.382932 2:0.64994 3:0.482143 4:0.0708792 5:0.692367 6:0.705975 
-40 1:0.233811 2:0.964824 3:0.482143 4:0.0708792 5:0.652688 6:0.851256 
-40 1:0.263469 2:0.939937 3:0.482143 4:0.104847 5:0.581562 6:0.786902 
-40 1:0.152519 2:0.700412 3:0.561813 4:0.0708792 5:0.681558 6:0.776856 
-40 1:0.231843 2:0.128873 3:0.13 4:0.0573424 5:0.642723 6:0.763924 
-40 1:0.247755 2:0.285236 3:0.171429 4:0.104847 5:0.518432 6:0.768703 
-40 1:0.355817 2:0.261333 3:0.337143 4:0.0573424 5:0.513483 6:0.770906 
-40 1:0.18846 2:0.476501 3:0.378571 4:0.0708792 5:0.644644 6:0.648778 
-40 1:0.349101 2:0.62812 3:0.378571 4:0.0573424 5:0.747569 6:0.735702 
-40 1:0.159931 2:0.410181 3:0.42 4:0.0573424 5:0.550486 6:0.711573 
-40 1:0.151041 2:0.680822 3:0.42 4:0.0708792 5:0.810541 6:0.758292 
-40 1:0.214967 2:0.868015 3:0.42 4:0.0708792 5:0.899729 6:0.71756 
-40 1:0.217011 2:0.65616 3:0.42 4:0.0708792 5:0.896705 6:0.714262 
-40 1:0.356404 2:0.325767 3:0.42 4:0.0573424 5:0.568356 6:0.748605 
-19.74157778911377 1:0.223163 2:0.870739 3:0.461429 4:0.114685 5:0.864014 6:0.84306 
-40 1:0.342979 2:0.298286 3:0.461429 4:0.104847 5:0.472763 6:0.815701 
-40 1:0.181134 2:0.576936 3:0.502857 4:0.0573424 5:0.783619 6:0.725776 
-40 1:0.21015 2:0.494091 3:0.502857 4:0.0573424 5:0.562766 6:0.722911 
-40 1:0.311836 2:0.273051 3:0.502857 4:0.0573424 5:0.559919 6:0.752057 
-40 1:0.746602 2:0.39932 3:0.502857 4:0.0237518 5:0.409334 6:0.75704 
-40 1:0.322659 2:0.211014 3:0.502857 4:0.0573424 5:0.546072 6:0.802658 
-40 1:0.332933 2:0.300578 3:0.502857 4:0.0573424 5:0.477816 6:0.76135 
-4.231774503371881 1:0.497904 2:0.431141 3:0.544286 4:0.0708792 5:0.404385 6:0.745259 
-40 1:0.192308 2:0.627586 3:0.544286 4:0.0237518 5:0.532854 6:0.814707 
-40 1:0.687646 2:0.476632 3:0.544286 4:0.0573424 5:0.443192 6:0.791123 
-40 1:0.352794 2:0.55069 3:0.544286 4:0.0708792 5:0.348708 6:0.7772 
-40 1:0.331128 2:0.65143 3:0.544286 4:0.0708792 5:0.588497 6:0.776385 
-40 1:0.540478 2:0.560895 3:0.544286 4:0.104847 5:0.276869 6:0.773067 
-40 1:0.493799 2:0.51444 3:0.544286 4:0.0237518 5:0.144826 6:0.766474 
-40 1:0.630844 2:0.472386 3:0.544286 4:0.0573424 5:0.285719 6:0.802211 
-40 1:0.550956 2:0.385234 3:0.585714 4:0.0237518 5:0.348716 6:0.781604 
-40 1:0.0986753 2:0.806112 3:0.585714 4:0.0573424 5:0.662809 6:0.754764 
-40 1:0.173017 2:0.917379 3:0.585714 4:0.0573424 5:0.529009 6:0.683359 
-40 1:0.53834 2:0.552413 3:0.585714 4:0.0708792 5:0.31824 6:0.766674 
-40 1:0.180312 2:0.216716 3:0.627143 4:0.0708792 5:0.534915 6:0.701788 
-40 1:0.227791 2:0.854744 3:0.627143 4:0.12399 5:0.375118 6:0.772131 
-34.51593410463898 1:0.213433 2:0.218279 3:0.668571 4:0.104847 5:0.504854 6:0.746247 
-40 1:0.485189 2:0.428598 3:0.668571 4:0.0237518 5:0.486434 6:0.748202 
-40 1:0.820211 2:0.573319 3:0.668571 4:0.0237518 5:0.24429 6:0.791484 
-40 1:0.33668 2:0.359542 3:0.834286 4:0.0237518 5:0.499289 6:0.779376 
-40 1:0.236696 2:0.501748 3:0.386243 4:0.104847 5:0.673303 6:0.751797 
-40 1:0.192125 2:0.524316 3:0.424603 4:0.0573424 5:0.734377 6:0.770059 
-40 1:0.154285 2:0.716598 3:0.424603 4:0.0708792 5:0.812679 6:0.853906 
-40 1:0.244193 2:0.500731 3:0.462962 4:0.0708792 5:0.694259 6:0.791218 
-40 1:0.168834 2:0.695432 3:0.462962 4:0.0708792 5:0.829515 6:0.848599 
-40 1:0.234157 2:0.514957 3:0.501323 4:0.0708792 5:0.653659 6:0.790718 
-40 1:0.209021 2:0.532603 3:0.501323 4:0.104847 5:0.648687 6:0.764309 
-40 1:0.12255 2:0.713175 3:0.501323 4:0.0708792 5:0.832248 6:0.851714 
-40 1:0.143018 2:0.843557 3:0.501323 4:0.114685 5:0.84748 6:0.911215 
-40 1:0.250406 2:0.553327 3:0.539683 4:0.0573424 5:0.645617 6:0.786822 
-40 1:0.138201 2:0.762401 3:0.539683 4:0.0573424 5:0.755997 6:0.891506 
-27.99004179028701 1:0.208331 2:0.911819 3:0.539683 4:0.114685 5:0.85719 6:0.900616 
-40 1:0.218124 2:0.848953 3:0.578043 4:0.0573424 5:0.624504 6:0.749839 
-40 1:0.239659 2:0.65085 3:0.578043 4:0.104847 5:0.605137 6:0.805159 
-40 1:0.193735 2:0.452593 3:0.378571 4:0.0708792 5:0.63932 6:0.721461 
-40 1:0.15116 2:0.521001 3:0.378571 4:0.0573424 5:0.63398 6:0.746486 
-40 1:0.170251 2:0.629195 3:0.502857 4:0.0573424 5:0.909822 6:0.784846 
-40 1:0.236544 2:0.838346 3:0.502857 4:0.0573424 5:0.761974 6:0.830153 
-40 1:0.0912636 2:0.67569 3:0.544286 4:0.0573424 5:0.688359 6:0.746731 
-40 1:0.347415 2:0.355426 3:0.544286 4:0.0237518 5:0.644131 6:0.78708 
-40 1:0.189271 2:0.553647 3:0.585714 4:0.114685 5:0.575961 6:0.75106 
-40 1:0.509124 2:0.543497 3:0.668571 4:0.0573424 5:0.458693 6:0.770953 
-7.055249318166041 1:0.521309 2:0.457186 3:0.71 4:0.0573424 5:0.400012 6:0.77859 
-40 1:0.389643 2:0.566755 3:0.71 4:0.104847 5:0.373638 6:0.748163 
-40 1:0.259349 2:0.246866 3:0.751429 4:0.0573424 5:0.529474 6:0.811302 
-40 1:0.389025 2:0.310809 3:0.186225 4:0.0708792 5:0.526034 6:0.722082 
-40 1:0.220539 2:0.329341 3:0.223214 4:0.0237518 5:0.463241 6:0.782987 
-40 1:0.303718 2:0.346467 3:0.223214 4:0.0237518 5:0.596401 6:0.761962 
-40 1:0.371394 2:0.591806 3:0.408163 4:0.0708792 5:0.682308 6:0.750657 
-40 1:0.258871 2:0.550438 3:0.445153 4:0.0708792 5:0.67499 6:0.78921 
-40 1:0.117302 2:0.813711 3:0.445153 4:0.0573424 5:0.783337 6:0.917542 
-40 1:0.220761 2:0.922564 3:0.482143 4:0.12399 5:0.621539 6:0.76445 
-40 1:0.237186 2:0.541536 3:0.519132 4:0.0237518 5:0.692576 6:0.776694 
-40 1:0.237092 2:0.542266 3:0.519132 4:0.0573424 5:0.79632 6:0.772614 
-40 1:0.123264 2:1 3:0.519132 4:0.0573424 5:0.846182 6:0.895941 
-40 1:0.290524 2:0.573258 3:0.556123 4:0.0573424 5:0.658759 6:0.809381 
-40 1:0.206955 2:0.625218 3:0.556123 4:0.0573424 5:0.743691 6:0.81417 
-40 1:0.0859858 2:0.925143 3:0.556123 4:0.0573424 5:0.734685 6:0.865932 
-40 1:0.107527 2:0.982758 3:0.556123 4:0.0573424 5:0.845036 6:0.803333 
-40 1:0.171947 2:0.718478 3:0.556123 4:0.0573424 5:0.72431 6:0.794802 
-40 1:0.195272 2:0.727455 3:0.556123 4:0.0708792 5:0.760225 6:0.758311 
-40 1:0.271051 2:0.626293 3:0.593112 4:0.0573424 5:0.658801 6:0.755089 
-40 1:0.256664 2:0.708743 3:0.593112 4:0.0573424 5:0.780896 6:0.806762 
-40 1:0.212973 2:0.522458 3:0.386243 4:0.0573424 5:0.754286 6:0.726309 
-40 1:0.121972 2:0.711856 3:0.424603 4:0.114685 5:0.648491 6:0.589077 
-5.279877671656218 1:0.154479 2:0.717126 3:0.462962 4:0.104847 5:0.839207 6:0.853674 
-40 1:0.128032 2:0.753984 3:0.501323 4:0.0708792 5:0.787427 6:0.896795 
-40 1:0.195615 2:0.537756 3:0.502857 4:0.0573424 5:0.764943 6:0.740706 
-40 1:0.230848 2:0.471355 3:0.502857 4:0.0573424 5:0.704763 6:0.741067 
-40 1:0.13269 2:0.700168 3:0.502857 4:0.0573424 5:0.809654 6:0.843225 
-40 1:0.110482 2:0.744651 3:0.544286 4:0.0708792 5:0.69005 6:0.865892 
-40 1:0.0747483 2:0.812932 3:0.585714 4:0.0573424 5:0.640703 6:0.770603 
-40 1:0.0506498 2:0.857145 3:0.585714 4:0.0573424 5:0.58876 6:0.864233 
