svm_type c_svc
kernel_type rbf
gamma 2.8
nr_class 2
total_sv 11581
rho -13.6093
label 0 1
probA -1.74441
probB -0.0242747
nr_sv 5801 5780
SV
40 1:0.201865 2:0.244679 3:0.20202 4:0.0722531 5:0.255193 6:0.795075 
40 1:0.0243152 2:0.370899 3:0.383838 4:0.0488451 5:0.462456 6:0.698171 
40 1:0.177828 2:0.740722 3:0.464646 4:0.0395165 5:0.495656 6:0.737261 
40 1:0.214194 2:0.296442 3:0.21 4:0.0722531 5:0.255193 6:0.795075 
40 1:0.221687 2:0.284165 3:0.22 4:0.0395165 5:0.273147 6:0.765504 
40 1:0.183831 2:0.304197 3:0.35 4:0.0395165 5:0.294895 6:0.742366 
40 1:0.255407 2:0.433502 3:0.38 4:0.0488451 5:0.441224 6:0.726987 
40 1:0.123946 2:0.273295 3:0.39 4:0.0395165 5:0.340148 6:0.770898 
40 1:0.257216 2:0.417957 3:0.39 4:0.0488451 5:0.462456 6:0.698171 
40 1:0.363462 2:0.529547 3:0.39 4:0.118549 5:0.336427 6:0.740077 
40 1:0.12079 2:0.245237 3:0.4 4:0.0722531 5:0.343205 6:0.753341 
40 1:0.409509 2:0.528727 3:0.4 4:0.102962 5:0.325763 6:0.728586 
40 1:0.0836113 2:0.237103 3:0.41 4:0.0722531 5:0.364115 6:0.746329 
40 1:0.426251 2:0.559095 3:0.41 4:0.0722531 5:0.315171 6:0.723624 
40 1:0.290416 2:0.642148 3:0.44 4:0.0722531 5:0.458668 6:0.629166 
40 1:0.191219 2:0.357588 3:0.46 4:0.0722531 5:0.243513 6:0.748327 
40 1:0.195793 2:0.377275 3:0.46 4:0.0395165 5:0.301843 6:0.74939 
40 1:0.0736053 2:0.236004 3:0.47 4:0.190902 5:0.308034 6:0.73756 
40 1:0.369995 2:0.441381 3:0.47 4:0.0163681 5:0.34603 6:0.70391 
40 1:0.169863 2:0.301611 3:0.47 4:0.0488451 5:0.299312 6:0.729608 
40 1:0.594123 2:0.802067 3:0.47 4:0.0395165 5:0.495656 6:0.737261 
40 1:0.512081 2:0.811381 3:0.48 4:0.0163681 5:0.515082 6:0.615126 
40 1:0.220633 2:0.388601 3:0.49 4:0.0395165 5:0.275142 6:0.754192 
40 1:0.525456 2:0.815489 3:0.49 4:0.0488451 5:0.511872 6:0.729763 
40 1:0.635221 2:0.817695 3:0.49 4:0.079033 5:0.432876 6:0.740894 
40 1:0.312226 2:0.445682 3:0.49 4:0.0395165 5:0.31929 6:0.769664 
40 1:0.603448 2:0.680435 3:0.5 4:0.0488451 5:0.388087 6:0.665013 
40 1:0.492288 2:0.818126 3:0.5 4:0.0488451 5:0.454629 6:0.755974 
40 1:0.439861 2:0.627904 3:0.51 5:0.457307 6:0.585098 
40 1:0.419113 2:0.737648 3:0.59 4:0.0163681 5:0.399643 6:0.65166 
40 1:0.286136 2:0.547762 3:0.59 4:0.0722531 5:0.25093 6:0.697588 
40 1:0.212098 2:0.546259 3:0.6 4:0.0722531 5:0.232605 6:0.77592 
40 1:0.24171 2:0.266247 3:0.62 4:0.079033 5:0.30895 6:0.693737 
40 1:0.220613 2:0.461213 3:0.62 4:0.0488451 5:0.313725 6:0.745091 
40 1:0.0763789 2:0.148713 3:0.63 4:0.0722531 5:0.344727 6:0.789461 
40 1:0.123144 2:0.168243 3:0.63 4:0.0488451 5:0.313581 6:0.720501 
40 1:0.278005 2:0.474179 3:0.63 4:0.0395165 5:0.227957 6:0.738144 
40 1:0.18416 2:0.259752 3:0.63 4:0.0395165 5:0.294023 6:0.799935 
40 1:0.209018 2:0.436791 3:0.63 4:0.0395165 5:0.258003 6:0.738218 
40 1:0.37273 2:0.60657 3:0.64 4:0.0722531 5:0.237424 6:0.684988 
40 1:0.456071 2:0.576836 3:0.66 4:0.0722531 5:0.317522 6:0.734131 
40 1:0.32941 2:0.554619 3:0.66 4:0.0488451 5:0.256286 6:0.760967 
40 1:0.347883 2:0.501875 3:0.67 4:0.0722531 5:0.279068 6:0.672056 
40 1:0.332971 2:0.551819 3:0.67 4:0.0395165 5:0.257765 6:0.793555 
40 1:0.241863 2:0.467607 3:0.68 4:0.190902 5:0.354715 6:0.65714 
40 1:0.156395 2:0.232068 3:0.68 4:0.0395165 5:0.382354 6:0.706534 
40 1:0.249554 2:0.718087 3:0.69 4:0.118549 5:0.354677 6:0.682509 
40 1:0.284737 2:0.533343 3:0.69 4:0.0395165 5:0.327645 6:0.718394 
40 1:0.175585 2:0.244906 3:0.71 4:0.0163681 5:0.352999 6:0.737514 
40 1:0.331252 2:0.551139 3:0.71 4:0.0722531 5:0.118981 6:0.777899 
40 1:0.166671 2:0.424655 3:0.71 4:0.0395165 5:0.265412 6:0.814258 
40 1:0.0986478 2:0.40327 3:0.71 4:0.0395165 5:0.287167 6:0.786522 
40 1:0.263105 2:0.454941 3:0.72 4:0.0722531 5:0.199218 6:0.76662 
40 1:0.193234 2:0.454034 3:0.72 4:0.0488451 5:0.233285 6:0.729538 
40 1:0.307891 2:0.550645 3:0.74 4:0.0395165 5:0.243454 6:0.745151 
7.720429958759962 1:0.0913357 2:0.690858 3:0.77 4:0.0722531 5:0.154181 6:0.79794 
40 1:0.0974925 2:0.204509 3:0.78 4:0.0488451 5:0.285676 6:0.737021 
40 1:0.0424327 2:0.575021 3:0.78 4:0.161979 5:0.262898 6:0.772968 
40 1:0.150201 2:0.303074 3:0.79 4:0.0395165 5:0.287996 6:0.69928 
0.00905874224724269 1:0.0433209 2:0.63506 3:0.79 4:0.158066 5:0.292989 6:0.804007 
40 1:0.0960382 2:0.572832 3:0.79 4:0.0488451 5:0.220578 6:0.74532 
40 1:0.17037 2:0.232614 3:0.79 4:0.0395165 5:0.32651 6:0.786429 
40 1:0.287961 2:0.278943 3:0.233645 4:0.123414 5:0.350328 6:0.769663 
40 1:0.165455 2:0.212761 3:0.233645 4:0.118549 5:0.338313 6:0.782617 
40 1:0.133947 2:0.159102 3:0.242991 4:0.079033 5:0.349419 6:0.742698 
40 1:0.115009 2:0.156906 3:0.271028 4:0.0722531 5:0.359183 6:0.723236 
40 1:0.243222 2:0.261619 3:0.317757 4:0.0722531 5:0.250784 6:0.781563 
40 1:0.181278 2:0.257722 3:0.317757 4:0.102962 5:0.338716 6:0.74036 
40 1:0.180618 2:0.396367 3:0.327103 4:0.0854457 5:0.432888 6:0.751072 
40 1:0.163167 2:0.404484 3:0.336449 4:0.0722531 5:0.401525 6:0.76175 
40 1:0.179166 2:0.389777 3:0.345794 4:0.0722531 5:0.331556 6:0.766607 
40 1:0.0832023 2:0.253436 3:0.35514 4:0.0395165 5:0.489615 6:0.788753 
40 1:0.091043 2:0.322961 3:0.35514 4:0.0722531 5:0.402592 6:0.740206 
40 1:0.284929 2:0.403119 3:0.35514 4:0.0722531 5:0.401162 6:0.730576 
40 1:0.329654 2:0.411387 3:0.364486 4:0.0722531 5:0.371226 6:0.736719 
40 1:0.289133 2:0.419567 3:0.373832 4:0.0722531 5:0.299305 6:0.781285 
40 1:0.31707 2:0.408248 3:0.373832 4:0.079033 5:0.329873 6:0.75366 
40 1:0.334869 2:0.4154 3:0.383178 4:0.0854457 5:0.360785 6:0.759274 
40 1:0.349367 2:0.457218 3:0.392523 4:0.079033 5:0.258765 6:0.754809 
40 1:0.354812 2:0.469949 3:0.401869 4:0.0722531 5:0.310742 6:0.744074 
40 1:0.035808 2:0.726328 3:0.411215 4:0.0854457 5:0.461523 6:0.706811 
40 1:0.31238 2:0.378524 3:0.411215 4:0.0488451 5:0.283883 6:0.755069 
40 1:0.133307 2:0.55956 3:0.429907 4:0.0395165 5:0.471376 6:0.627755 
40 1:0.105451 2:0.272707 3:0.439252 4:0.0395165 5:0.378422 6:0.736222 
40 1:0.354366 2:0.575536 3:0.439252 4:0.079033 5:0.463765 6:0.740583 
40 1:0.235151 2:0.371476 3:0.439252 4:0.102962 5:0.237958 6:0.764249 
40 1:0.178505 2:0.705059 3:0.448598 4:0.0722531 5:0.572967 6:0.720561 
40 1:0.536337 2:0.753233 3:0.46729 4:0.0395165 5:0.481599 6:0.721558 
40 1:0.234767 2:0.560613 3:0.485981 4:0.0395165 5:0.33331 6:0.755699 
40 1:0.222482 2:0.58061 3:0.495327 4:0.0395165 5:0.356618 6:0.753519 
40 1:0.249487 2:0.574523 3:0.504673 4:0.0488451 5:0.418906 6:0.72147 
40 1:0.261819 2:0.526283 3:0.514019 4:0.0395165 5:0.332936 6:0.719084 
40 1:0.135416 2:0.166671 3:0.523364 4:0.0163681 5:0.457156 6:0.756829 
40 1:0.274406 2:0.598212 3:0.607477 4:0.0722531 5:0.488524 6:0.723328 
40 1:0.325361 2:0.732655 3:0.626168 4:0.0395165 5:0.237349 6:0.779348 
40 1:0.270823 2:0.694742 3:0.635514 4:0.0488451 5:0.237713 6:0.783703 
40 1:0.277507 2:0.695403 3:0.635514 4:0.0395165 5:0.230226 6:0.761694 
40 1:0.141748 2:0.244563 3:0.766355 4:0.0395165 5:0.370381 6:0.766459 
40 1:0.114957 2:0.317301 3:0.149533 4:0.0854457 5:0.351422 6:0.695914 
40 1:0.317383 2:0.330411 3:0.149533 4:0.0163681 5:0.306277 6:0.763039 
40 1:0.269698 2:0.306916 3:0.205607 4:0.102962 5:0.291336 6:0.781345 
40 1:0.274115 2:0.300789 3:0.214953 4:0.0854457 5:0.263122 6:0.771628 
40 1:0.317129 2:0.327149 3:0.233645 4:0.123414 5:0.350328 6:0.769663 
40 1:0.229909 2:0.30522 3:0.233645 4:0.118549 5:0.338313 6:0.782617 
40 1:0.0400446 2:0.262002 3:0.242991 4:0.102962 5:0.328034 6:0.717715 
40 1:0.179884 2:0.206256 3:0.242991 4:0.079033 5:0.349419 6:0.742698 
40 1:0.0438181 2:0.362036 3:0.252336 4:0.0854457 5:0.430647 6:0.795439 
40 1:0.0908477 2:0.277877 3:0.261682 4:0.173286 5:0.368381 6:0.663311 
40 1:0.184812 2:0.201999 3:0.271028 4:0.0722531 5:0.359183 6:0.723236 
40 1:0.0354619 2:0.205539 3:0.280374 4:0.0854457 5:0.406182 6:0.680704 
40 1:0.149251 2:0.346686 3:0.280374 4:0.200853 5:0.349864 6:0.637465 
40 1:0.446521 2:0.413636 3:0.280374 4:0.079033 5:0.357925 6:0.723283 
40 1:0.0620724 2:0.285097 3:0.28972 4:0.079033 5:0.410327 6:0.770534 
40 1:0.110123 2:0.255311 3:0.299065 4:0.0395165 5:0.425268 6:0.728783 
40 1:0.295349 2:0.377857 3:0.299065 4:0.118549 5:0.336361 6:0.645491 
40 1:0.222622 2:0.47842 3:0.299065 4:0.079033 5:0.461851 6:0.577143 
40 1:0.272772 2:0.366241 3:0.308411 4:0.0395165 5:0.317884 6:0.743519 
40 1:0.198969 2:0.29681 3:0.317757 4:0.0854457 5:0.369936 6:0.759002 
40 1:0.28522 2:0.365567 3:0.317757 4:0.118549 5:0.321849 6:0.727648 
40 1:0.474176 2:0.441603 3:0.317757 4:0.0488451 5:0.433597 6:0.765317 
40 1:0.45709 2:0.421867 3:0.317757 4:0.0395165 5:0.310453 6:0.739138 
40 1:0.264791 2:0.319599 3:0.317757 4:0.0722531 5:0.250784 6:0.781563 
40 1:0.270823 2:0.311814 3:0.317757 4:0.102962 5:0.338716 6:0.74036 
40 1:0.340433 2:0.448824 3:0.327103 4:0.0488451 5:0.376257 6:0.662105 
40 1:0.484952 2:0.446462 3:0.327103 4:0.0722531 5:0.444913 6:0.75298 
40 1:0.464623 2:0.43034 3:0.327103 4:0.0488451 5:0.434577 6:0.773174 
40 1:0.502191 2:0.465808 3:0.336449 4:0.0722531 5:0.401525 6:0.76175 
40 1:0.457246 2:0.434134 3:0.336449 4:0.0395165 5:0.402756 6:0.789037 
40 1:0.0598143 2:0.311946 3:0.345794 4:0.123414 5:0.3195 6:0.75227 
40 1:0.420018 2:0.469533 3:0.345794 4:0.0722531 5:0.331556 6:0.766607 
40 1:0.419713 2:0.442288 3:0.345794 4:0.0488451 5:0.338021 6:0.76045 
40 1:0.198837 2:0.310783 3:0.35514 4:0.0395165 5:0.489615 6:0.788753 
40 1:0.376895 2:0.372423 3:0.35514 4:0.0722531 5:0.402592 6:0.740206 
16.94959709924394 1:0.483434 2:0.556865 3:0.35514 4:0.0722531 5:0.486395 6:0.605676 
40 1:0.379635 2:0.49101 3:0.35514 4:0.0722531 5:0.401162 6:0.730576 
40 1:0.415207 2:0.494167 3:0.364486 4:0.0722531 5:0.371226 6:0.736719 
40 1:0.177912 2:0.351719 3:0.373832 4:0.079033 5:0.304703 6:0.762765 
40 1:0.427381 2:0.469728 3:0.373832 4:0.0722531 5:0.299305 6:0.781285 
40 1:0.350714 2:0.490706 3:0.373832 4:0.079033 5:0.329873 6:0.75366 
40 1:0.495797 2:0.523411 3:0.383178 4:0.173286 5:0.358102 6:0.703769 
40 1:0.397053 2:0.50955 3:0.383178 4:0.0854457 5:0.360785 6:0.759274 
40 1:0.185597 2:0.217278 3:0.392523 4:0.0854457 5:0.341213 6:0.729689 
40 1:0.416122 2:0.405466 3:0.392523 4:0.0722531 5:0.354641 6:0.695055 
40 1:0.171483 2:0.165018 3:0.392523 4:0.0722531 5:0.418124 6:0.761207 
40 1:0.435865 2:0.604185 3:0.392523 4:0.0395165 5:0.555242 6:0.648454 
40 1:0.27036 2:0.57596 3:0.401869 4:0.118549 5:0.436607 6:0.694187 
40 1:0.338311 2:0.56987 3:0.401869 4:0.190902 5:0.408085 6:0.699158 
40 1:0.193268 2:0.203211 3:0.401869 4:0.0722531 5:0.385203 6:0.745458 
40 1:0.0679457 2:0.326478 3:0.401869 4:0.118549 5:0.34838 6:0.676505 
40 1:0.129244 2:0.321618 3:0.401869 4:0.0722531 5:0.289859 6:0.799919 
40 1:0.430377 2:0.649747 3:0.401869 4:0.0722531 5:0.490213 6:0.675214 
40 1:0.44024 2:0.542173 3:0.401869 4:0.0722531 5:0.310742 6:0.744074 
40 1:0.0423239 2:0.16018 3:0.411215 4:0.079033 5:0.463181 6:0.730775 
40 1:0.202911 2:0.297257 3:0.411215 4:0.0722531 5:0.294184 6:0.718776 
40 1:0.460902 2:0.488605 3:0.411215 4:0.184022 5:0.474528 6:0.642787 
40 1:0.512791 2:0.539311 3:0.411215 4:0.158066 5:0.410212 6:0.704011 
40 1:0.569703 2:0.654616 3:0.411215 4:0.079033 5:0.499062 6:0.636987 
40 1:0.439338 2:0.6152 3:0.411215 4:0.0395165 5:0.520215 6:0.575687 
40 1:0.413064 2:0.42235 3:0.411215 4:0.0488451 5:0.283883 6:0.755069 
40 1:0.23776 2:0.458956 3:0.420561 4:0.213512 5:0.471701 6:0.629873 
40 1:0.339584 2:0.550996 3:0.420561 4:0.197582 5:0.381357 6:0.70412 
40 1:0.268954 2:0.363194 3:0.420561 4:0.0395165 5:0.40654 6:0.751931 
40 1:0.205016 2:0.368596 3:0.420561 4:0.0488451 5:0.279205 6:0.757191 
40 1:0.327868 2:0.434956 3:0.420561 4:0.0395165 5:0.319943 6:0.763813 
40 1:0.614146 2:0.68056 3:0.420561 4:0.0722531 5:0.549 6:0.675043 
40 1:0.566226 2:0.645739 3:0.420561 4:0.0395165 5:0.540286 6:0.567616 
40 1:0.24732 2:0.4778 3:0.429907 4:0.225568 5:0.453696 6:0.679531 
40 1:0.209352 2:0.445551 3:0.429907 4:0.237099 5:0.42604 6:0.643596 
40 1:0.385683 2:0.659665 3:0.429907 4:0.0395165 5:0.48297 6:0.643475 
40 1:0.119243 2:0.170322 3:0.439252 4:0.0722531 5:0.404479 6:0.642226 
40 1:0.269922 2:0.270349 3:0.439252 4:0.0395165 5:0.402519 6:0.683022 
40 1:0.444647 2:0.417709 3:0.439252 4:0.118549 5:0.399946 6:0.694443 
40 1:0.460246 2:0.440167 3:0.439252 4:0.137207 5:0.433695 6:0.685896 
40 1:0.163066 2:0.383575 3:0.439252 4:0.0395165 5:0.378422 6:0.736222 
40 1:0.14461 2:0.461601 3:0.439252 4:0.0395165 5:0.333098 6:0.768545 
40 1:0.05643 2:0.34939 3:0.439252 4:0.0395165 5:0.394917 6:0.772965 
40 1:0.377301 2:0.665774 3:0.439252 4:0.0722531 5:0.46895 6:0.665853 
40 1:0.555305 2:0.67864 3:0.439252 4:0.0395165 5:0.542497 6:0.655987 
40 1:0.493977 2:0.474125 3:0.439252 4:0.102962 5:0.237958 6:0.764249 
40 1:0.229138 2:0.255473 3:0.448598 4:0.0488451 5:0.385289 6:0.704205 
40 1:0.434455 2:0.420454 3:0.448598 4:0.128138 5:0.388894 6:0.690383 
40 1:0.421903 2:0.414577 3:0.448598 4:0.118549 5:0.399602 6:0.660552 
40 1:0.285487 2:0.375231 3:0.448598 4:0.0395165 5:0.38493 6:0.779802 
40 1:0.189177 2:0.3515 3:0.448598 4:0.0395165 5:0.327488 6:0.747044 
40 1:0.472488 2:0.761598 3:0.448598 4:0.0488451 5:0.585355 6:0.72856 
40 1:0.312339 2:0.702048 3:0.448598 4:0.0395165 5:0.427298 6:0.681861 
40 1:0.397702 2:0.677231 3:0.448598 4:0.0395165 5:0.46525 6:0.662836 
40 1:0.26689 2:0.679874 3:0.448598 4:0.0488451 5:0.588049 6:0.67657 
40 1:0.26434 2:0.29372 3:0.457944 4:0.118549 5:0.309103 6:0.721226 
40 1:0.209353 2:0.236069 3:0.457944 4:0.0163681 5:0.395586 6:0.75064 
40 1:0.422717 2:0.414138 3:0.457944 4:0.102962 5:0.325358 6:0.710156 
40 1:0.454962 2:0.445045 3:0.457944 4:0.137207 5:0.357979 6:0.632902 
40 1:0.616872 2:0.575747 3:0.457944 4:0.0395165 5:0.32899 6:0.723052 
40 1:0.361302 2:0.439254 3:0.457944 4:0.0488451 5:0.36327 6:0.712413 
40 1:0.543147 2:0.594507 3:0.457944 4:0.0395165 5:0.451845 6:0.611003 
40 1:0.649133 2:0.719832 3:0.457944 4:0.079033 5:0.632641 6:0.708572 
40 1:0.471479 2:0.696363 3:0.457944 4:0.0854457 5:0.554819 6:0.648076 
40 1:0.373661 2:0.700159 3:0.457944 4:0.0395165 5:0.499147 6:0.62267 
40 1:0.275146 2:0.661448 3:0.457944 4:0.0722531 5:0.534694 6:0.616568 
40 1:0.188851 2:0.542047 3:0.457944 4:0.0488451 5:0.337871 6:0.740717 
40 1:0.237804 2:0.265785 3:0.46729 4:0.102962 5:0.345048 6:0.652028 
40 1:0.19782 2:0.230196 3:0.46729 4:0.0395165 5:0.334118 6:0.731169 
40 1:0.421202 2:0.425443 3:0.46729 4:0.123414 5:0.401774 6:0.61641 
40 1:0.625297 2:0.701867 3:0.46729 4:0.079033 5:0.64601 6:0.654878 
40 1:0.478123 2:0.714515 3:0.46729 4:0.102962 5:0.624599 6:0.643085 
40 1:0.544829 2:0.856631 3:0.46729 4:0.0395165 5:0.491158 6:0.73049 
40 1:0.384236 2:0.735286 3:0.46729 4:0.0395165 5:0.5539 6:0.583466 
40 1:0.304002 2:0.680647 3:0.46729 4:0.0488451 5:0.56316 6:0.601302 
40 1:0.090587 2:0.195572 3:0.476636 4:0.0488451 5:0.382639 6:0.691903 
40 1:0.149992 2:0.234715 3:0.476636 4:0.0395165 5:0.34231 6:0.722874 
40 1:0.377183 2:0.421408 3:0.476636 4:0.102962 5:0.387496 6:0.604186 
40 1:0.354411 2:0.416131 3:0.476636 4:0.079033 5:0.403077 6:0.760493 
40 1:0.642643 2:0.695353 3:0.476636 4:0.102962 5:0.600329 6:0.611235 
40 1:0.464129 2:0.722613 3:0.476636 4:0.102962 5:0.627511 6:0.658476 
40 1:0.477373 2:0.698382 3:0.476636 4:0.079033 5:0.536283 6:0.608545 
40 1:0.351072 2:0.756337 3:0.476636 4:0.0395165 5:0.491139 6:0.644519 
40 1:0.38511 2:0.7205 3:0.476636 4:0.0488451 5:0.464571 6:0.601644 
40 1:0.217539 2:0.584789 3:0.476636 4:0.0488451 5:0.315315 6:0.769119 
40 1:0.252891 2:0.621165 3:0.476636 4:0.0395165 5:0.323957 6:0.771812 
40 1:0.105108 2:0.17963 3:0.485981 4:0.0722531 5:0.316346 6:0.757597 
40 1:0.366325 2:0.427724 3:0.485981 4:0.102962 5:0.409356 6:0.608562 
40 1:0.613089 2:0.739101 3:0.485981 4:0.118549 5:0.580554 6:0.624999 
40 1:0.484016 2:0.698008 3:0.485981 4:0.0488451 5:0.544454 6:0.67555 
40 1:0.712806 2:0.819304 3:0.485981 4:0.0722531 5:0.512807 6:0.627399 
40 1:0.510483 2:0.752765 3:0.485981 4:0.0488451 5:0.501767 6:0.642684 
40 1:0.395335 2:0.595335 3:0.485981 4:0.0395165 5:0.38397 6:0.747581 
40 1:0.41821 2:0.617281 3:0.485981 4:0.0395165 5:0.356801 6:0.760211 
40 1:0.0797755 2:0.158082 3:0.495327 4:0.0854457 5:0.355746 6:0.745662 
40 1:0.355895 2:0.406861 3:0.495327 4:0.118549 5:0.38995 6:0.648932 
40 1:0.340923 2:0.413142 3:0.495327 4:0.0395165 5:0.303321 6:0.722 
40 1:0.211506 2:0.336451 3:0.495327 4:0.0395165 5:0.285973 6:0.757236 
40 1:0.585393 2:0.738671 3:0.495327 4:0.0722531 5:0.490905 6:0.649936 
40 1:0.513227 2:0.848677 3:0.495327 4:0.0722531 5:0.598515 6:0.619028 
40 1:0.634178 2:0.62533 3:0.495327 4:0.0395165 5:0.376578 6:0.75977 
40 1:0.229702 2:0.419393 3:0.504673 4:0.123414 5:0.378644 6:0.666718 
40 1:0.578066 2:0.743471 3:0.504673 4:0.0488451 5:0.438529 6:0.690028 
40 1:0.871857 2:0.853146 3:0.504673 4:0.0722531 5:0.484534 6:0.648658 
40 1:0.66044 2:0.63996 3:0.504673 4:0.0395165 5:0.427058 6:0.718345 
40 1:0.226169 2:0.397838 3:0.514019 4:0.0722531 5:0.297253 6:0.750312 
40 1:0.282464 2:0.454065 3:0.514019 4:0.123414 5:0.366763 6:0.637841 
40 1:0.652616 2:0.647652 3:0.514019 4:0.0395165 5:0.332936 6:0.719084 
40 1:0.257988 2:0.41269 3:0.523364 4:0.137207 5:0.398727 6:0.610824 
40 1:0.143338 2:0.231567 3:0.523364 4:0.0163681 5:0.457156 6:0.756829 
40 1:0.911889 2:0.892244 3:0.523364 4:0.0395165 5:0.445819 6:0.58577 
40 1:0.199038 2:0.256505 3:0.523364 4:0.0395165 5:0.312024 6:0.770168 
40 1:0.548586 2:0.64587 3:0.523364 4:0.0395165 5:0.280357 6:0.758225 
40 1:0.153143 2:0.274854 3:0.53271 4:0.0395165 5:0.413855 6:0.686968 
40 1:0.307347 2:0.450965 3:0.53271 4:0.123414 5:0.408064 6:0.623564 
40 1:0.691221 2:0.637554 3:0.53271 4:0.0395165 5:0.31644 6:0.715464 
40 1:0.138323 2:0.259548 3:0.542056 4:0.0854457 5:0.374682 6:0.656393 
40 1:0.258281 2:0.316026 3:0.542056 4:0.118549 5:0.333294 6:0.702056 
40 1:0.210758 2:0.369177 3:0.542056 4:0.123414 5:0.326362 6:0.689264 
40 1:0.323891 2:0.460087 3:0.542056 4:0.102962 5:0.429885 6:0.6061 
40 1:0.642418 2:0.667039 3:0.542056 4:0.0395165 5:0.316984 6:0.702667 
40 1:0.259447 2:0.555525 3:0.542056 4:0.0163681 5:0.332432 6:0.749659 
40 1:0.111906 2:0.247434 3:0.551402 4:0.0722531 5:0.374554 6:0.713187 
40 1:0.0945783 2:0.280257 3:0.551402 4:0.118549 5:0.361163 6:0.729558 
40 1:0.215596 2:0.310963 3:0.551402 4:0.0722531 5:0.35441 6:0.703099 
40 1:0.362309 2:0.493118 3:0.551402 4:0.0854457 5:0.435955 6:0.608287 
40 1:0.34493 2:0.476591 3:0.551402 4:0.0488451 5:0.378081 6:0.676776 
40 1:0.951332 2:0.93444 3:0.551402 4:0.0722531 5:0.449991 6:0.787598 
40 1:0.720779 2:0.662152 3:0.551402 4:0.0395165 5:0.30276 6:0.715686 
40 1:0.195283 2:0.499157 3:0.560748 4:0.079033 5:0.441365 6:0.607031 
40 1:0.108196 2:0.47977 3:0.560748 4:0.0488451 5:0.382393 6:0.688549 
40 1:0.251949 2:0.587239 3:0.560748 4:0.0395165 5:0.43977 6:0.66574 
40 1:0.147573 2:0.210213 3:0.560748 4:0.0395165 5:0.349313 6:0.741551 
40 1:0.706756 2:0.6774 3:0.560748 4:0.0163681 5:0.336926 6:0.708051 
40 1:0.146148 2:0.47946 3:0.570093 4:0.0488451 5:0.408118 6:0.678824 
40 1:0.208231 2:0.497385 3:0.570093 4:0.123414 5:0.449863 6:0.64328 
40 1:0.705674 2:0.726989 3:0.570093 4:0.0395165 5:0.370897 6:0.720428 
40 1:0.199489 2:0.489871 3:0.579439 4:0.158066 5:0.415064 6:0.647268 
40 1:0.129345 2:0.328735 3:0.579439 4:0.0395165 5:0.378597 6:0.682359 
40 1:0.107952 2:0.451665 3:0.579439 4:0.0488451 5:0.307827 6:0.755506 
40 1:0.279299 2:0.562855 3:0.579439 4:0.118549 5:0.460677 6:0.636238 
40 1:0.665967 2:0.704074 3:0.579439 4:0.0395165 5:0.305514 6:0.786057 
40 1:0.0923538 2:0.400009 3:0.588785 4:0.0488451 5:0.292636 6:0.770018 
40 1:0.245002 2:0.550212 3:0.588785 4:0.0722531 5:0.414101 6:0.731299 
40 1:0.655388 2:0.725817 3:0.588785 4:0.0395165 5:0.364313 6:0.66769 
40 1:0.260853 2:0.354763 3:0.588785 4:0.0395165 5:0.356453 6:0.69226 
40 1:0.121894 2:0.40503 3:0.598131 4:0.123414 5:0.27881 6:0.707357 
40 1:0.215663 2:0.500165 3:0.598131 4:0.158066 5:0.391186 6:0.678045 
40 1:0.280844 2:0.584905 3:0.598131 4:0.123414 5:0.397513 6:0.691066 
40 1:0.395458 2:0.675392 3:0.598131 4:0.0488451 5:0.34978 6:0.748223 
40 1:0.077366 2:0.180624 3:0.598131 4:0.0395165 5:0.346251 6:0.768628 
40 1:0.497079 2:0.53808 3:0.598131 4:0.0395165 5:0.366885 6:0.642271 
40 1:0.224241 2:0.515528 3:0.607477 4:0.102962 5:0.370654 6:0.693938 
40 1:0.212879 2:0.546428 3:0.607477 4:0.123414 5:0.355868 6:0.748133 
40 1:0.430004 2:0.70456 3:0.607477 4:0.0395165 5:0.386068 6:0.724558 
40 1:0.439188 2:0.712552 3:0.607477 4:0.102962 5:0.368642 6:0.711045 
40 1:0.687235 2:0.642778 3:0.607477 4:0.0722531 5:0.503481 6:0.729156 
40 1:0.746505 2:0.696331 3:0.607477 4:0.0722531 5:0.434503 6:0.643131 
40 1:0.485902 2:0.494636 3:0.607477 4:0.0395165 5:0.343662 6:0.640366 
40 1:0.0360758 2:0.231747 3:0.616822 4:0.137207 5:0.400792 6:0.705762 
40 1:0.0273734 2:0.249418 3:0.616822 4:0.0395165 5:0.408422 6:0.730881 
40 1:0.220445 2:0.565894 3:0.616822 4:0.079033 5:0.315274 6:0.758134 
40 1:0.252259 2:0.559562 3:0.616822 4:0.118549 5:0.324307 6:0.730101 
40 1:0.0417636 2:0.193969 3:0.626168 4:0.0395165 5:0.417487 6:0.736978 
40 1:0.0519992 2:0.369379 3:0.626168 4:0.0488451 5:0.391938 6:0.709705 
40 1:0.111649 2:0.488603 3:0.626168 4:0.118549 5:0.367344 6:0.774391 
40 1:0.154898 2:0.478932 3:0.626168 4:0.0488451 5:0.335037 6:0.71021 
40 1:0.257467 2:0.584676 3:0.626168 4:0.158066 5:0.378469 6:0.716987 
40 1:0.454257 2:0.751063 3:0.626168 4:0.0395165 5:0.359703 6:0.75142 
40 1:0.252894 2:0.573568 3:0.635514 4:0.137207 5:0.390207 6:0.706366 
40 1:0.134146 2:0.499 3:0.635514 4:0.079033 5:0.356227 6:0.719375 
40 1:0.20366 2:0.532798 3:0.64486 4:0.158066 5:0.422841 6:0.710697 
40 1:0.0907999 2:0.465281 3:0.64486 4:0.079033 5:0.312537 6:0.758381 
40 1:0.231563 2:0.59398 3:0.64486 4:0.0722531 5:0.39199 6:0.743565 
40 1:0.607919 2:0.709977 3:0.64486 4:0.0395165 5:0.344878 6:0.656314 
40 1:0.0713724 2:0.547856 3:0.654206 4:0.102962 5:0.384528 6:0.753967 
40 1:0.0981255 2:0.513471 3:0.663551 4:0.118549 5:0.357465 6:0.73754 
40 1:0.131329 2:0.5257 3:0.663551 4:0.158066 5:0.351233 6:0.702364 
40 1:0.247685 2:0.668567 3:0.663551 4:0.0722531 5:0.39602 6:0.7383 
40 1:0.248155 2:0.607655 3:0.663551 4:0.190902 5:0.363255 6:0.75664 
40 1:0.067758 2:0.525727 3:0.672897 4:0.079033 5:0.307407 6:0.813028 
40 1:0.222722 2:0.669265 3:0.672897 4:0.0722531 5:0.364245 6:0.75188 
40 1:0.29549 2:0.622499 3:0.672897 4:0.137207 5:0.352922 6:0.732469 
40 1:0.35808 2:0.748719 3:0.672897 4:0.0488451 5:0.404047 6:0.711112 
40 1:0.434335 2:0.521908 3:0.672897 4:0.0395165 5:0.335246 6:0.777318 
14.79893570560877 1:0.128391 2:0.262652 3:0.682243 4:0.0163681 5:0.333732 6:0.7816 
40 1:0.165403 2:0.189166 3:0.682243 4:0.0163681 5:0.39768 6:0.736774 
40 1:0.308432 2:0.713343 3:0.682243 4:0.0488451 5:0.418001 6:0.71869 
40 1:0.299633 2:0.659478 3:0.682243 4:0.102962 5:0.339258 6:0.742532 
40 1:0.389896 2:0.468379 3:0.682243 4:0.0395165 5:0.356139 6:0.751533 
40 1:0.0716739 2:0.17444 3:0.700935 4:0.0395165 5:0.353409 6:0.716028 
40 1:0.0993398 2:0.583253 3:0.700935 4:0.0395165 5:0.375469 6:0.767618 
40 1:0.126734 2:0.216062 3:0.71028 4:0.0395165 5:0.3442 6:0.807534 
40 1:0.0904889 2:0.560887 3:0.71028 4:0.0395165 5:0.265364 6:0.751129 
40 1:0.130022 2:0.198866 3:0.71028 4:0.0163681 5:0.358373 6:0.757657 
40 1:0.118347 2:0.183437 3:0.719626 4:0.0395165 5:0.363787 6:0.751541 
40 1:0.0300604 2:0.145209 3:0.757009 4:0.0722531 5:0.320711 6:0.780524 
40 1:0.145556 2:0.320826 3:0.766355 4:0.0395165 5:0.370381 6:0.766459 
40 1:0.202165 2:0.258844 3:0.766355 4:0.0163681 5:0.421409 6:0.745891 
40 1:0.131762 2:0.192698 3:0.803738 4:0.0163681 5:0.387927 6:0.737935 
40 1:0.178952 2:0.252513 3:0.803738 4:0.0395165 5:0.400799 6:0.725078 
12.38746472617858 1:0.285498 2:0.358704 3:0.803738 4:0.0395165 5:0.391432 6:0.789707 
40 1:0.111999 2:0.290254 3:0.803738 4:0.0163681 5:0.350192 6:0.782332 
40 1:0.166157 2:0.245592 3:0.813084 4:0.0163681 5:0.414741 6:0.699957 
40 1:0.0364922 2:0.423166 3:0.82243 4:0.0395165 5:0.317326 6:0.791117 
40 1:0.258401 2:0.370485 3:0.831776 4:0.0395165 5:0.403656 6:0.717747 
40 1:0.204418 2:0.587686 3:0.850467 4:0.0395165 5:0.329063 6:0.733393 
40 1:0.131415 2:0.248229 3:0.859813 4:0.0163681 5:0.412411 6:0.740823 
40 1:0.114154 2:0.175924 3:0.925234 4:0.0395165 5:0.369021 6:0.690318 
40 1:0.195283 2:0.289604 3:0.25 4:0.102962 5:0.262559 6:0.769823 
40 1:0.232533 2:0.261481 3:0.26 4:0.0854457 5:0.216557 6:0.75323 
40 1:0.204181 2:0.294383 3:0.34 4:0.0722531 5:0.242849 6:0.778615 
40 1:0.090174 2:0.456889 3:0.4 4:0.0722531 5:0.33067 6:0.774151 
40 1:0.204941 2:0.448372 3:0.41 4:0.0722531 5:0.385274 6:0.714319 
40 1:0.206422 2:0.455021 3:0.42 4:0.0395165 5:0.378988 6:0.706677 
40 1:0.204869 2:0.427953 3:0.43 4:0.0395165 5:0.3976 6:0.697004 
40 1:0.215052 2:0.423434 3:0.44 4:0.0395165 5:0.391681 6:0.710091 
40 1:0.272076 2:0.435353 3:0.45 4:0.0395165 5:0.320562 6:0.77531 
40 1:0.256769 2:0.436701 3:0.46 4:0.0722531 5:0.360897 6:0.702651 
40 1:0.173411 2:0.728797 3:0.47 4:0.0395165 5:0.442877 6:0.690165 
40 1:0.270694 2:0.424694 3:0.49 4:0.0395165 5:0.326314 6:0.727918 
40 1:0.31207 2:0.417123 3:0.5 4:0.0395165 5:0.315185 6:0.772036 
40 1:0.303818 2:0.423365 3:0.51 4:0.0488451 5:0.255956 6:0.778132 
40 1:0.259151 2:0.440239 3:0.52 4:0.0163681 5:0.41501 6:0.657618 
40 1:0.319524 2:0.440452 3:0.54 4:0.0395165 5:0.305007 6:0.761999 
40 1:0.201801 2:0.76143 3:0.54 4:0.0395165 5:0.419568 6:0.68197 
40 1:0.295363 2:0.4068 3:0.55 4:0.0395165 5:0.25579 6:0.783913 
40 1:0.256673 2:0.338229 3:0.254902 4:0.102962 5:0.262559 6:0.769823 
40 1:0.0267468 2:0.248394 3:0.264706 4:0.161979 5:0.321862 6:0.751279 
40 1:0.256229 2:0.309505 3:0.264706 4:0.0854457 5:0.216542 6:0.753 
40 1:0.191483 2:0.323628 3:0.313726 4:0.0488451 5:0.273728 6:0.769931 
40 1:0.386761 2:0.39551 3:0.323529 4:0.0395165 5:0.312167 6:0.77137 
40 1:0.28773 2:0.340024 3:0.343137 4:0.0722531 5:0.242849 6:0.778615 
40 1:0.336283 2:0.56233 3:0.382353 4:0.0395165 5:0.489657 6:0.598919 
40 1:0.47164 2:0.510424 3:0.401961 4:0.0722531 5:0.33067 6:0.774151 
40 1:0.50753 2:0.517409 3:0.411765 4:0.0722531 5:0.385274 6:0.714319 
40 1:0.44897 2:0.503466 3:0.421569 4:0.0395165 5:0.378988 6:0.706677 
40 1:0.479757 2:0.502951 3:0.431373 4:0.0395165 5:0.40131 6:0.689251 
40 1:0.386229 2:0.484749 3:0.441176 4:0.0395165 5:0.42625 6:0.705913 
40 1:0.370766 2:0.485591 3:0.441176 4:0.0395165 5:0.391681 6:0.710091 
40 1:0.336984 2:0.457275 3:0.45098 4:0.0395165 5:0.432749 6:0.66306 
40 1:0.376336 2:0.48836 3:0.45098 4:0.0395165 5:0.320562 6:0.77531 
40 1:0.33435 2:0.468995 3:0.460784 4:0.0395165 5:0.416296 6:0.67164 
40 1:0.343669 2:0.491165 3:0.460784 4:0.0722531 5:0.360897 6:0.702651 
40 1:0.333069 2:0.493613 3:0.470588 4:0.0395165 5:0.327575 6:0.690624 
40 1:0.539046 2:0.789918 3:0.470588 4:0.0395165 5:0.471207 6:0.677407 
40 1:0.351835 2:0.48573 3:0.480392 4:0.0395165 5:0.378832 6:0.66341 
40 1:0.0938057 2:0.264372 3:0.490196 4:0.102962 5:0.356855 6:0.696964 
40 1:0.357765 2:0.479428 3:0.490196 4:0.0395165 5:0.326314 6:0.727918 
40 1:0.460109 2:0.489904 3:0.490196 4:0.0395165 5:0.388902 6:0.65772 
40 1:0.580566 2:0.809529 3:0.490196 4:0.0395165 5:0.416352 6:0.650393 
40 1:0.382582 2:0.465934 3:0.5 4:0.0395165 5:0.315185 6:0.772036 
40 1:0.374229 2:0.469169 3:0.509804 4:0.0488451 5:0.255956 6:0.778132 
31.3435388356156 1:0.342293 2:0.661367 3:0.509804 4:0.0395165 5:0.472792 6:0.509392 
40 1:0.624611 2:0.81648 3:0.509804 4:0.0395165 5:0.404916 6:0.722272 
40 1:0.381088 2:0.487612 3:0.519608 4:0.0163681 5:0.41501 6:0.657618 
40 1:0.73608 2:0.809193 3:0.519608 4:0.0395165 5:0.442976 6:0.672231 
40 1:0.487798 2:0.51296 3:0.529412 4:0.0395165 5:0.411592 6:0.659165 
40 1:0.442965 2:0.491622 3:0.529412 4:0.0163681 5:0.366572 6:0.671128 
40 1:0.767013 2:0.792262 3:0.529412 4:0.0395165 5:0.428949 6:0.715363 
40 1:0.428759 2:0.507376 3:0.539216 4:0.0395165 5:0.378142 6:0.607621 
40 1:0.40165 2:0.51274 3:0.539216 4:0.0395165 5:0.305007 6:0.761999 
40 1:0.68782 2:0.809405 3:0.539216 4:0.0395165 5:0.419568 6:0.68197 
40 1:0.393513 2:0.511435 3:0.54902 4:0.0395165 5:0.25579 6:0.783913 
40 1:0.679056 2:0.833822 3:0.54902 4:0.0163681 5:0.424391 6:0.61256 
40 1:0.246336 2:0.445795 3:0.558824 4:0.128138 5:0.345966 6:0.644129 
40 1:0.555949 2:0.634518 3:0.578431 4:0.0395165 5:0.426292 6:0.629688 
40 1:0.642306 2:0.622524 3:0.588235 4:0.0395165 5:0.429345 6:0.632833 
40 1:0.265559 2:0.356182 3:0.588235 4:0.0395165 5:0.281379 6:0.772489 
40 1:0.215006 2:0.494187 3:0.598039 4:0.128138 5:0.336665 6:0.656846 
40 1:0.243232 2:0.514179 3:0.607843 4:0.128138 5:0.308707 6:0.669001 
40 1:0.25497 2:0.561332 3:0.627451 4:0.128138 5:0.302892 6:0.671206 
40 1:0.227998 2:0.520006 3:0.637255 4:0.123414 5:0.314233 6:0.655643 
40 1:0.557087 2:0.727101 3:0.39 4:0.102962 5:0.54009 6:0.690487 
40 1:0.571482 2:0.708468 3:0.4 4:0.0722531 5:0.64141 6:0.622135 
40 1:0.223891 2:0.371424 3:0.46 4:0.0722531 5:0.253438 6:0.750017 
40 1:0.10121 2:0.151576 3:0.49 4:0.0488451 5:0.427341 6:0.744568 
40 1:0.133302 2:0.170243 3:0.5 4:0.0395165 5:0.463507 6:0.730724 
40 1:0.212206 2:0.397202 3:0.5 4:0.0163681 5:0.465888 6:0.690226 
40 1:0.21814 2:0.388377 3:0.51 4:0.0395165 5:0.503877 6:0.663174 
40 1:0.0974271 2:0.218216 3:0.51 4:0.0395165 5:0.41867 6:0.757721 
40 1:0.253705 2:0.39413 3:0.52 4:0.0488451 5:0.53109 6:0.650544 
40 1:0.128249 2:0.553032 3:0.53 4:0.0488451 5:0.698698 6:0.563257 
40 1:0.221962 2:0.360064 3:0.54 4:0.0395165 5:0.359228 6:0.758177 
40 1:0.0903637 2:0.14993 3:0.54 4:0.0722531 5:0.298345 6:0.772556 
40 1:0.146297 2:0.60826 3:0.55 4:0.0722531 5:0.587194 6:0.587629 
40 1:0.288218 2:0.406431 3:0.56 4:0.0488451 5:0.442682 6:0.709215 
40 1:0.267141 2:0.384826 3:0.57 4:0.0395165 5:0.382605 6:0.699973 
40 1:0.220327 2:0.620972 3:0.59 4:0.0395165 5:0.47886 6:0.668992 
40 1:0.342241 2:0.542209 3:0.6 4:0.0722531 5:0.352434 6:0.716391 
40 1:0.467569 2:0.53314 3:0.61 4:0.0722531 5:0.354304 6:0.713939 
40 1:0.28821 2:0.542085 3:0.62 4:0.0395165 5:0.285127 6:0.745679 
40 1:0.267547 2:0.774602 3:0.63 4:0.0722531 5:0.287424 6:0.79414 
40 1:0.279618 2:0.540372 3:0.63 4:0.0722531 5:0.318068 6:0.729531 
40 1:0.287709 2:0.53966 3:0.64 4:0.0722531 5:0.304175 6:0.763609 
40 1:0.110516 2:0.377906 3:0.67 4:0.0395165 5:0.355145 6:0.717291 
40 1:0.115879 2:0.175456 3:0.68 4:0.0488451 5:0.335015 6:0.727728 
40 1:0.131553 2:0.314147 3:0.74 4:0.0395165 5:0.307577 6:0.757747 
40 1:0.0941836 2:0.268615 3:0.22549 4:0.079033 5:0.312627 6:0.705183 
40 1:0.269579 2:0.340696 3:0.235294 4:0.079033 5:0.336728 6:0.76804 
40 1:0.260073 2:0.35227 3:0.245098 4:0.079033 5:0.325002 6:0.759411 
18.61376906675684 1:0.055384 2:0.0734225 3:0.254902 4:0.0395165 5:0.0584707 6:0.819234 
40 1:0.0949849 2:0.426958 3:0.264706 4:0.102962 5:0.383941 6:0.724334 
40 1:0.146603 2:0.285944 3:0.264706 4:0.0395165 5:0.303756 6:0.755751 
40 1:0.0863222 2:0.415743 3:0.27451 4:0.0722531 5:0.417944 6:0.626621 
40 1:0.293201 2:0.501267 3:0.284314 4:0.123414 5:0.352274 6:0.76707 
40 1:0.27602 2:0.495179 3:0.284314 4:0.102962 5:0.373085 6:0.682564 
40 1:0.383315 2:0.382929 3:0.284314 4:0.0395165 5:0.310332 6:0.687087 
40 1:0.392249 2:0.397473 3:0.294118 4:0.0395165 5:0.303314 6:0.709262 
40 1:0.0484649 2:0.310006 3:0.343137 4:0.118549 5:0.320105 6:0.720307 
40 1:0.141368 2:0.392739 3:0.362745 4:0.0395165 5:0.316829 6:0.76516 
40 1:0.323024 2:0.595922 3:0.372549 4:0.0488451 5:0.551528 6:0.555716 
40 1:0.324425 2:0.488953 3:0.392157 4:0.118549 5:0.538908 6:0.709029 
40 1:0.599567 2:0.783927 3:0.392157 4:0.102962 5:0.54009 6:0.690487 
40 1:0.278138 2:0.294922 3:0.401961 4:0.0395165 5:0.343342 6:0.750338 
40 1:0.407287 2:0.405817 3:0.401961 4:0.118549 5:0.2515 6:0.723814 
40 1:0.571629 2:0.79579 3:0.401961 4:0.0722531 5:0.64141 6:0.622135 
40 1:0.458626 2:0.494534 3:0.421569 4:0.102962 5:0.299234 6:0.69041 
40 1:0.529091 2:0.494517 3:0.421569 4:0.0722531 5:0.558886 6:0.667913 
40 1:0.200462 2:0.437122 3:0.421569 4:0.0395165 5:0.320687 6:0.773144 
40 1:0.594844 2:0.815551 3:0.421569 4:0.0854457 5:0.493171 6:0.789692 
40 1:0.158627 2:0.245845 3:0.431373 4:0.0395165 5:0.331018 6:0.773345 
40 1:0.372956 2:0.415882 3:0.431373 4:0.0722531 5:0.275304 6:0.697385 
40 1:0.498437 2:0.505927 3:0.431373 4:0.0722531 5:0.391399 6:0.683405 
40 1:0.29911 2:0.670299 3:0.431373 4:0.0722531 5:0.5797 6:0.643593 
40 1:0.235077 2:0.300321 3:0.441176 4:0.0722531 5:0.323172 6:0.680314 
40 1:0.353485 2:0.426527 3:0.45098 4:0.102962 5:0.352639 6:0.622184 
40 1:0.342488 2:0.419041 3:0.460784 4:0.0722531 5:0.253438 6:0.750017 
40 1:0.0666051 2:0.216266 3:0.470588 4:0.118549 5:0.348284 6:0.777498 
40 1:0.207225 2:0.358227 3:0.470588 4:0.0488451 5:0.309306 6:0.706247 
40 1:0.27309 2:0.333094 3:0.470588 4:0.0395165 5:0.302246 6:0.766821 
40 1:0.450221 2:0.689848 3:0.480392 4:0.0163681 5:0.458251 6:0.69016 
40 1:0.18147 2:0.237217 3:0.490196 4:0.0488451 5:0.427341 6:0.744568 
40 1:0.392522 2:0.47187 3:0.490196 4:0.0395165 5:0.46454 6:0.677681 
40 1:0.418328 2:0.641855 3:0.490196 4:0.079033 5:0.680252 6:0.602784 
40 1:0.631404 2:0.696207 3:0.490196 4:0.0722531 5:0.380118 6:0.653514 
40 1:0.180413 2:0.228781 3:0.5 4:0.0395165 5:0.463507 6:0.730724 
40 1:0.3916 2:0.454352 3:0.5 4:0.0163681 5:0.466086 6:0.688624 
40 1:0.398628 2:0.633022 3:0.5 4:0.0488451 5:0.69662 6:0.474592 
40 1:0.635724 2:0.693825 3:0.5 4:0.0722531 5:0.394004 6:0.65524 
40 1:0.863708 2:0.852735 3:0.5 4:0.0722531 5:0.483658 6:0.745729 
40 1:0.300376 2:0.470405 3:0.509804 4:0.0722531 5:0.341434 6:0.646473 
40 1:0.405029 2:0.457021 3:0.509804 4:0.0395165 5:0.509254 6:0.654376 
40 1:0.493608 2:0.63248 3:0.509804 4:0.0395165 5:0.614841 6:0.490418 
40 1:0.0974271 2:0.272912 3:0.509804 4:0.0395165 5:0.41867 6:0.757721 
40 1:0.308561 2:0.465334 3:0.519608 4:0.0722531 5:0.295856 6:0.689881 
40 1:0.418969 2:0.461245 3:0.519608 4:0.0488451 5:0.53109 6:0.650544 
40 1:0.511767 2:0.634213 3:0.519608 4:0.0722531 5:0.616881 6:0.546861 
40 1:0.168415 2:0.244895 3:0.519608 4:0.0395165 5:0.375384 6:0.718985 
40 1:0.311233 2:0.462223 3:0.529412 4:0.0488451 5:0.307925 6:0.682714 
40 1:0.414699 2:0.448567 3:0.529412 4:0.0395165 5:0.485128 6:0.655135 
40 1:0.518489 2:0.640359 3:0.529412 4:0.0488451 5:0.698698 6:0.563257 
40 1:0.127978 2:0.237327 3:0.529412 4:0.079033 5:0.430358 6:0.696707 
40 1:0.183922 2:0.377965 3:0.529412 4:0.102962 5:0.215391 6:0.804106 
40 1:0.315115 2:0.463246 3:0.539216 4:0.0488451 5:0.278022 6:0.709945 
40 1:0.540964 2:0.651006 3:0.539216 4:0.0488451 5:0.613533 6:0.559281 
40 1:0.344861 2:0.40542 3:0.539216 4:0.0395165 5:0.359228 6:0.758177 
40 1:0.117067 2:0.204124 3:0.539216 4:0.0722531 5:0.298345 6:0.772556 
40 1:0.131502 2:0.253337 3:0.539216 4:0.102962 5:0.382808 6:0.736728 
40 1:0.211639 2:0.387203 3:0.54902 4:0.0395165 5:0.269406 6:0.759483 
40 1:0.561582 2:0.665855 3:0.54902 4:0.0722531 5:0.594122 6:0.594729 
40 1:0.363663 2:0.519738 3:0.54902 4:0.079033 5:0.480204 6:0.730159 
40 1:0.138169 2:0.252811 3:0.54902 4:0.0488451 5:0.370247 6:0.690869 
40 1:0.20204 2:0.360634 3:0.558824 4:0.0488451 5:0.268245 6:0.725848 
40 1:0.217987 2:0.371969 3:0.558824 4:0.079033 5:0.322729 6:0.689915 
40 1:0.306566 2:0.473813 3:0.558824 4:0.0722531 5:0.319112 6:0.667535 
40 1:0.378248 2:0.470531 3:0.558824 4:0.0488451 5:0.442682 6:0.709215 
40 1:0.580881 2:0.687654 3:0.558824 4:0.0722531 5:0.584446 6:0.632912 
40 1:0.466948 2:0.606667 3:0.558824 4:0.0395165 5:0.340124 6:0.764211 
40 1:0.249137 2:0.424515 3:0.568627 4:0.079033 5:0.36795 6:0.644435 
40 1:0.26955 2:0.457589 3:0.568627 4:0.0722531 5:0.344449 6:0.655781 
40 1:0.376782 2:0.470478 3:0.568627 4:0.0395165 5:0.397756 6:0.696857 
40 1:0.58782 2:0.600269 3:0.568627 4:0.0488451 5:0.331609 6:0.731241 
40 1:0.833402 2:0.873849 3:0.568627 4:0.0488451 5:0.587567 6:0.686803 
40 1:0.101599 2:0.377781 3:0.578431 4:0.0722531 5:0.278161 6:0.73811 
40 1:0.372304 2:0.463424 3:0.578431 4:0.0488451 5:0.366892 6:0.705381 
40 1:0.484326 2:0.712215 3:0.578431 4:0.0488451 5:0.531219 6:0.64572 
40 1:0.561688 2:0.602257 3:0.578431 4:0.0395165 5:0.321285 6:0.751141 
40 1:0.595671 2:0.596345 3:0.578431 4:0.0395165 5:0.26809 6:0.760836 
40 1:0.486526 2:0.717576 3:0.588235 4:0.0395165 5:0.45963 6:0.688298 
40 1:0.560518 2:0.614707 3:0.588235 4:0.0395165 5:0.30957 6:0.752653 
40 1:0.363375 2:0.593624 3:0.588235 4:0.0488451 5:0.27134 6:0.706382 
40 1:0.217981 2:0.41846 3:0.598039 4:0.0722531 5:0.307138 6:0.701885 
40 1:0.233464 2:0.417686 3:0.598039 4:0.102962 5:0.338886 6:0.646081 
40 1:0.537549 2:0.606605 3:0.598039 4:0.0488451 5:0.416527 6:0.711025 
40 1:0.42153 2:0.591175 3:0.598039 4:0.0488451 5:0.37879 6:0.726714 
40 1:0.230004 2:0.447134 3:0.607843 4:0.0854457 5:0.313986 6:0.727887 
40 1:0.232723 2:0.433926 3:0.607843 4:0.102962 5:0.359758 6:0.656341 
40 1:0.482659 2:0.604902 3:0.607843 4:0.0488451 5:0.342412 6:0.723422 
40 1:0.137943 2:0.459624 3:0.617647 4:0.102962 5:0.357202 6:0.717905 
40 1:0.171498 2:0.486281 3:0.617647 4:0.102962 5:0.322883 6:0.69523 
40 1:0.433885 2:0.600353 3:0.617647 4:0.0488451 5:0.29081 6:0.768062 
40 1:0.438083 2:0.59172 3:0.617647 4:0.0395165 5:0.285127 6:0.745679 
40 1:0.373921 2:0.413632 3:0.617647 4:0.0395165 5:0.319078 6:0.726775 
40 1:0.191242 2:0.510669 3:0.627451 4:0.0854457 5:0.307058 6:0.721499 
40 1:0.139291 2:0.480043 3:0.627451 4:0.0488451 5:0.213474 6:0.795672 
40 1:0.268816 2:0.580827 3:0.627451 4:0.102962 5:0.376295 6:0.693218 
40 1:0.753704 2:0.834994 3:0.627451 4:0.0722531 5:0.287424 6:0.79414 
40 1:0.470121 2:0.584322 3:0.627451 4:0.0488451 5:0.334001 6:0.74265 
40 1:0.243702 2:0.408146 3:0.627451 4:0.0163681 5:0.328475 6:0.742868 
40 1:0.0942171 2:0.163617 3:0.637255 4:0.0163681 5:0.436393 6:0.715914 
40 1:0.232659 2:0.543826 3:0.637255 4:0.102962 5:0.316395 6:0.711562 
40 1:0.162384 2:0.507834 3:0.637255 4:0.0488451 5:0.236889 6:0.746296 
40 1:0.27449 2:0.5832 3:0.637255 4:0.118549 5:0.334898 6:0.711324 
40 1:0.480105 2:0.589261 3:0.637255 4:0.0722531 5:0.304175 6:0.763609 
40 1:0.25732 2:0.402905 3:0.637255 4:0.0163681 5:0.323863 6:0.746177 
40 1:0.216633 2:0.523177 3:0.647059 4:0.102962 5:0.25259 6:0.749298 
40 1:0.175831 2:0.52083 3:0.647059 4:0.0488451 5:0.191417 6:0.740824 
40 1:0.134527 2:0.462401 3:0.656863 4:0.079033 5:0.207335 6:0.753602 
40 1:0.170641 2:0.515619 3:0.656863 4:0.0488451 5:0.215793 6:0.735377 
40 1:0.166617 2:0.247 3:0.656863 4:0.0163681 5:0.374712 6:0.751733 
40 1:0.367213 2:0.652764 3:0.656863 4:0.137207 5:0.366145 6:0.685254 
40 1:0.166263 2:0.459123 3:0.666667 4:0.0854457 5:0.241702 6:0.700053 
40 1:0.128017 2:0.489068 3:0.666667 4:0.0488451 5:0.193264 6:0.797221 
40 1:0.244149 2:0.459928 3:0.666667 4:0.0395165 5:0.355145 6:0.717291 
40 1:0.418824 2:0.695484 3:0.666667 4:0.102962 5:0.337086 6:0.69437 
40 1:0.192335 2:0.282493 3:0.666667 4:0.0395165 5:0.279155 6:0.766726 
40 1:0.0722529 2:0.414194 3:0.676471 4:0.0488451 5:0.22844 6:0.77996 
40 1:0.198197 2:0.224233 3:0.676471 4:0.0488451 5:0.335015 6:0.727728 
40 1:0.0521283 2:0.371357 3:0.686275 4:0.0395165 5:0.35274 6:0.733749 
40 1:0.0922797 2:0.215293 3:0.705882 4:0.0488451 5:0.425282 6:0.730357 
40 1:0.290098 2:0.505328 3:0.705882 4:0.0395165 5:0.277526 6:0.74988 
40 1:0.110718 2:0.188394 3:0.72549 4:0.0722531 5:0.356716 6:0.748128 
40 1:0.269675 2:0.442615 3:0.72549 4:0.0163681 5:0.348168 6:0.751035 
40 1:0.0520311 2:0.484081 3:0.735294 4:0.0722531 5:0.253615 6:0.748334 
40 1:0.150841 2:0.394055 3:0.735294 4:0.0395165 5:0.307577 6:0.757747 
40 1:0.212094 2:0.519999 3:0.735294 4:0.0395165 5:0.261798 6:0.756699 
40 1:0.232826 2:0.389866 3:0.745098 4:0.0395165 5:0.316249 6:0.74904 
40 1:0.153028 2:0.377165 3:0.784314 4:0.0395165 5:0.326164 6:0.763257 
40 1:0.168334 2:0.352633 3:0.803922 4:0.0163681 5:0.359793 6:0.73851 
40 1:0.133302 2:0.374459 3:0.823529 4:0.0395165 5:0.336733 6:0.769836 
40 1:0.206083 2:0.354907 3:0.313131 4:0.079033 5:0.400861 6:0.752866 
40 1:0.0256753 2:0.346828 3:0.323232 4:0.0854457 5:0.39501 6:0.760772 
40 1:0.164492 2:0.258417 3:0.333333 4:0.0854457 5:0.269336 6:0.771211 
40 1:0.216553 2:0.336002 3:0.343434 4:0.0722531 5:0.380816 6:0.762051 
40 1:0.0549102 2:0.452589 3:0.383838 4:0.0854457 5:0.428391 6:0.705999 
40 1:0.206579 2:0.315922 3:0.383838 4:0.079033 5:0.336831 6:0.72965 
40 1:0.165512 2:0.445686 3:0.40404 4:0.0722531 5:0.484015 6:0.685319 
40 1:0.111063 2:0.68119 3:0.424242 4:0.079033 5:0.501244 6:0.736134 
40 1:0.146324 2:0.322435 3:0.424242 4:0.0488451 5:0.341333 6:0.756987 
40 1:0.154537 2:0.31511 3:0.434343 4:0.0395165 5:0.323778 6:0.744848 
12.48746572930978 1:0.272471 2:0.393072 3:0.444444 4:0.0395165 5:0.286218 6:0.737959 
40 1:0.230863 2:0.366637 3:0.454545 4:0.0854457 5:0.224784 6:0.770255 
40 1:0.548081 2:0.774091 3:0.464646 4:0.0395165 5:0.542818 6:0.740908 
40 1:0.273165 2:0.372865 3:0.464646 4:0.079033 5:0.217231 6:0.773086 
40 1:0.546648 2:0.783254 3:0.474747 4:0.0722531 5:0.579525 6:0.745815 
40 1:0.143433 2:0.217026 3:0.484848 4:0.0722531 5:0.352514 6:0.742083 
40 1:0.350124 2:0.395002 3:0.525253 4:0.0722531 5:0.289651 6:0.771595 
40 1:0.24655 2:0.387823 3:0.525253 4:0.0395165 5:0.311657 6:0.763357 
40 1:0.396737 2:0.431119 3:0.525253 4:0.0395165 5:0.264514 6:0.762047 
40 1:0.0819784 2:0.197067 3:0.535354 4:0.0722531 5:0.355663 6:0.759878 
40 1:0.566232 2:0.560488 3:0.535354 4:0.0163681 5:0.30578 6:0.737142 
40 1:0.397591 2:0.562275 3:0.545455 4:0.0395165 5:0.322895 6:0.744099 
40 1:0.292606 2:0.479458 3:0.545455 4:0.079033 5:0.236891 6:0.781787 
40 1:0.338633 2:0.41331 3:0.545455 4:0.0395165 5:0.274631 6:0.778217 
40 1:0.330187 2:0.561688 3:0.555556 4:0.0395165 5:0.302903 6:0.717253 
40 1:0.211275 2:0.484035 3:0.555556 4:0.0722531 5:0.225934 6:0.763493 
40 1:0.36877 2:0.534796 3:0.565657 4:0.0722531 5:0.315463 6:0.734816 
40 1:0.220354 2:0.55523 3:0.585859 4:0.0854457 5:0.340916 6:0.732294 
40 1:0.302242 2:0.569386 3:0.59596 4:0.0163681 5:0.304743 6:0.758289 
40 1:0.236663 2:0.647316 3:0.646465 4:0.0395165 5:0.281348 6:0.764522 
40 1:0.0518156 2:0.476368 3:0.205882 4:0.118549 5:0.384516 6:0.671712 
40 1:0.346999 2:0.421157 3:0.313726 4:0.0722531 5:0.431251 6:0.705954 
40 1:0.378837 2:0.419241 3:0.323529 4:0.079033 5:0.423306 6:0.726385 
40 1:0.436014 2:0.49866 3:0.333333 4:0.0395165 5:0.443299 6:0.679272 
40 1:0.380466 2:0.42216 3:0.333333 4:0.0854457 5:0.39501 6:0.760772 
40 1:0.154887 2:0.199659 3:0.343137 4:0.158066 5:0.364991 6:0.747816 
40 1:0.297415 2:0.312782 3:0.343137 4:0.0854457 5:0.269336 6:0.771211 
40 1:0.228963 2:0.392826 3:0.352941 4:0.0722531 5:0.380816 6:0.762051 
40 1:0.38514 2:0.496753 3:0.372549 4:0.0395165 5:0.381692 6:0.759691 
40 1:0.339871 2:0.49341 3:0.382353 4:0.0488451 5:0.40438 6:0.729513 
40 1:0.27533 2:0.516068 3:0.382353 4:0.0722531 5:0.333393 6:0.707877 
40 1:0.302034 2:0.510593 3:0.392157 4:0.0722531 5:0.502824 6:0.682302 
40 1:0.291006 2:0.505553 3:0.392157 4:0.0854457 5:0.428391 6:0.705999 
40 1:0.312307 2:0.386106 3:0.392157 4:0.0488451 5:0.327122 6:0.724307 
40 1:0.267302 2:0.50435 3:0.401961 4:0.0854457 5:0.466185 6:0.630817 
40 1:0.46149 2:0.495171 3:0.401961 4:0.0722531 5:0.442628 6:0.706114 
40 1:0.27454 2:0.464852 3:0.411765 4:0.118549 5:0.299443 6:0.722452 
40 1:0.336647 2:0.505242 3:0.411765 4:0.118549 5:0.294089 6:0.754644 
40 1:0.256556 2:0.48408 3:0.411765 4:0.0722531 5:0.487214 6:0.649506 
40 1:0.458728 2:0.504591 3:0.411765 4:0.0488451 5:0.504046 6:0.681999 
40 1:0.240905 2:0.437244 3:0.421569 4:0.123414 5:0.31719 6:0.702381 
40 1:0.331451 2:0.503509 3:0.421569 4:0.079033 5:0.361675 6:0.741484 
40 1:0.32548 2:0.420201 3:0.431373 4:0.197582 5:0.339107 6:0.670516 
40 1:0.2706 2:0.393478 3:0.431373 4:0.079033 5:0.260646 6:0.763561 
40 1:0.386805 2:0.488411 3:0.431373 4:0.0854457 5:0.319262 6:0.691534 
40 1:0.439605 2:0.491102 3:0.431373 4:0.0488451 5:0.415839 6:0.640144 
40 1:0.519405 2:0.684836 3:0.431373 4:0.0395165 5:0.494625 6:0.6743 
40 1:0.351792 2:0.380457 3:0.431373 4:0.0488451 5:0.341333 6:0.756987 
40 1:0.612946 2:0.720356 3:0.441176 4:0.079033 5:0.619168 6:0.659299 
40 1:0.394727 2:0.378207 3:0.441176 4:0.0395165 5:0.323778 6:0.744848 
40 1:0.176565 2:0.387584 3:0.45098 4:0.123414 5:0.283028 6:0.717628 
40 1:0.465504 2:0.488057 3:0.45098 4:0.0488451 5:0.503535 6:0.613115 
40 1:0.574059 2:0.721541 3:0.45098 4:0.0854457 5:0.566565 6:0.61144 
40 1:0.564702 2:0.741027 3:0.45098 4:0.0488451 5:0.507764 6:0.710279 
40 1:0.57348 2:0.71939 3:0.45098 4:0.0395165 5:0.478271 6:0.677482 
40 1:0.301845 2:0.509959 3:0.460784 4:0.0488451 5:0.449998 6:0.599567 
40 1:0.426754 2:0.73263 3:0.460784 4:0.0488451 5:0.483227 6:0.691402 
40 1:0.335589 2:0.419134 3:0.460784 4:0.0854457 5:0.224784 6:0.770255 
40 1:0.442876 2:0.672201 3:0.470588 4:0.0163681 5:0.480358 6:0.685148 
40 1:0.444874 2:0.682998 3:0.470588 4:0.0395165 5:0.497668 6:0.653136 
40 1:0.448202 2:0.719078 3:0.470588 4:0.0722531 5:0.478906 6:0.643483 
40 1:0.524511 2:0.723267 3:0.470588 4:0.0395165 5:0.413191 6:0.671 
40 1:0.571436 2:0.835885 3:0.470588 4:0.0395165 5:0.542818 6:0.740908 
40 1:0.410108 2:0.420757 3:0.470588 4:0.079033 5:0.217231 6:0.773086 
40 1:0.438806 2:0.671054 3:0.480392 4:0.0395165 5:0.501241 6:0.688391 
40 1:0.445966 2:0.668504 3:0.480392 4:0.0395165 5:0.495525 6:0.632061 
40 1:0.615217 2:0.721615 3:0.480392 4:0.0488451 5:0.444342 6:0.687099 
40 1:0.570724 2:0.739749 3:0.480392 4:0.0488451 5:0.463365 6:0.689547 
40 1:0.55957 2:0.847019 3:0.480392 4:0.0722531 5:0.579525 6:0.745815 
40 1:0.27159 2:0.272586 3:0.490196 4:0.0722531 5:0.352514 6:0.742083 
40 1:0.440587 2:0.623129 3:0.490196 4:0.0395165 5:0.451228 6:0.636307 
40 1:0.439745 2:0.659041 3:0.490196 4:0.0488451 5:0.461749 6:0.57056 
40 1:0.517073 2:0.533397 3:0.490196 4:0.0395165 5:0.28923 6:0.725814 
40 1:0.625923 2:0.736838 3:0.5 4:0.0488451 5:0.467257 6:0.712382 
21.18967380383278 1:0.584342 2:0.733796 3:0.5 4:0.0163681 5:0.435192 6:0.557645 
40 1:0.472222 2:0.524813 3:0.509804 4:0.0722531 5:0.328955 6:0.743401 
40 1:0.37083 2:0.360461 3:0.519608 4:0.0395165 5:0.2878 6:0.753849 
40 1:0.436551 2:0.44628 3:0.529412 4:0.0722531 5:0.289651 6:0.771595 
40 1:0.36565 2:0.43564 3:0.529412 4:0.0395165 5:0.311657 6:0.763357 
40 1:0.55369 2:0.526385 3:0.529412 4:0.0395165 5:0.264514 6:0.762047 
40 1:0.228454 2:0.253828 3:0.539216 4:0.0722531 5:0.355663 6:0.759878 
40 1:0.583344 2:0.627437 3:0.539216 4:0.0163681 5:0.30578 6:0.737142 
40 1:0.588465 2:0.634306 3:0.54902 4:0.0395165 5:0.322895 6:0.744099 
40 1:0.468288 2:0.538861 3:0.54902 4:0.079033 5:0.236891 6:0.781787 
40 1:0.405142 2:0.470622 3:0.54902 4:0.0395165 5:0.274631 6:0.778217 
40 1:0.602992 2:0.655731 3:0.558824 4:0.0395165 5:0.302903 6:0.717253 
40 1:0.542731 2:0.549653 3:0.558824 4:0.0722531 5:0.225934 6:0.763493 
40 1:0.155422 2:0.395724 3:0.568627 4:0.0722531 5:0.291519 6:0.738868 
40 1:0.684058 2:0.620012 3:0.568627 4:0.0395165 5:0.333073 6:0.731322 
40 1:0.163959 2:0.40318 3:0.578431 4:0.0488451 5:0.325261 6:0.732243 
40 1:0.0902035 2:0.151279 3:0.578431 4:0.0488451 5:0.370522 6:0.771895 
40 1:0.64319 2:0.57489 3:0.578431 4:0.0395165 5:0.21871 6:0.76522 
40 1:0.639724 2:0.683029 3:0.578431 4:0.0488451 5:0.371775 6:0.6858 
40 1:0.156573 2:0.405625 3:0.588235 4:0.0395165 5:0.283004 6:0.76133 
40 1:0.62007 2:0.624457 3:0.588235 4:0.0854457 5:0.340916 6:0.732294 
40 1:0.626019 2:0.629737 3:0.598039 4:0.0163681 5:0.304743 6:0.758289 
40 1:0.397134 2:0.633577 3:0.607843 4:0.0854457 5:0.339222 6:0.709202 
40 1:0.194311 2:0.493755 3:0.617647 4:0.0488451 5:0.176827 6:0.787285 
40 1:0.400996 2:0.637965 3:0.617647 4:0.0395165 5:0.313206 6:0.739943 
40 1:0.278383 2:0.569042 3:0.627451 4:0.0488451 5:0.260559 6:0.736771 
40 1:0.160304 2:0.626209 3:0.637255 4:0.0488451 5:0.283607 6:0.716673 
40 1:0.179963 2:0.616654 3:0.647059 4:0.0488451 5:0.21093 6:0.743139 
40 1:0.678717 2:0.699299 3:0.647059 4:0.0395165 5:0.281348 6:0.764522 
40 1:0.179157 2:0.47055 3:0.656863 4:0.0395165 5:0.235629 6:0.722315 
40 1:0.216813 2:0.516949 3:0.656863 4:0.0395165 5:0.192114 6:0.786317 
40 1:0.29774 2:0.58579 3:0.656863 4:0.0488451 5:0.210764 6:0.783573 
40 1:0.129928 2:0.39166 3:0.686275 4:0.0395165 5:0.287814 6:0.72376 
40 1:0.190341 2:0.455245 3:0.686275 4:0.0488451 5:0.205783 6:0.803049 
40 1:0.0773158 2:0.23619 3:0.901961 4:0.0722531 5:0.395415 6:0.73178 
40 1:0.16821 2:0.299785 3:0.174312 4:0.0854457 5:0.361083 6:0.772074 
40 1:0.141822 2:0.34672 3:0.211009 4:0.128138 5:0.245764 6:0.783197 
40 1:0.189715 2:0.283326 3:0.211009 4:0.079033 5:0.263866 6:0.750522 
40 1:0.0321027 2:0.382074 3:0.211009 4:0.123414 5:0.34416 6:0.738886 
40 1:0.0514301 2:0.308549 3:0.220183 4:0.158066 5:0.404075 6:0.734641 
40 1:0.112407 2:0.368138 3:0.220183 4:0.0854457 5:0.294509 6:0.780438 
40 1:0.154202 2:0.303062 3:0.220183 4:0.079033 5:0.380983 6:0.766457 
40 1:0.0854738 2:0.235451 3:0.229358 4:0.0722531 5:0.299818 6:0.754597 
40 1:0.0372671 2:0.261165 3:0.275229 4:0.079033 5:0.343653 6:0.780446 
40 1:0.0330572 2:0.257834 3:0.275229 4:0.079033 5:0.336797 6:0.777113 
40 1:0.0397112 2:0.290761 3:0.284404 4:0.118549 5:0.426467 6:0.777439 
40 1:0.0473249 2:0.170683 3:0.293578 4:0.118549 5:0.444717 6:0.779971 
40 1:0.0535633 2:0.170131 3:0.302752 4:0.118549 5:0.444839 6:0.776071 
40 1:0.0858565 2:0.296664 3:0.311927 4:0.0722531 5:0.332076 6:0.74621 
40 1:0.153617 2:0.412126 3:0.321101 4:0.079033 5:0.367286 6:0.707391 
40 1:0.0665658 2:0.408639 3:0.321101 4:0.079033 5:0.34166 6:0.744228 
40 1:0.114833 2:0.339021 3:0.330275 4:0.0722531 5:0.320683 6:0.744871 
40 1:0.148296 2:0.277993 3:0.330275 4:0.102962 5:0.274525 6:0.786728 
40 1:0.173038 2:0.242118 3:0.33945 4:0.118549 5:0.273538 6:0.739286 
40 1:0.126267 2:0.289485 3:0.33945 4:0.079033 5:0.296469 6:0.785029 
40 1:0.0766476 2:0.218844 3:0.348624 4:0.0395165 5:0.366901 6:0.739501 
40 1:0.261823 2:0.302081 3:0.348624 4:0.118549 5:0.355424 6:0.756135 
40 1:0.0322581 2:0.724664 3:0.366972 4:0.184022 5:0.523177 6:0.699128 
40 1:0.0752221 2:0.556637 3:0.376147 4:0.0722531 5:0.403374 6:0.706317 
40 1:0.110104 2:0.262959 3:0.394495 4:0.0854457 5:0.345429 6:0.719614 
40 1:0.525763 2:0.54617 3:0.394495 4:0.0488451 5:0.397845 6:0.720479 
40 1:0.12903 2:0.345214 3:0.412844 4:0.102962 5:0.268672 6:0.759149 
40 1:0.0610996 2:0.33612 3:0.412844 4:0.0722531 5:0.405286 6:0.776286 
40 1:0.111878 2:0.498906 3:0.422018 4:0.0395165 5:0.395601 6:0.759613 
40 1:0.054645 2:0.284873 3:0.422018 4:0.0722531 5:0.449854 6:0.755809 
40 1:0.0196414 2:0.472243 3:0.431193 4:0.0854457 5:0.495195 6:0.723221 
40 1:0.053671 2:0.315837 3:0.431193 4:0.0395165 5:0.387425 6:0.771934 
40 1:0.104813 2:0.131994 3:0.449541 4:0.0395165 5:0.367719 6:0.747474 
40 1:0.489847 2:0.761081 3:0.458716 4:0.118549 5:0.56821 6:0.632844 
40 1:0.485607 2:0.772782 3:0.46789 4:0.102962 5:0.535264 6:0.649269 
40 1:0.488638 2:0.753432 3:0.477064 4:0.079033 5:0.544926 6:0.634203 
40 1:0.137016 2:0.314548 3:0.477064 4:0.0722531 5:0.270226 6:0.773626 
40 1:0.488115 2:0.780268 3:0.486239 4:0.079033 5:0.543896 6:0.662691 
40 1:0.139267 2:0.348372 3:0.486239 4:0.0722531 5:0.288914 6:0.768301 
40 1:0.100345 2:0.117265 3:0.495413 4:0.0488451 5:0.361434 6:0.725475 
40 1:0.488408 2:0.774677 3:0.495413 4:0.079033 5:0.489018 6:0.656973 
40 1:0.117113 2:0.346993 3:0.504587 4:0.0722531 5:0.356693 6:0.709143 
40 1:0.085792 2:0.116163 3:0.504587 4:0.0722531 5:0.423824 6:0.709571 
40 1:0.412432 2:0.766828 3:0.504587 4:0.0488451 5:0.526172 6:0.704455 
40 1:0.146981 2:0.304185 3:0.522936 4:0.0722531 5:0.272023 6:0.732393 
40 1:0.116924 2:0.528556 3:0.522936 4:0.079033 5:0.579483 6:0.590811 
40 1:0.0982348 2:0.537646 3:0.53211 4:0.0722531 5:0.536078 6:0.578861 
40 1:0.535085 2:0.77343 3:0.53211 4:0.079033 5:0.486442 6:0.615591 
40 1:0.375129 2:0.533541 3:0.53211 4:0.0488451 5:0.252471 6:0.797865 
40 1:0.0905001 2:0.556937 3:0.541284 4:0.0722531 5:0.520573 6:0.591173 
40 1:0.0922111 2:0.580283 3:0.550459 4:0.0722531 5:0.496818 6:0.610747 
40 1:0.123174 2:0.139899 3:0.559633 4:0.0488451 5:0.403402 6:0.696393 
40 1:0.0963914 2:0.579862 3:0.559633 4:0.0722531 5:0.509464 6:0.611673 
40 1:0.119432 2:0.374732 3:0.559633 4:0.0722531 5:0.241569 6:0.770822 
40 1:0.122837 2:0.363417 3:0.568807 4:0.079033 5:0.285435 6:0.736228 
40 1:0.466321 2:0.829602 3:0.568807 4:0.0722531 5:0.493576 6:0.654277 
40 1:0.127681 2:0.370921 3:0.568807 4:0.0854457 5:0.192373 6:0.77287 
40 1:0.121302 2:0.589383 3:0.577982 4:0.079033 5:0.521239 6:0.626348 
40 1:0.212662 2:0.336471 3:0.577982 4:0.102962 5:0.200156 6:0.76246 
40 1:0.319934 2:0.429929 3:0.577982 4:0.102962 5:0.130683 6:0.765579 
40 1:0.476691 2:0.826915 3:0.577982 4:0.0395165 5:0.49071 6:0.722177 
40 1:0.113306 2:0.322021 3:0.587156 4:0.079033 5:0.288184 6:0.725822 
40 1:0.456237 2:0.818082 3:0.587156 4:0.0722531 5:0.532218 6:0.690043 
40 1:0.271014 2:0.453006 3:0.587156 4:0.0488451 5:0.136536 6:0.770035 
40 1:0.0855615 2:0.283009 3:0.587156 4:0.0488451 5:0.339227 6:0.744209 
40 1:0.185751 2:0.384878 3:0.587156 4:0.079033 5:0.164134 6:0.79142 
40 1:0.127164 2:0.330264 3:0.59633 4:0.0722531 5:0.238057 6:0.746948 
40 1:0.149585 2:0.296074 3:0.59633 4:0.079033 5:0.28992 6:0.730749 
40 1:0.515681 2:0.793864 3:0.59633 4:0.079033 5:0.5147 6:0.692042 
40 1:0.179328 2:0.315303 3:0.605505 4:0.0854457 5:0.220971 6:0.74836 
40 1:0.619534 2:0.781708 3:0.605505 4:0.102962 5:0.494954 6:0.61813 
40 1:0.242626 2:0.355903 3:0.605505 4:0.0722531 5:0.240231 6:0.760394 
40 1:0.153707 2:0.222139 3:0.614679 4:0.0722531 5:0.319695 6:0.710856 
40 1:0.14548 2:0.298818 3:0.623853 4:0.0854457 5:0.22852 6:0.746905 
40 1:0.402209 2:0.755246 3:0.623853 4:0.0854457 5:0.406507 6:0.647757 
40 1:0.135908 2:0.295788 3:0.633027 4:0.102962 5:0.23126 6:0.753443 
40 1:0.221307 2:0.334921 3:0.633027 4:0.0722531 5:0.163876 6:0.774037 
40 1:0.607476 2:0.613976 3:0.633027 4:0.079033 5:0.241682 6:0.757409 
40 1:0.276353 2:0.707702 3:0.642202 4:0.102962 5:0.270301 6:0.749009 
40 1:0.0907696 2:0.249165 3:0.651376 4:0.0722531 5:0.258661 6:0.753602 
40 1:0.10065 2:0.103971 3:0.651376 4:0.0488451 5:0.325276 6:0.752307 
40 1:0.191945 2:0.33807 3:0.66055 4:0.0488451 5:0.215982 6:0.759746 
40 1:0.195862 2:0.329401 3:0.669725 4:0.0395165 5:0.227952 6:0.75411 
40 1:0.169433 2:0.470291 3:0.688073 4:0.0722531 5:0.0973388 6:0.775353 
40 1:0.116851 2:0.293513 3:0.688073 4:0.0395165 5:0.253684 6:0.755438 
40 1:0.0842245 2:0.114646 3:0.697248 4:0.0488451 5:0.373309 6:0.720101 
40 1:0.135243 2:0.303249 3:0.697248 4:0.0395165 5:0.22612 6:0.76117 
40 1:0.0832677 2:0.348293 3:0.706422 4:0.0395165 5:0.27575 6:0.771646 
40 1:0.127451 2:0.275897 3:0.706422 4:0.0722531 5:0.258892 6:0.741215 
40 1:0.132343 2:0.268328 3:0.715596 4:0.079033 5:0.259256 6:0.750109 
40 1:0.209388 2:0.435771 3:0.724771 4:0.0722531 5:0.177856 6:0.766987 
40 1:0.19237 2:0.399694 3:0.724771 4:0.0722531 5:0.194978 6:0.768016 
40 1:0.13055 2:0.231905 3:0.733945 4:0.0722531 5:0.210771 6:0.758599 
40 1:0.171517 2:0.312791 3:0.733945 4:0.0722531 5:0.248137 6:0.756639 
40 1:0.117878 2:0.493376 3:0.743119 4:0.0395165 5:0.228609 6:0.75032 
40 1:0.152027 2:0.450165 3:0.743119 4:0.0395165 5:0.132577 6:0.792629 
40 1:0.241323 2:0.413285 3:0.752294 4:0.0395165 5:0.224309 6:0.76242 
40 1:0.072347 2:0.233627 3:0.752294 4:0.0395165 5:0.280868 6:0.725896 
40 1:0.0892794 2:0.286518 3:0.761468 4:0.0395165 5:0.226721 6:0.765219 
40 1:0.112478 2:0.170052 3:0.770642 4:0.0722531 5:0.261687 6:0.706439 
40 1:0.177794 2:0.333759 3:0.770642 4:0.0395165 5:0.269809 6:0.741481 
40 1:0.0747112 2:0.137691 3:0.779817 4:0.0395165 5:0.304086 6:0.759662 
40 1:0.0938727 2:0.184517 3:0.944954 4:0.0488451 5:0.294327 6:0.734869 
40 1:0.0896988 2:0.180375 3:0.954128 4:0.0395165 5:0.273616 6:0.740869 
40 1:0.187725 2:0.308636 3:0.163636 4:0.102962 5:0.287037 6:0.799187 
40 1:0.219803 2:0.301574 3:0.172727 4:0.0722531 5:0.335207 6:0.801274 
40 1:0.172573 2:0.351447 3:0.181818 4:0.0722531 5:0.381371 6:0.763755 
40 1:0.258194 2:0.329334 3:0.190909 4:0.0854457 5:0.218227 6:0.78169 
40 1:0.156677 2:0.428344 3:0.2 4:0.102962 5:0.367856 6:0.775386 
40 1:0.185487 2:0.227411 3:0.209091 4:0.102962 5:0.286761 6:0.77388 
40 1:0.244233 2:0.306552 3:0.218182 4:0.0722531 5:0.28565 6:0.769964 
40 1:0.189753 2:0.329252 3:0.218182 4:0.079033 5:0.263866 6:0.750522 
40 1:0.211211 2:0.430661 3:0.218182 4:0.123414 5:0.34416 6:0.738886 
40 1:0.18498 2:0.226267 3:0.218182 4:0.0854457 5:0.327348 6:0.770067 
40 1:0.0514301 2:0.355737 3:0.227273 4:0.158066 5:0.404075 6:0.734641 
40 1:0.129234 2:0.416075 3:0.227273 4:0.0854457 5:0.294509 6:0.780438 
40 1:0.247835 2:0.351885 3:0.227273 4:0.0722531 5:0.395971 6:0.767236 
40 1:0.191926 2:0.426215 3:0.227273 4:0.0722531 5:0.323318 6:0.78018 
40 1:0.19037 2:0.227664 3:0.227273 4:0.0488451 5:0.325368 6:0.762726 
40 1:0.103413 2:0.347413 3:0.236364 4:0.0722531 5:0.299818 6:0.754597 
40 1:0.0900313 2:0.236127 3:0.236364 4:0.0395165 5:0.362652 6:0.738954 
40 1:0.0442811 2:0.348095 3:0.245455 5:0.0804261 6:0.809885 
40 1:0.138206 2:0.341839 3:0.245455 4:0.0854457 5:0.245896 6:0.753025 
40 1:0.142718 2:0.237402 3:0.245455 4:0.0395165 5:0.361633 6:0.732702 
40 1:0.252443 2:0.2732 3:0.263636 4:0.0395165 5:0.337997 6:0.751593 
40 1:0.192194 2:0.23754 3:0.263636 4:0.0722531 5:0.382804 6:0.758634 
40 1:0.168131 2:0.192612 3:0.272727 4:0.0488451 5:0.331871 6:0.735337 
40 1:0.147854 2:0.326604 3:0.281818 4:0.079033 5:0.343653 6:0.780446 
40 1:0.169506 2:0.308846 3:0.281818 4:0.079033 5:0.336797 6:0.777113 
40 1:0.161903 2:0.19752 3:0.281818 4:0.0854457 5:0.387728 6:0.70414 
40 1:0.116385 2:0.33753 3:0.290909 4:0.118549 5:0.426467 6:0.777439 
40 1:0.17383 2:0.233142 3:0.290909 4:0.0488451 5:0.291585 6:0.731228 
40 1:0.108435 2:0.20305 3:0.290909 4:0.0722531 5:0.286542 6:0.743683 
40 1:0.102152 2:0.26595 3:0.3 4:0.118549 5:0.444717 6:0.779971 
40 1:0.283796 2:0.292813 3:0.3 4:0.0488451 5:0.295423 6:0.782062 
40 1:0.378524 2:0.378921 3:0.3 4:0.0395165 5:0.365469 6:0.784208 
40 1:0.0870557 2:0.344256 3:0.309091 4:0.0722531 5:0.363043 6:0.739731 
40 1:0.0867679 2:0.268259 3:0.309091 4:0.118549 5:0.444839 6:0.776071 
40 1:0.272197 2:0.302618 3:0.309091 4:0.0488451 5:0.324131 6:0.754229 
40 1:0.202436 2:0.315305 3:0.309091 4:0.0395165 5:0.318393 6:0.739459 
40 1:0.37712 2:0.379478 3:0.309091 4:0.0395165 5:0.358024 6:0.779359 
40 1:0.0973139 2:0.408139 3:0.318182 4:0.0722531 5:0.332076 6:0.74621 
40 1:0.0906906 2:0.387383 3:0.318182 4:0.102962 5:0.375058 6:0.715526 
40 1:0.12674 2:0.317607 3:0.318182 4:0.0395165 5:0.360997 6:0.745791 
40 1:0.187585 2:0.311712 3:0.318182 4:0.0488451 5:0.333544 6:0.740667 
40 1:0.386309 2:0.381817 3:0.318182 4:0.0395165 5:0.329895 6:0.75172 
40 1:0.298312 2:0.458468 3:0.327273 4:0.079033 5:0.367286 6:0.707391 
40 1:0.123187 2:0.454582 3:0.327273 4:0.079033 5:0.34166 6:0.744228 
40 1:0.0641194 2:0.39914 3:0.327273 4:0.128138 5:0.464456 6:0.732016 
40 1:0.139674 2:0.200348 3:0.327273 4:0.0488451 5:0.31967 6:0.722925 
40 1:0.157818 2:0.332282 3:0.327273 4:0.0395165 5:0.349646 6:0.755417 
40 1:0.133123 2:0.387036 3:0.336364 4:0.0722531 5:0.320683 6:0.744871 
40 1:0.0652378 2:0.418186 3:0.336364 4:0.102962 5:0.403402 6:0.772641 
40 1:0.244016 2:0.333099 3:0.336364 4:0.102962 5:0.274525 6:0.786728 
40 1:0.176431 2:0.329087 3:0.345455 4:0.118549 5:0.273538 6:0.739286 
40 1:0.134736 2:0.348257 3:0.345455 4:0.079033 5:0.296469 6:0.785029 
40 1:0.0766476 2:0.2639 3:0.354545 4:0.0395165 5:0.366901 6:0.739501 
40 1:0.270015 2:0.347703 3:0.354545 4:0.118549 5:0.355424 6:0.756135 
40 1:0.252996 2:0.310855 3:0.372727 4:0.0722531 5:0.370221 6:0.713975 
40 1:0.112638 2:0.177407 3:0.372727 4:0.0722531 5:0.473121 6:0.713526 
40 1:0.502806 2:0.786533 3:0.372727 4:0.184022 5:0.523177 6:0.699128 
40 1:0.455045 2:0.539374 3:0.381818 4:0.0854457 5:0.354945 6:0.7592 
40 1:0.194117 2:0.362386 3:0.390909 4:0.0722531 5:0.237654 6:0.791529 
40 1:0.110104 2:0.354413 3:0.4 4:0.0854457 5:0.345429 6:0.719614 
40 1:0.272806 2:0.560056 3:0.418182 4:0.0488451 5:0.377143 6:0.753774 
40 1:0.113242 2:0.595071 3:0.418182 4:0.079033 5:0.482412 6:0.718061 
40 1:0.142996 2:0.400738 3:0.418182 4:0.102962 5:0.268672 6:0.759149 
40 1:0.0610996 2:0.383618 3:0.418182 4:0.0722531 5:0.405286 6:0.776286 
40 1:0.339208 2:0.55989 3:0.427273 4:0.0395165 5:0.395601 6:0.759613 
40 1:0.0977173 2:0.59213 3:0.427273 4:0.0854457 5:0.49522 6:0.70162 
40 1:0.179549 2:0.393434 3:0.427273 4:0.0854457 5:0.231667 6:0.770913 
40 1:0.054645 2:0.384876 3:0.427273 4:0.0722531 5:0.449854 6:0.755809 
40 1:0.333717 2:0.569951 3:0.436364 4:0.0854457 5:0.495195 6:0.723221 
40 1:0.325661 2:0.588783 3:0.436364 4:0.0488451 5:0.41875 6:0.668627 
40 1:0.0975682 2:0.59871 3:0.436364 4:0.118549 5:0.495355 6:0.695569 
40 1:0.196218 2:0.382769 3:0.436364 4:0.079033 5:0.239377 6:0.77953 
40 1:0.108731 2:0.179003 3:0.436364 4:0.0488451 5:0.332022 6:0.754852 
40 1:0.250364 2:0.570993 3:0.445455 4:0.0488451 5:0.420479 6:0.723024 
40 1:0.102457 2:0.598642 3:0.445455 4:0.123414 5:0.476292 6:0.691475 
40 1:0.114151 2:0.585762 3:0.454545 4:0.123414 5:0.447986 6:0.688359 
40 1:0.111889 2:0.177024 3:0.454545 4:0.0395165 5:0.367719 6:0.747474 
40 1:0.555139 2:0.84561 3:0.463636 4:0.128138 5:0.536199 6:0.813698 
40 1:0.123251 2:0.547501 3:0.463636 4:0.102962 5:0.413776 6:0.705998 
40 1:0.489847 2:0.82722 3:0.463636 4:0.118549 5:0.56821 6:0.632844 
40 1:0.136354 2:0.54443 3:0.472727 4:0.079033 5:0.359517 6:0.726849 
40 1:0.485607 2:0.828854 3:0.472727 4:0.102962 5:0.535264 6:0.649269 
40 1:0.551905 2:0.748676 3:0.472727 4:0.0488451 5:0.43741 6:0.740198 
40 1:0.0913181 2:0.187118 3:0.481818 4:0.0395165 5:0.346187 6:0.75463 
40 1:0.560804 2:0.837731 3:0.481818 4:0.0854457 5:0.623118 6:0.757124 
15.83199387896017 1:0.144287 2:0.544226 3:0.481818 4:0.0488451 5:0.307061 6:0.774682 
40 1:0.489785 2:0.832737 3:0.481818 4:0.079033 5:0.547788 6:0.613633 
40 1:0.137016 2:0.410127 3:0.481818 4:0.0722531 5:0.270226 6:0.773626 
40 1:0.530402 2:0.731452 3:0.481818 4:0.0488451 5:0.406834 6:0.765803 
40 1:0.397008 2:0.539309 3:0.481818 4:0.0395165 5:0.312817 6:0.739716 
40 1:0.488115 2:0.846296 3:0.490909 4:0.079033 5:0.543896 6:0.662691 
40 1:0.139267 2:0.408586 3:0.490909 4:0.0722531 5:0.288914 6:0.768301 
40 1:0.509676 2:0.727469 3:0.490909 4:0.079033 5:0.411496 6:0.801169 
40 1:0.316345 2:0.466429 3:0.490909 4:0.0722531 5:0.187688 6:0.759449 
40 1:0.207376 2:0.270632 3:0.490909 4:0.0395165 5:0.347653 6:0.785154 
40 1:0.100345 2:0.179728 3:0.5 4:0.0488451 5:0.361434 6:0.725475 
40 1:0.490075 2:0.859374 3:0.5 4:0.079033 5:0.506696 6:0.678087 
40 1:0.481248 2:0.760975 3:0.5 4:0.0488451 5:0.336888 6:0.775615 
40 1:0.129382 2:0.423331 3:0.509091 4:0.0722531 5:0.356693 6:0.709143 
40 1:0.085792 2:0.17488 3:0.509091 4:0.0722531 5:0.423824 6:0.709571 
40 1:0.301453 2:0.415714 3:0.509091 4:0.079033 5:0.153477 6:0.796726 
40 1:0.244439 2:0.44064 3:0.509091 4:0.0722531 5:0.172279 6:0.785981 
40 1:0.500991 2:0.860378 3:0.509091 4:0.0488451 5:0.526172 6:0.704455 
40 1:0.493807 2:0.753058 3:0.509091 4:0.079033 5:0.389884 6:0.834562 
40 1:0.474771 2:0.775506 3:0.509091 4:0.0722531 5:0.387008 6:0.797918 
40 1:0.275852 2:0.418775 3:0.518182 4:0.118549 5:0.296009 6:0.758133 
40 1:0.5079 2:0.856656 3:0.518182 4:0.079033 5:0.49034 6:0.697562 
40 1:0.49381 2:0.773137 3:0.518182 4:0.079033 5:0.367262 6:0.797628 
40 1:0.179597 2:0.360127 3:0.527273 4:0.0722531 5:0.272023 6:0.732393 
40 1:0.116924 2:0.588619 3:0.527273 4:0.079033 5:0.579483 6:0.590811 
40 1:0.513814 2:0.86552 3:0.527273 4:0.0488451 5:0.517703 6:0.666205 
40 1:0.488872 2:0.780256 3:0.527273 4:0.0722531 5:0.360021 6:0.798205 
40 1:0.0982348 2:0.58778 3:0.536364 4:0.0722531 5:0.536078 6:0.578861 
40 1:0.268945 2:0.461969 3:0.536364 4:0.0722531 5:0.260001 6:0.748672 
40 1:0.535641 2:0.866144 3:0.536364 4:0.079033 5:0.503651 6:0.651143 
40 1:0.418143 2:0.610909 3:0.536364 4:0.0488451 5:0.252471 6:0.797865 
40 1:0.0905001 2:0.61091 3:0.545455 4:0.0722531 5:0.520573 6:0.591173 
40 1:0.294393 2:0.459244 3:0.545455 4:0.0488451 5:0.223967 6:0.75567 
40 1:0.223669 2:0.55688 3:0.545455 4:0.0488451 5:0.217513 6:0.801135 
40 1:0.329 2:0.55941 3:0.545455 4:0.0395165 5:0.195325 6:0.753833 
40 1:0.123466 2:0.312233 3:0.554545 4:0.0395165 5:0.3169 6:0.731226 
40 1:0.258461 2:0.627686 3:0.554545 4:0.0722531 5:0.496818 6:0.610747 
40 1:0.334283 2:0.569424 3:0.554545 4:0.079033 5:0.32211 6:0.728077 
40 1:0.222594 2:0.557064 3:0.554545 4:0.0488451 5:0.258717 6:0.780746 
40 1:0.118553 2:0.430607 3:0.554545 4:0.0722531 5:0.127027 6:0.800154 
40 1:0.146104 2:0.18835 3:0.563636 4:0.0488451 5:0.403402 6:0.696393 
40 1:0.278113 2:0.645851 3:0.563636 4:0.0722531 5:0.509464 6:0.611673 
40 1:0.347632 2:0.514713 3:0.563636 4:0.0488451 5:0.26991 6:0.743937 
40 1:0.119432 2:0.428849 3:0.563636 4:0.0722531 5:0.241569 6:0.770822 
40 1:0.166629 2:0.41758 3:0.572727 4:0.079033 5:0.285435 6:0.736228 
40 1:0.346796 2:0.512573 3:0.572727 4:0.102962 5:0.219412 6:0.751737 
40 1:0.650896 2:0.878555 3:0.572727 4:0.0722531 5:0.493576 6:0.654277 
40 1:0.127681 2:0.424369 3:0.572727 4:0.0854457 5:0.192373 6:0.77287 
40 1:0.121302 2:0.665668 3:0.581818 4:0.079033 5:0.521239 6:0.626348 
40 1:0.212662 2:0.382429 3:0.581818 4:0.102962 5:0.200156 6:0.76246 
40 1:0.319934 2:0.489322 3:0.581818 4:0.102962 5:0.130683 6:0.765579 
40 1:0.680343 2:0.876835 3:0.581818 4:0.0395165 5:0.49071 6:0.722177 
40 1:0.127018 2:0.405847 3:0.590909 4:0.079033 5:0.288184 6:0.725822 
40 1:0.698334 2:0.869435 3:0.590909 4:0.0722531 5:0.532218 6:0.690043 
40 1:0.271014 2:0.49804 3:0.590909 4:0.0488451 5:0.136536 6:0.770035 
40 1:0.0855615 2:0.344004 3:0.590909 4:0.0488451 5:0.339227 6:0.744209 
40 1:0.190115 2:0.433628 3:0.590909 4:0.079033 5:0.164134 6:0.79142 
40 1:0.133538 2:0.411198 3:0.6 4:0.0722531 5:0.238057 6:0.746948 
40 1:0.149585 2:0.359553 3:0.6 4:0.079033 5:0.28992 6:0.730749 
40 1:0.0799333 2:0.276378 3:0.6 4:0.0722531 5:0.349009 6:0.715752 
40 1:0.680653 2:0.860396 3:0.6 4:0.079033 5:0.5147 6:0.692042 
40 1:0.0933839 2:0.252464 3:0.6 4:0.0854457 5:0.309186 6:0.745673 
40 1:0.204722 2:0.391388 3:0.609091 4:0.0854457 5:0.220971 6:0.74836 
40 1:0.619534 2:0.848278 3:0.609091 4:0.102962 5:0.494954 6:0.61813 
40 1:0.242626 2:0.41824 3:0.609091 4:0.0722531 5:0.240231 6:0.760394 
40 1:0.239936 2:0.313486 3:0.618182 4:0.0722531 5:0.319695 6:0.710856 
40 1:0.229606 2:0.328125 3:0.618182 4:0.118549 5:0.24078 6:0.734201 
40 1:0.14548 2:0.361678 3:0.627273 4:0.0854457 5:0.22852 6:0.746905 
40 1:0.402209 2:0.823861 3:0.627273 4:0.0854457 5:0.406507 6:0.647757 
40 1:0.135908 2:0.382879 3:0.636364 4:0.102962 5:0.23126 6:0.753443 
40 1:0.349322 2:0.412699 3:0.636364 4:0.0722531 5:0.163876 6:0.774037 
40 1:0.653534 2:0.674408 3:0.636364 4:0.079033 5:0.241682 6:0.757409 
40 1:0.0907696 2:0.324689 3:0.654545 4:0.0722531 5:0.258661 6:0.753602 
40 1:0.104345 2:0.151162 3:0.654545 4:0.0488451 5:0.325276 6:0.752307 
40 1:0.194043 2:0.400431 3:0.663636 4:0.0488451 5:0.215982 6:0.759746 
40 1:0.205779 2:0.398304 3:0.672727 4:0.0395165 5:0.227952 6:0.75411 
40 1:0.271231 2:0.524981 3:0.681818 4:0.0395165 5:0.219909 6:0.725944 
40 1:0.276104 2:0.524008 3:0.690909 4:0.0722531 5:0.0973388 6:0.775353 
40 1:0.145801 2:0.351004 3:0.690909 4:0.0395165 5:0.253684 6:0.755438 
40 1:0.0855344 2:0.190452 3:0.7 4:0.0488451 5:0.373309 6:0.720101 
40 1:0.135243 2:0.370372 3:0.7 4:0.0395165 5:0.22612 6:0.76117 
40 1:0.19073 2:0.536803 3:0.709091 4:0.0395165 5:0.274077 6:0.786429 
40 1:0.0832677 2:0.402195 3:0.709091 4:0.0395165 5:0.27575 6:0.771646 
40 1:0.129633 2:0.334217 3:0.709091 4:0.0722531 5:0.258892 6:0.741215 
40 1:0.132343 2:0.320103 3:0.718182 4:0.079033 5:0.259256 6:0.750109 
40 1:0.209388 2:0.485332 3:0.727273 4:0.0722531 5:0.177856 6:0.766987 
40 1:0.19237 2:0.449103 3:0.727273 4:0.0722531 5:0.194978 6:0.768016 
40 1:0.130569 2:0.308661 3:0.736364 4:0.0722531 5:0.210771 6:0.758599 
40 1:0.171853 2:0.388865 3:0.736364 4:0.0722531 5:0.248137 6:0.756639 
40 1:0.0692241 2:0.192627 3:0.736364 4:0.0722531 5:0.391142 6:0.756066 
40 1:0.0696391 2:0.175434 3:0.745455 4:0.0722531 5:0.390034 6:0.766121 
40 1:0.282369 2:0.539837 3:0.745455 4:0.0395165 5:0.228609 6:0.75032 
40 1:0.152885 2:0.515376 3:0.745455 4:0.0395165 5:0.132577 6:0.792629 
40 1:0.247166 2:0.463282 3:0.754545 4:0.0395165 5:0.224309 6:0.76242 
40 1:0.072347 2:0.346537 3:0.754545 4:0.0395165 5:0.280868 6:0.725896 
40 1:0.189145 2:0.387886 3:0.763636 4:0.0488451 5:0.289772 6:0.771739 
40 1:0.0892794 2:0.381768 3:0.763636 4:0.0395165 5:0.226721 6:0.765219 
40 1:0.112478 2:0.217198 3:0.772727 4:0.0722531 5:0.261687 6:0.706439 
40 1:0.209254 2:0.392948 3:0.772727 4:0.0395165 5:0.269809 6:0.741481 
40 1:0.0796001 2:0.17049 3:0.781818 4:0.0854457 5:0.340549 6:0.719447 
40 1:0.0747112 2:0.196625 3:0.781818 4:0.0395165 5:0.304086 6:0.759662 
40 1:0.274983 2:0.431123 3:0.8 4:0.0395165 5:0.308059 6:0.767287 
40 1:0.0959672 2:0.134437 3:0.809091 4:0.0395165 5:0.312545 6:0.727794 
40 1:0.0941621 2:0.251981 3:0.945455 4:0.0488451 5:0.294327 6:0.734869 
40 1:0.0898232 2:0.235954 3:0.954545 4:0.0395165 5:0.273616 6:0.740869 
40 1:0.235255 2:0.375076 3:0.371429 4:0.0722531 5:0.23961 6:0.765676 
40 1:0.272658 2:0.430748 3:0.380952 4:0.0488451 5:0.325624 6:0.710353 
40 1:0.258881 2:0.402207 3:0.514286 4:0.0722531 5:0.345253 6:0.717038 
40 1:0.292658 2:0.429658 3:0.52381 4:0.0488451 5:0.304703 6:0.754971 
40 1:0.305252 2:0.459423 3:0.542857 4:0.0395165 5:0.276861 6:0.760275 
40 1:0.303261 2:0.473339 3:0.552381 4:0.0488451 5:0.26915 6:0.749299 
40 1:0.317609 2:0.495656 3:0.561905 4:0.0488451 5:0.265541 6:0.756595 
40 1:0.369225 2:0.751568 3:0.561905 4:0.0488451 5:0.35161 6:0.797715 
40 1:0.29913 2:0.517263 3:0.571429 4:0.0722531 5:0.266248 6:0.732637 
40 1:0.237112 2:0.577942 3:0.619048 4:0.0488451 5:0.286722 6:0.783797 
40 1:0.228421 2:0.598186 3:0.628571 4:0.0722531 5:0.234248 6:0.75354 
40 1:0.174833 2:0.239262 3:0.17757 4:0.123414 5:0.321354 6:0.688665 
40 1:0.173558 2:0.267432 3:0.186916 4:0.0722531 5:0.295303 6:0.704377 
40 1:0.265909 2:0.267819 3:0.261682 4:0.0488451 5:0.270537 6:0.7837 
0.6428317003894455 1:0.0924814 2:0.321954 3:0.28972 4:0.118549 5:0.23707 6:0.782271 
40 1:0.442696 2:0.484222 3:0.383178 4:0.0488451 5:0.325624 6:0.710353 
40 1:0.405846 2:0.498488 3:0.401869 4:0.118549 5:0.297526 6:0.733649 
40 1:0.487893 2:0.641961 3:0.401869 4:0.0722531 5:0.521623 6:0.658105 
40 1:0.324317 2:0.497264 3:0.411215 4:0.0722531 5:0.315804 6:0.733242 
40 1:0.290897 2:0.475068 3:0.420561 4:0.0722531 5:0.293934 6:0.73649 
40 1:0.391028 2:0.626215 3:0.420561 4:0.0395165 5:0.497362 6:0.690193 
40 1:0.354815 2:0.659652 3:0.429907 4:0.0395165 5:0.434885 6:0.69762 
40 1:0.197179 2:0.393571 3:0.457944 4:0.0854457 5:0.285626 6:0.713015 
40 1:0.191163 2:0.386285 3:0.46729 4:0.079033 5:0.335543 6:0.701273 
40 1:0.456697 2:0.505487 3:0.46729 4:0.0395165 5:0.367776 6:0.701312 
40 1:0.368953 2:0.503281 3:0.476636 4:0.0395165 5:0.387903 6:0.693885 
40 1:0.151686 2:0.39143 3:0.485981 4:0.079033 5:0.348204 6:0.673888 
40 1:0.38529 2:0.508453 3:0.485981 4:0.0395165 5:0.367297 6:0.676493 
2.887577636519333 1:0.405422 2:0.49831 3:0.495327 4:0.0163681 5:0.305753 6:0.744961 
40 1:0.372699 2:0.493557 3:0.514019 4:0.0722531 5:0.345253 6:0.717038 
40 1:0.790451 2:0.83255 3:0.514019 4:0.0722531 5:0.475734 6:0.731101 
40 1:0.415912 2:0.509727 3:0.523364 4:0.0488451 5:0.304703 6:0.754971 
40 1:0.601596 2:0.725462 3:0.523364 4:0.0395165 5:0.345166 6:0.752491 
40 1:0.417939 2:0.508574 3:0.53271 4:0.0395165 5:0.3002 6:0.738806 
40 1:0.631204 2:0.734507 3:0.53271 4:0.0395165 5:0.383202 6:0.663321 
40 1:0.805656 2:0.848234 3:0.53271 4:0.0395165 5:0.601862 6:0.70168 
40 1:0.408432 2:0.513178 3:0.542056 4:0.0395165 5:0.276861 6:0.760275 
40 1:0.406856 2:0.526644 3:0.551402 4:0.0488451 5:0.26915 6:0.749299 
40 1:0.411381 2:0.550026 3:0.560748 4:0.0488451 5:0.265541 6:0.756595 
40 1:0.52763 2:0.805153 3:0.560748 4:0.0488451 5:0.35161 6:0.797715 
40 1:0.462899 2:0.568903 3:0.570093 4:0.0722531 5:0.266248 6:0.732637 
40 1:0.264707 2:0.422697 3:0.579439 4:0.158066 5:0.314271 6:0.658383 
40 1:0.168689 2:0.483488 3:0.598131 4:0.225568 5:0.307807 6:0.703824 
40 1:0.112412 2:0.438527 3:0.607477 4:0.079033 5:0.301226 6:0.704627 
40 1:0.532032 2:0.648157 3:0.616822 4:0.0488451 5:0.286722 6:0.783797 
40 1:0.527663 2:0.65469 3:0.626168 4:0.0722531 5:0.234248 6:0.75354 
40 1:0.301519 2:0.748046 3:0.64486 4:0.118549 5:0.242365 6:0.69841 
40 1:0.209957 2:0.785255 3:0.663551 4:0.079033 5:0.309317 6:0.740401 
40 1:0.171832 2:0.636694 3:0.672897 4:0.0395165 5:0.249508 6:0.756433 
40 1:0.191203 2:0.251131 3:0.25 4:0.102962 5:0.285362 6:0.747129 
40 1:0.18618 2:0.275279 3:0.26 4:0.079033 5:0.25329 6:0.7663 
40 1:0.0913596 2:0.291305 3:0.33 4:0.0854457 5:0.269366 6:0.788502 
40 1:0.0896374 2:0.151305 3:0.42 4:0.0395165 5:0.411549 6:0.75574 
40 1:0.124073 2:0.608456 3:0.43 4:0.0395165 5:0.512164 6:0.735787 
40 1:0.115717 2:0.154305 3:0.46 4:0.0395165 5:0.383343 6:0.772014 
40 1:0.082999 2:0.164289 3:0.47 4:0.0488451 5:0.408926 6:0.750662 
40 1:0.298254 2:0.518516 3:0.51 4:0.0395165 5:0.288848 6:0.751108 
40 1:0.285448 2:0.528255 3:0.53 4:0.0722531 5:0.293682 6:0.696382 
40 1:0.331682 2:0.537424 3:0.54 4:0.0488451 5:0.268361 6:0.729613 
40 1:0.323266 2:0.474444 3:0.54 4:0.0722531 5:0.202285 6:0.774576 
40 1:0.280561 2:0.54112 3:0.55 4:0.0395165 5:0.260281 6:0.748121 
40 1:0.0784695 2:0.236966 3:0.56 4:0.079033 5:0.319841 6:0.765147 
40 1:0.341333 2:0.504125 3:0.56 4:0.0722531 5:0.213763 6:0.770479 
40 1:0.384489 2:0.513819 3:0.57 4:0.0722531 5:0.229067 6:0.759787 
40 1:0.154557 2:0.471325 3:0.6 4:0.0488451 5:0.302725 6:0.740482 
40 1:0.18649 2:0.532759 3:0.63 4:0.102962 5:0.162529 6:0.768904 
40 1:0.196995 2:0.545689 3:0.64 4:0.0854457 5:0.235944 6:0.759345 
40 1:0.235299 2:0.384121 3:0.156863 4:0.079033 5:0.309325 6:0.756143 
40 1:0.226726 2:0.300227 3:0.264706 4:0.102962 5:0.285362 6:0.747129 
40 1:0.318563 2:0.335562 3:0.27451 4:0.079033 5:0.25329 6:0.7663 
40 1:0.371859 2:0.452016 3:0.284314 4:0.0722531 5:0.308663 6:0.718993 
40 1:0.440465 2:0.398208 3:0.343137 4:0.0722531 5:0.277888 6:0.716922 
40 1:0.312096 2:0.354841 3:0.343137 4:0.0854457 5:0.269366 6:0.788502 
40 1:0.256134 2:0.428088 3:0.372549 4:0.102962 5:0.388529 6:0.750846 
40 1:0.282427 2:0.320157 3:0.392157 4:0.0722531 5:0.241736 6:0.745074 
40 1:0.212998 2:0.28952 3:0.421569 4:0.0722531 5:0.254079 6:0.744076 
40 1:0.397416 2:0.644667 3:0.421569 4:0.0395165 5:0.44651 6:0.682057 
40 1:0.157566 2:0.22123 3:0.431373 4:0.0395165 5:0.411549 6:0.75574 
40 1:0.273047 2:0.335221 3:0.431373 4:0.0722531 5:0.340488 6:0.693959 
40 1:0.494355 2:0.66694 3:0.431373 4:0.0395165 5:0.469878 6:0.692205 
40 1:0.288836 2:0.349614 3:0.441176 4:0.0395165 5:0.320636 6:0.701597 
40 1:0.283966 2:0.666977 3:0.45098 4:0.0488451 5:0.556408 6:0.67849 
40 1:0.279234 2:0.644386 3:0.460784 4:0.0395165 5:0.467833 6:0.747271 
40 1:0.117511 2:0.230307 3:0.470588 4:0.0395165 5:0.383343 6:0.772014 
40 1:0.319895 2:0.565186 3:0.470588 4:0.0395165 5:0.302526 6:0.724182 
40 1:0.0848687 2:0.21561 3:0.480392 4:0.0488451 5:0.408926 6:0.750662 
40 1:0.366287 2:0.655245 3:0.480392 4:0.0163681 5:0.501672 6:0.64853 
40 1:0.242146 2:0.450388 3:0.480392 4:0.0395165 5:0.328057 6:0.722561 
40 1:0.421269 2:0.681146 3:0.490196 4:0.0488451 5:0.539468 6:0.61709 
40 1:0.383146 2:0.568322 3:0.490196 4:0.0395165 5:0.248892 6:0.756368 
40 1:0.47382 2:0.678023 3:0.5 4:0.102962 5:0.545581 6:0.662868 
40 1:0.498376 2:0.686289 3:0.509804 4:0.0722531 5:0.4643 6:0.688901 
40 1:0.386273 2:0.717052 3:0.519608 4:0.0395165 5:0.359807 6:0.766522 
40 1:0.325013 2:0.582166 3:0.519608 4:0.0395165 5:0.288848 6:0.751108 
40 1:0.418612 2:0.755514 3:0.529412 4:0.0395165 5:0.342902 6:0.770923 
40 1:0.476198 2:0.589481 3:0.529412 4:0.0488451 5:0.282939 6:0.732705 
40 1:0.411645 2:0.594932 3:0.539216 4:0.0488451 5:0.224805 6:0.743769 
40 1:0.539477 2:0.613357 3:0.539216 4:0.0722531 5:0.293682 6:0.696382 
40 1:0.106213 2:0.421529 3:0.54902 4:0.0722531 5:0.339333 6:0.712003 
40 1:0.566294 2:0.641138 3:0.54902 4:0.0163681 5:0.277029 6:0.74213 
40 1:0.4525 2:0.606811 3:0.54902 4:0.0488451 5:0.268361 6:0.729613 
40 1:0.367925 2:0.542678 3:0.54902 4:0.0722531 5:0.202285 6:0.774576 
40 1:0.155489 2:0.464222 3:0.558824 4:0.0722531 5:0.268097 6:0.714081 
40 1:0.483962 2:0.621047 3:0.558824 4:0.0395165 5:0.260281 6:0.748121 
40 1:0.48495 2:0.619121 3:0.558824 4:0.0395165 5:0.257726 6:0.73889 
40 1:0.195868 2:0.489945 3:0.568627 4:0.118549 5:0.27945 6:0.688628 
40 1:0.28157 2:0.408283 3:0.568627 4:0.0488451 5:0.26952 6:0.728618 
40 1:0.102759 2:0.304118 3:0.568627 4:0.0395165 5:0.297695 6:0.771059 
40 1:0.0784695 2:0.285095 3:0.568627 4:0.079033 5:0.319841 6:0.765147 
40 1:0.449443 2:0.573294 3:0.568627 4:0.0722531 5:0.213763 6:0.770479 
40 1:0.186753 2:0.48325 3:0.578431 4:0.118549 5:0.275012 6:0.699747 
40 1:0.447934 2:0.57505 3:0.578431 4:0.0722531 5:0.229067 6:0.759787 
40 1:0.183674 2:0.495576 3:0.588235 4:0.128138 5:0.259629 6:0.725785 
40 1:0.0700105 2:0.313578 3:0.598039 4:0.0395165 5:0.317609 6:0.768675 
40 1:0.237266 2:0.520934 3:0.607843 4:0.0488451 5:0.302725 6:0.740482 
40 1:0.304707 2:0.484615 3:0.607843 4:0.0395165 5:0.296562 6:0.730268 
40 1:0.21203 2:0.325161 3:0.627451 4:0.0395165 5:0.268156 6:0.784077 
40 1:0.262515 2:0.590845 3:0.637255 4:0.102962 5:0.162529 6:0.768904 
40 1:0.269551 2:0.531846 3:0.647059 4:0.0395165 5:0.1358 6:0.766024 
40 1:0.369607 2:0.649903 3:0.647059 4:0.0488451 5:0.202108 6:0.73535 
40 1:0.196995 2:0.597459 3:0.647059 4:0.0854457 5:0.235944 6:0.759345 
40 1:0.160066 2:0.40198 3:0.676471 4:0.0395165 5:0.298032 6:0.747736 
40 1:0.130515 2:0.657215 3:0.696078 4:0.0395165 5:0.312533 6:0.761454 
40 1:0.114974 2:0.375948 3:0.715686 4:0.0395165 5:0.34599 6:0.740076 
40 1:0.20527 2:0.363566 3:0.77451 4:0.0395165 5:0.290603 6:0.78012 
40 1:0.0590792 2:0.305841 3:0.813725 4:0.0163681 5:0.332007 6:0.758063 
40 1:0.0949188 2:0.321844 3:0.813725 4:0.0163681 5:0.352265 6:0.748584 
40 1:0.0920309 2:0.334613 3:0.892157 4:0.0488451 5:0.39953 6:0.744318 
40 1:0.0856078 2:0.32582 3:0.901961 4:0.0854457 5:0.441579 6:0.709694 
40 1:0.0921633 2:0.309447 3:0.911765 4:0.123414 5:0.434235 6:0.672309 
40 1:0.101139 2:0.283119 3:0.921569 4:0.079033 5:0.367462 6:0.625141 
40 1:0.19192 2:0.26371 3:0.189189 4:0.118549 5:0.243251 6:0.772197 
40 1:0.210458 2:0.228554 3:0.189189 4:0.0854457 5:0.23072 6:0.791932 
40 1:0.178718 2:0.275327 3:0.198198 4:0.137207 5:0.326816 6:0.739771 
40 1:0.186754 2:0.246418 3:0.198198 4:0.128138 5:0.292601 6:0.769228 
40 1:0.171295 2:0.279756 3:0.207207 4:0.173286 5:0.392623 6:0.708524 
40 1:0.157759 2:0.261557 3:0.207207 4:0.190902 5:0.339017 6:0.750231 
40 1:0.162248 2:0.252471 3:0.216216 4:0.225568 5:0.361315 6:0.73401 
40 1:0.171571 2:0.275697 3:0.216216 4:0.161979 5:0.401661 6:0.715279 
40 1:0.20272 2:0.260592 3:0.225225 4:0.158066 5:0.314956 6:0.765786 
40 1:0.232904 2:0.259067 3:0.225225 4:0.158066 5:0.379409 6:0.743975 
40 1:0.224875 2:0.251691 3:0.234234 4:0.118549 5:0.353666 6:0.761732 
40 1:0.212211 2:0.2409 3:0.234234 4:0.102962 5:0.327612 6:0.767701 
40 1:0.227571 2:0.328104 3:0.243243 4:0.0722531 5:0.2262 6:0.764286 
40 1:0.242513 2:0.233545 3:0.243243 4:0.102962 5:0.306559 6:0.772839 
40 1:0.219733 2:0.219991 3:0.243243 4:0.0854457 5:0.304701 6:0.775015 
40 1:0.229556 2:0.228701 3:0.252252 4:0.118549 5:0.260967 6:0.776183 
40 1:0.228721 2:0.229252 3:0.252252 4:0.102962 5:0.28653 6:0.788119 
40 1:0.244049 2:0.234353 3:0.261261 4:0.102962 5:0.257881 6:0.774375 
40 1:0.233584 2:0.221556 3:0.261261 4:0.079033 5:0.262887 6:0.792648 
40 1:0.252715 2:0.237913 3:0.27027 4:0.0722531 5:0.23177 6:0.7783 
40 1:0.0433453 2:0.350138 3:0.279279 4:0.102962 5:0.294568 6:0.778119 
40 1:0.048225 2:0.353029 3:0.288288 4:0.102962 5:0.286856 6:0.772167 
14.67623684303265 1:0.0425739 2:0.357521 3:0.324324 4:0.0722531 5:0.304145 6:0.746691 
40 1:0.31411 2:0.382319 3:0.36036 4:0.118549 5:0.33646 6:0.707222 
40 1:0.297168 2:0.398847 3:0.369369 4:0.0722531 5:0.320377 6:0.735989 
40 1:0.231474 2:0.372008 3:0.387387 4:0.118549 5:0.25088 6:0.755442 
40 1:0.263355 2:0.413748 3:0.396396 4:0.0722531 5:0.283393 6:0.756581 
40 1:0.19757 2:0.454921 3:0.441441 4:0.0395165 5:0.376005 6:0.696521 
40 1:0.20333 2:0.45595 3:0.45045 4:0.0488451 5:0.404467 6:0.68566 
40 1:0.209494 2:0.457194 3:0.459459 4:0.0395165 5:0.438251 6:0.701042 
40 1:0.167183 2:0.704404 3:0.459459 4:0.0395165 5:0.629188 6:0.73478 
40 1:0.186082 2:0.385462 3:0.459459 4:0.102962 5:0.310531 6:0.746092 
40 1:0.324803 2:0.360839 3:0.459459 4:0.0722531 5:0.27327 6:0.761996 
40 1:0.209796 2:0.464746 3:0.468468 4:0.0488451 5:0.429202 6:0.695006 
40 1:0.481496 2:0.785442 3:0.468468 4:0.079033 5:0.602109 6:0.676609 
40 1:0.188025 2:0.376489 3:0.468468 4:0.0854457 5:0.203109 6:0.772532 
40 1:0.210426 2:0.468278 3:0.477477 4:0.0488451 5:0.395527 6:0.695087 
40 1:0.248893 2:0.509146 3:0.477477 4:0.0488451 5:0.283497 6:0.779571 
40 1:0.203242 2:0.464531 3:0.486486 4:0.0488451 5:0.368471 6:0.682889 
40 1:0.25709 2:0.47418 3:0.495495 4:0.0488451 5:0.37585 6:0.707462 
40 1:0.127282 2:0.670468 3:0.495495 4:0.0488451 5:0.617733 6:0.591854 
40 1:0.167656 2:0.46046 3:0.495495 4:0.079033 5:0.222273 6:0.781268 
40 1:0.127419 2:0.641487 3:0.513514 4:0.0488451 5:0.624048 6:0.64462 
40 1:0.713277 2:0.834657 3:0.522523 4:0.0163681 5:0.582175 6:0.731845 
40 1:0.205495 2:0.455617 3:0.522523 4:0.0395165 5:0.317152 6:0.737789 
40 1:0.339043 2:0.524313 3:0.522523 4:0.0488451 5:0.255167 6:0.756479 
40 1:0.371008 2:0.533713 3:0.531532 4:0.0395165 5:0.324209 6:0.755799 
40 1:0.33303 2:0.496374 3:0.531532 4:0.0395165 5:0.272515 6:0.758437 
40 1:0.306137 2:0.462399 3:0.54955 4:0.0488451 5:0.199251 6:0.78791 
40 1:0.162651 2:0.695814 3:0.558559 4:0.0395165 5:0.49359 6:0.740254 
40 1:0.271346 2:0.590001 3:0.558559 4:0.0395165 5:0.323938 6:0.753588 
40 1:0.337531 2:0.468044 3:0.558559 4:0.0488451 5:0.19009 6:0.768871 
40 1:0.343338 2:0.491014 3:0.567568 4:0.0395165 5:0.244952 6:0.778399 
40 1:0.131494 2:0.493908 3:0.738739 4:0.0395165 5:0.345262 6:0.769152 
40 1:0.279618 2:0.312745 3:0.1875 4:0.118549 5:0.243251 6:0.772197 
40 1:0.26437 2:0.293209 3:0.1875 4:0.0854457 5:0.23072 6:0.791932 
40 1:0.267403 2:0.32844 3:0.196429 4:0.137207 5:0.326816 6:0.739771 
40 1:0.268906 2:0.305127 3:0.196429 4:0.128138 5:0.292601 6:0.769228 
40 1:0.253509 2:0.329133 3:0.205357 4:0.173286 5:0.392623 6:0.708524 
40 1:0.280712 2:0.316531 3:0.205357 4:0.161979 5:0.331433 6:0.737833 
40 1:0.269075 2:0.330124 3:0.214286 4:0.225568 5:0.361315 6:0.73401 
40 1:0.274159 2:0.330239 3:0.214286 4:0.161979 5:0.401661 6:0.715279 
40 1:0.262643 2:0.308408 3:0.223214 4:0.123414 5:0.31173 6:0.756788 
40 1:0.263018 2:0.309519 3:0.223214 4:0.158066 5:0.379409 6:0.743975 
40 1:0.260343 2:0.298871 3:0.232143 4:0.118549 5:0.353666 6:0.761732 
40 1:0.263443 2:0.290318 3:0.232143 4:0.102962 5:0.327612 6:0.767701 
40 1:0.260765 2:0.280972 3:0.241071 4:0.102962 5:0.306559 6:0.772839 
40 1:0.255576 2:0.280903 3:0.241071 4:0.0854457 5:0.304701 6:0.775015 
40 1:0.249428 2:0.283339 3:0.25 4:0.118549 5:0.260967 6:0.776183 
40 1:0.252571 2:0.278682 3:0.25 4:0.102962 5:0.28653 6:0.788119 
40 1:0.248195 2:0.278869 3:0.258929 4:0.102962 5:0.257881 6:0.774375 
40 1:0.249845 2:0.271733 3:0.258929 4:0.079033 5:0.262887 6:0.792648 
23.68705936129659 1:0.0946014 2:0.505484 3:0.267857 4:0.079033 5:0.377883 6:0.682012 
40 1:0.380785 2:0.409508 3:0.267857 4:0.079033 5:0.292419 6:0.737546 
40 1:0.254484 2:0.287138 3:0.267857 4:0.0722531 5:0.23177 6:0.7783 
40 1:0.435192 2:0.402986 3:0.276786 4:0.079033 5:0.318019 6:0.770545 
40 1:0.43513 2:0.400471 3:0.285714 4:0.102962 5:0.286856 6:0.772167 
40 1:0.430384 2:0.407891 3:0.294643 4:0.0854457 5:0.304686 6:0.760613 
40 1:0.254622 2:0.393572 3:0.294643 4:0.0488451 5:0.364848 6:0.742575 
40 1:0.326381 2:0.420901 3:0.303571 4:0.0488451 5:0.333334 6:0.733498 
40 1:0.375547 2:0.402748 3:0.303571 4:0.0488451 5:0.380971 6:0.726306 
40 1:0.32511 2:0.431028 3:0.3125 4:0.0722531 5:0.296563 6:0.74993 
40 1:0.39911 2:0.409464 3:0.3125 4:0.0722531 5:0.408242 6:0.73977 
40 1:0.34833 2:0.432815 3:0.321429 4:0.0488451 5:0.354199 6:0.741974 
40 1:0.438565 2:0.404925 3:0.321429 4:0.0395165 5:0.363468 6:0.774724 
40 1:0.431441 2:0.408662 3:0.330357 4:0.0395165 5:0.297168 6:0.760808 
40 1:0.29427 2:0.444073 3:0.339286 4:0.0722531 5:0.281938 6:0.730967 
40 1:0.375173 2:0.412503 3:0.339286 4:0.0488451 5:0.31506 6:0.775479 
40 1:0.314119 2:0.4255 3:0.348214 4:0.0395165 5:0.423155 6:0.740144 
40 1:0.288757 2:0.41593 3:0.357143 4:0.0488451 5:0.323636 6:0.763004 
40 1:0.375877 2:0.44408 3:0.357143 4:0.118549 5:0.33646 6:0.707222 
40 1:0.347246 2:0.449586 3:0.366071 4:0.0722531 5:0.320377 6:0.735989 
40 1:0.343044 2:0.423502 3:0.383929 4:0.118549 5:0.25088 6:0.755442 
40 1:0.249256 2:0.55728 3:0.392857 4:0.102962 5:0.362534 6:0.749002 
40 1:0.356921 2:0.459082 3:0.392857 4:0.0722531 5:0.283393 6:0.756581 
40 1:0.0535011 2:0.238967 3:0.410714 4:0.173286 5:0.369405 6:0.714095 
40 1:0.175504 2:0.572338 3:0.410714 4:0.0854457 5:0.347876 6:0.718065 
40 1:0.299201 2:0.556859 3:0.410714 4:0.0395165 5:0.419786 6:0.745515 
40 1:0.357043 2:0.474279 3:0.410714 4:0.0722531 5:0.259184 6:0.742899 
40 1:0.0798624 2:0.389756 3:0.419643 4:0.0395165 5:0.422564 6:0.73061 
40 1:0.122616 2:0.522811 3:0.419643 4:0.0854457 5:0.372665 6:0.746305 
40 1:0.187757 2:0.540577 3:0.419643 4:0.0854457 5:0.331054 6:0.749632 
40 1:0.215849 2:0.568159 3:0.419643 4:0.0722531 5:0.432162 6:0.715133 
40 1:0.597213 2:0.847991 3:0.419643 4:0.0488451 5:0.516778 6:0.822085 
40 1:0.288336 2:0.633234 3:0.419643 4:0.0488451 5:0.422707 6:0.687544 
40 1:0.0566686 2:0.370691 3:0.428571 4:0.0395165 5:0.377306 6:0.715063 
40 1:0.208949 2:0.390269 3:0.428571 4:0.0722531 5:0.314447 6:0.749441 
40 1:0.289368 2:0.639461 3:0.428571 4:0.0722531 5:0.546438 6:0.594381 
40 1:0.120556 2:0.200838 3:0.4375 4:0.0722531 5:0.323943 6:0.705301 
40 1:0.0988503 2:0.481069 3:0.4375 4:0.102962 5:0.408928 6:0.726806 
40 1:0.310805 2:0.522713 3:0.4375 4:0.0395165 5:0.376005 6:0.696521 
40 1:0.518427 2:0.825064 3:0.4375 4:0.0395165 5:0.527198 6:0.647012 
40 1:0.221637 2:0.38717 3:0.4375 4:0.0488451 5:0.327947 6:0.77037 
40 1:0.0873156 2:0.454464 3:0.446429 4:0.102962 5:0.384205 6:0.69738 
40 1:0.319784 2:0.520299 3:0.446429 4:0.0395165 5:0.425147 6:0.682146 
40 1:0.488818 2:0.816704 3:0.446429 4:0.0488451 5:0.519449 6:0.733966 
40 1:0.270247 2:0.683708 3:0.446429 4:0.0488451 5:0.501456 6:0.582472 
40 1:0.329942 2:0.524407 3:0.455357 4:0.0395165 5:0.443886 6:0.696902 
40 1:0.436238 2:0.762988 3:0.455357 4:0.0395165 5:0.626526 6:0.765386 
40 1:0.265972 2:0.374811 3:0.455357 4:0.0395165 5:0.360718 6:0.788906 
40 1:0.491867 2:0.841595 3:0.455357 4:0.0722531 5:0.604769 6:0.687233 
40 1:0.248817 2:0.548553 3:0.455357 4:0.0395165 5:0.317319 6:0.767879 
40 1:0.196003 2:0.439255 3:0.455357 4:0.102962 5:0.310531 6:0.746092 
40 1:0.337556 2:0.405051 3:0.455357 4:0.0722531 5:0.27327 6:0.761996 
40 1:0.341088 2:0.518703 3:0.464286 4:0.0395165 5:0.445012 6:0.685714 
40 1:0.43203 2:0.752722 3:0.464286 4:0.0395165 5:0.602766 6:0.697375 
40 1:0.305274 2:0.403225 3:0.464286 4:0.0395165 5:0.302711 6:0.720012 
40 1:0.326604 2:0.405529 3:0.464286 4:0.0395165 5:0.295406 6:0.76156 
40 1:0.637053 2:0.856201 3:0.464286 4:0.0722531 5:0.615041 6:0.678244 
40 1:0.299583 2:0.552615 3:0.464286 4:0.0488451 5:0.265871 6:0.778958 
40 1:0.199763 2:0.445338 3:0.464286 4:0.0854457 5:0.203109 6:0.772532 
40 1:0.090449 2:0.454183 3:0.473214 4:0.079033 5:0.394925 6:0.673367 
40 1:0.352623 2:0.521358 3:0.473214 4:0.0488451 5:0.395527 6:0.695087 
40 1:0.406994 2:0.738509 3:0.473214 4:0.0395165 5:0.565864 6:0.721847 
40 1:0.394772 2:0.69837 3:0.473214 4:0.0395165 5:0.548365 6:0.654726 
40 1:0.303723 2:0.413978 3:0.473214 4:0.0395165 5:0.32627 6:0.764139 
40 1:0.301005 2:0.564659 3:0.473214 4:0.0488451 5:0.283497 6:0.779571 
40 1:0.0996572 2:0.463564 3:0.482143 4:0.102962 5:0.377092 6:0.693363 
40 1:0.0916506 2:0.44453 3:0.482143 4:0.0395165 5:0.356759 6:0.762245 
40 1:0.338897 2:0.522606 3:0.482143 4:0.0488451 5:0.368471 6:0.682889 
40 1:0.403556 2:0.735267 3:0.482143 4:0.0395165 5:0.633128 6:0.642664 
40 1:0.301322 2:0.418879 3:0.482143 4:0.0163681 5:0.387017 6:0.755924 
40 1:0.719867 2:0.866898 3:0.482143 4:0.0722531 5:0.552979 6:0.742179 
40 1:0.307241 2:0.525957 3:0.491071 4:0.0488451 5:0.37585 6:0.707462 
40 1:0.330186 2:0.714203 3:0.491071 4:0.0488451 5:0.625662 6:0.606848 
40 1:0.286865 2:0.427536 3:0.491071 4:0.0395165 5:0.368147 6:0.742236 
40 1:0.356827 2:0.508974 3:0.491071 4:0.079033 5:0.222273 6:0.781268 
40 1:0.0929032 2:0.451753 3:0.5 4:0.079033 5:0.388226 6:0.697937 
40 1:0.340486 2:0.706019 3:0.5 4:0.0722531 5:0.583763 6:0.612191 
40 1:0.26897 2:0.44137 3:0.5 4:0.0395165 5:0.38815 6:0.745916 
40 1:0.565001 2:0.716086 3:0.5 4:0.0395165 5:0.416956 6:0.738737 
40 1:0.0716358 2:0.464383 3:0.508929 4:0.079033 5:0.408563 6:0.683584 
40 1:0.344502 2:0.701736 3:0.508929 4:0.0488451 5:0.624048 6:0.64462 
40 1:0.697366 2:0.909911 3:0.508929 4:0.0395165 5:0.590852 6:0.650706 
40 1:0.0532592 2:0.303105 3:0.517857 4:0.0722531 5:0.395765 6:0.727427 
40 1:0.0329373 2:0.371693 3:0.517857 4:0.079033 5:0.371172 6:0.72756 
40 1:0.111315 2:0.501124 3:0.517857 4:0.0854457 5:0.361826 6:0.7237 
40 1:0.127337 2:0.417398 3:0.517857 4:0.0395165 5:0.413326 6:0.742667 
40 1:0.72751 2:0.895118 3:0.517857 4:0.0163681 5:0.582175 6:0.731845 
40 1:0.205495 2:0.524104 3:0.517857 4:0.0395165 5:0.317152 6:0.737789 
40 1:0.339043 2:0.606746 3:0.517857 4:0.0488451 5:0.255167 6:0.756479 
40 1:0.230024 2:0.497517 3:0.517857 4:0.0722531 5:0.153864 6:0.767724 
40 1:0.0379377 2:0.329225 3:0.526786 4:0.0854457 5:0.378891 6:0.78016 
40 1:0.736121 2:0.921287 3:0.526786 4:0.0163681 5:0.527856 6:0.639531 
40 1:0.371008 2:0.612217 3:0.526786 4:0.0395165 5:0.324209 6:0.755799 
40 1:0.411483 2:0.553544 3:0.526786 4:0.0395165 5:0.272515 6:0.758437 
40 1:0.3019 2:0.528834 3:0.526786 4:0.0395165 5:0.359903 6:0.778138 
40 1:0.762386 2:0.925794 3:0.535714 4:0.0395165 5:0.582184 6:0.730121 
40 1:0.862616 2:0.929123 3:0.544643 4:0.0163681 5:0.557772 6:0.696714 
40 1:0.575995 2:0.637535 3:0.544643 4:0.0395165 5:0.32357 6:0.725315 
40 1:0.463261 2:0.516795 3:0.544643 4:0.0488451 5:0.199251 6:0.78791 
40 1:0.162651 2:0.757939 3:0.553571 4:0.0395165 5:0.49359 6:0.740254 
40 1:0.624518 2:0.651187 3:0.553571 4:0.0395165 5:0.323938 6:0.753588 
40 1:0.464458 2:0.525503 3:0.553571 4:0.0488451 5:0.19009 6:0.768871 
40 1:0.533388 2:0.566027 3:0.5625 4:0.0395165 5:0.244952 6:0.778399 
40 1:0.0448421 2:0.207409 3:0.598214 4:0.079033 5:0.346068 6:0.754142 
40 1:0.17105 2:0.854636 3:0.598214 4:0.0395165 5:0.517296 6:0.709414 
40 1:0.488864 2:0.628883 3:0.607143 4:0.0395165 5:0.286314 6:0.775828 
40 1:0.177706 2:0.385663 3:0.651786 5:0.42471 6:0.720863 
40 1:0.386101 2:0.560833 3:0.660714 4:0.0395165 5:0.338678 6:0.77981 
40 1:0.129736 2:0.216238 3:0.669643 4:0.0488451 5:0.329243 6:0.745077 
40 1:0.110513 2:0.254532 3:0.696429 4:0.0163681 5:0.384862 6:0.747079 
40 1:0.157881 2:0.300127 3:0.696429 5:0.488929 6:0.753306 
40 1:0.106701 2:0.257609 3:0.714286 4:0.0163681 5:0.350633 6:0.727893 
40 1:0.123061 2:0.754205 3:0.714286 4:0.079033 5:0.39031 6:0.774009 
40 1:0.170209 2:0.288235 3:0.732143 4:0.0163681 5:0.406874 6:0.685927 
40 1:0.219268 2:0.552022 3:0.732143 4:0.0395165 5:0.345262 6:0.769152 
40 1:0.141454 2:0.22198 3:0.785714 4:0.0163681 5:0.399593 6:0.710515 
40 1:0.0149367 2:0.228427 3:0.928571 4:0.0395165 5:0.313838 6:0.749 
40 1:0.0121757 2:0.24518 3:0.928571 4:0.0395165 5:0.314551 6:0.74159 
40 1:0.203177 2:0.251556 3:0.23 4:0.173286 5:0.207782 6:0.77999 
40 1:0.224614 2:0.231792 3:0.23 4:0.123414 5:0.199979 6:0.77873 
40 1:0.23392 2:0.230368 3:0.24 4:0.161979 5:0.226389 6:0.783852 
40 1:0.199859 2:0.397703 3:0.27 4:0.0722531 5:0.289821 6:0.791558 
40 1:0.0446348 2:0.441283 3:0.3 4:0.102962 5:0.380213 6:0.661264 
40 1:0.0288651 2:0.33931 3:0.33 4:0.079033 5:0.396971 6:0.768364 
40 1:0.276201 2:0.38511 3:0.36 4:0.102962 5:0.362716 6:0.778802 
40 1:0.261787 2:0.383703 3:0.37 4:0.0854457 5:0.354571 6:0.76978 
40 1:0.0802491 2:0.465792 3:0.39 4:0.0722531 5:0.444114 6:0.745458 
40 1:0.289799 2:0.396204 3:0.39 4:0.0854457 5:0.365781 6:0.771037 
40 1:0.288661 2:0.404103 3:0.4 4:0.0722531 5:0.261144 6:0.783387 
40 1:0.2775 2:0.74607 3:0.41 4:0.102962 5:0.418166 6:0.74584 
40 1:0.295394 2:0.409941 3:0.41 4:0.0488451 5:0.278088 6:0.775736 
40 1:0.339291 2:0.669258 3:0.42 4:0.0854457 5:0.477364 6:0.76763 
40 1:0.499274 2:0.799911 3:0.43 4:0.0395165 5:0.507226 6:0.698658 
40 1:0.100924 2:0.285189 3:0.44 4:0.0488451 5:0.350065 6:0.741738 
40 1:0.249215 2:0.472987 3:0.44 4:0.0395165 5:0.355193 6:0.784744 
40 1:0.313367 2:0.481819 3:0.44 4:0.0395165 5:0.380884 6:0.727198 
40 1:0.198225 2:0.373035 3:0.44 4:0.137207 5:0.29036 6:0.75918 
40 1:0.253179 2:0.482818 3:0.45 4:0.0722531 5:0.3081 6:0.775136 
40 1:0.503889 2:0.75054 3:0.46 4:0.0395165 5:0.43424 6:0.734828 
40 1:0.300103 2:0.480658 3:0.46 4:0.0488451 5:0.366623 6:0.759153 
40 1:0.242267 2:0.496124 3:0.46 4:0.0722531 5:0.321001 6:0.75904 
40 1:0.152437 2:0.296123 3:0.46 4:0.0488451 5:0.304835 6:0.762212 
40 1:0.387665 2:0.502266 3:0.47 4:0.0722531 5:0.219555 6:0.782251 
40 1:0.22086 2:0.352557 3:0.47 4:0.079033 5:0.303012 6:0.763801 
40 1:0.373309 2:0.819179 3:0.49 4:0.0488451 5:0.53398 6:0.739849 
40 1:0.291246 2:0.38181 3:0.5 4:0.0722531 5:0.252506 6:0.768349 
40 1:0.362476 2:0.46398 3:0.56 4:0.0395165 5:0.269262 6:0.760709 
40 1:0.350979 2:0.621658 3:0.61 4:0.0854457 5:0.223576 6:0.757535 
40 1:0.114647 2:0.390533 3:0.76 4:0.0163681 5:0.376017 6:0.757046 
40 1:0.258781 2:0.393857 3:0.15534 4:0.0722531 5:0.289317 6:0.776497 
40 1:0.0553686 2:0.250703 3:0.223301 4:0.118549 5:0.295762 6:0.734794 
40 1:0.174746 2:0.249116 3:0.242718 4:0.0395165 5:0.339644 6:0.742883 
40 1:0.273061 2:0.331336 3:0.242718 4:0.158066 5:0.216248 6:0.777658 
40 1:0.24634 2:0.279942 3:0.242718 4:0.123414 5:0.199979 6:0.77873 
40 1:0.251575 2:0.276214 3:0.252427 4:0.161979 5:0.226389 6:0.783852 
40 1:0.0225142 2:0.30471 3:0.262136 4:0.0722531 5:0.340761 6:0.712148 
40 1:0.0598488 2:0.5399 3:0.262136 4:0.102962 5:0.499978 6:0.716931 
40 1:0.0349324 2:0.325152 3:0.271845 4:0.118549 5:0.390094 6:0.662896 
40 1:0.338247 2:0.50219 3:0.271845 4:0.0854457 5:0.369519 6:0.724569 
40 1:0.0232029 2:0.29821 3:0.281553 4:0.137207 5:0.343742 6:0.731483 
40 1:0.324131 2:0.421722 3:0.281553 4:0.123414 5:0.289407 6:0.786194 
40 1:0.158421 2:0.365648 3:0.281553 4:0.0854457 5:0.3693 6:0.694024 
40 1:0.366989 2:0.433682 3:0.291262 4:0.102962 5:0.309489 6:0.746978 
40 1:0.0246061 2:0.306143 3:0.291262 4:0.118549 5:0.312365 6:0.735328 
40 1:0.0465137 2:0.381051 3:0.300971 4:0.158066 5:0.341201 6:0.747232 
40 1:0.310005 2:0.337161 3:0.320388 4:0.079033 5:0.247411 6:0.799089 
39.64751435993804 1:0.301426 2:0.344724 3:0.330097 4:0.0395165 5:0.275969 6:0.754299 
40 1:0.184255 2:0.420553 3:0.339806 4:0.079033 5:0.396971 6:0.768364 
40 1:0.280247 2:0.441255 3:0.368932 4:0.102962 5:0.362716 6:0.778802 
40 1:0.390514 2:0.512777 3:0.378641 4:0.118549 5:0.354227 6:0.722061 
40 1:0.415862 2:0.44378 3:0.378641 4:0.0854457 5:0.354571 6:0.76978 
40 1:0.212181 2:0.390826 3:0.38835 4:0.190902 5:0.339003 6:0.668602 
40 1:0.32139 2:0.473489 3:0.38835 4:0.137207 5:0.367636 6:0.745192 
40 1:0.179864 2:0.366353 3:0.398058 4:0.102962 5:0.346039 6:0.660576 
40 1:0.210706 2:0.424457 3:0.398058 4:0.237099 5:0.367333 6:0.669993 
40 1:0.403122 2:0.5328 3:0.398058 4:0.0722531 5:0.444114 6:0.745458 
40 1:0.419356 2:0.46976 3:0.398058 4:0.0854457 5:0.365781 6:0.771037 
40 1:0.297554 2:0.439962 3:0.407767 4:0.118549 5:0.318071 6:0.681877 
40 1:0.424493 2:0.479046 3:0.407767 4:0.0722531 5:0.261144 6:0.783387 
40 1:0.215913 2:0.343452 3:0.417476 4:0.118549 5:0.350182 6:0.653741 
40 1:0.553927 2:0.64711 3:0.417476 4:0.0488451 5:0.503667 6:0.587975 
40 1:0.204965 2:0.404409 3:0.427184 4:0.102962 5:0.352797 6:0.646794 
40 1:0.308508 2:0.458859 3:0.427184 4:0.079033 5:0.365118 6:0.677257 
40 1:0.749223 2:0.880001 3:0.427184 4:0.0722531 5:0.564307 6:0.71967 
40 1:0.411563 2:0.658162 3:0.427184 4:0.0722531 5:0.507448 6:0.587302 
40 1:0.516293 2:0.490581 3:0.427184 4:0.0395165 5:0.30574 6:0.768963 
40 1:0.186049 2:0.33682 3:0.436893 4:0.102962 5:0.339055 6:0.655658 
40 1:0.427767 2:0.674445 3:0.436893 4:0.079033 5:0.537845 6:0.584038 
40 1:0.215346 2:0.360248 3:0.446602 4:0.118549 5:0.3373 6:0.650942 
40 1:0.287568 2:0.354498 3:0.446602 4:0.0488451 5:0.350065 6:0.741738 
40 1:0.309096 2:0.398278 3:0.446602 4:0.0395165 5:0.304467 6:0.776156 
40 1:0.486223 2:0.538481 3:0.446602 4:0.0395165 5:0.380884 6:0.727198 
40 1:0.411168 2:0.425809 3:0.446602 4:0.137207 5:0.29036 6:0.75918 
40 1:0.206089 2:0.396966 3:0.456311 4:0.137207 5:0.36425 6:0.629748 
40 1:0.309449 2:0.397775 3:0.456311 4:0.0395165 5:0.337536 6:0.780823 
40 1:0.516045 2:0.547127 3:0.456311 4:0.0395165 5:0.330561 6:0.768134 
40 1:0.434476 2:0.545875 3:0.456311 4:0.0163681 5:0.397537 6:0.72594 
40 1:0.425876 2:0.426387 3:0.456311 4:0.0722531 5:0.225446 6:0.774594 
40 1:0.24332 2:0.432913 3:0.466019 4:0.0722531 5:0.363366 6:0.649383 
40 1:0.405496 2:0.553497 3:0.466019 4:0.0488451 5:0.366623 6:0.759153 
40 1:0.538733 2:0.568107 3:0.466019 4:0.0722531 5:0.321001 6:0.75904 
40 1:0.19014 2:0.375439 3:0.466019 4:0.0488451 5:0.304835 6:0.762212 
40 1:0.481879 2:0.554514 3:0.475728 4:0.0488451 5:0.255632 6:0.768838 
40 1:0.379926 2:0.421229 3:0.475728 4:0.079033 5:0.303012 6:0.763801 
40 1:0.731251 2:0.861493 3:0.485437 4:0.0395165 5:0.461144 6:0.733741 
40 1:0.556084 2:0.572506 3:0.485437 4:0.0722531 5:0.280533 6:0.739401 
40 1:0.865135 2:0.891315 3:0.495146 4:0.0395165 5:0.545058 6:0.738421 
40 1:0.137199 2:0.434525 3:0.504854 4:0.0488451 5:0.353562 6:0.718167 
40 1:0.463821 2:0.430672 3:0.504854 4:0.0722531 5:0.252506 6:0.768349 
40 1:0.145043 2:0.440427 3:0.514563 4:0.0488451 5:0.362063 6:0.714865 
40 1:0.861643 2:0.904026 3:0.524272 4:0.0395165 5:0.424118 6:0.695132 
40 1:0.187074 2:0.47241 3:0.533981 4:0.0722531 5:0.331291 6:0.68825 
40 1:0.149239 2:0.210009 3:0.533981 4:0.0163681 5:0.416612 6:0.750333 
40 1:0.141414 2:0.421712 3:0.543689 4:0.123414 5:0.280223 6:0.711921 
40 1:0.210674 2:0.490209 3:0.543689 4:0.0722531 5:0.287256 6:0.714999 
40 1:0.151229 2:0.420529 3:0.553398 4:0.102962 5:0.287532 6:0.71217 
40 1:0.0928848 2:0.406263 3:0.553398 4:0.0488451 5:0.32308 6:0.731165 
40 1:0.255526 2:0.517541 3:0.553398 4:0.0722531 5:0.348845 6:0.677367 
40 1:0.117388 2:0.419335 3:0.563107 4:0.0722531 5:0.258083 6:0.764118 
40 1:0.297829 2:0.546685 3:0.563107 4:0.102962 5:0.404806 6:0.701436 
40 1:0.325407 2:0.582149 3:0.563107 4:0.0395165 5:0.361032 6:0.700262 
40 1:0.470679 2:0.522421 3:0.563107 4:0.0395165 5:0.269262 6:0.760709 
40 1:0.230531 2:0.490937 3:0.572816 4:0.137207 5:0.395431 6:0.663118 
40 1:0.212802 2:0.507543 3:0.572816 4:0.079033 5:0.38588 6:0.699475 
40 1:0.0688148 2:0.237689 3:0.582524 4:0.0854457 5:0.288531 6:0.757207 
40 1:0.170128 2:0.445435 3:0.582524 4:0.137207 5:0.30684 6:0.718712 
40 1:0.16764 2:0.471483 3:0.582524 4:0.0488451 5:0.363752 6:0.761513 
40 1:0.384328 2:0.627804 3:0.582524 4:0.079033 5:0.334059 6:0.728469 
40 1:0.145998 2:0.4415 3:0.592233 4:0.161979 5:0.288858 6:0.727563 
40 1:0.308415 2:0.513791 3:0.61165 4:0.118549 5:0.292014 6:0.705347 
40 1:0.583501 2:0.671216 3:0.61165 4:0.0854457 5:0.223576 6:0.757535 
40 1:0.297009 2:0.519946 3:0.621359 4:0.079033 5:0.359032 6:0.719357 
40 1:0.109317 2:0.539169 3:0.631068 4:0.0488451 5:0.375066 6:0.722083 
40 1:0.18071 2:0.464729 3:0.757282 4:0.0163681 5:0.376017 6:0.757046 
40 1:0.181678 2:0.347044 3:0.757282 4:0.0163681 5:0.341583 6:0.782229 
40 1:0.132911 2:0.240639 3:0.76699 4:0.0163681 5:0.371375 6:0.724045 
40 1:0.283122 2:0.437525 3:0.76699 4:0.0395165 5:0.311843 6:0.71855 
40 1:0.243696 2:0.402991 3:0.796117 4:0.0395165 5:0.378066 6:0.748209 
40 1:0.090339 2:0.256492 3:0.796117 4:0.0395165 5:0.338181 6:0.733437 
40 1:0.0146151 2:0.295079 3:0.815534 4:0.0395165 5:0.387482 6:0.709714 
40 1:0.0342021 2:0.246813 3:0.854369 4:0.0395165 5:0.345325 6:0.76868 
30.05783165890314 1:0.129954 2:0.263718 3:0.313131 4:0.079033 5:0.23773 6:0.797629 
40 1:0.0645667 2:0.449507 3:0.373737 4:0.0722531 5:0.439481 6:0.74125 
40 1:0.0681394 2:0.454848 3:0.383838 4:0.0395165 5:0.457427 6:0.715398 
40 1:0.53823 2:0.866599 3:0.494949 4:0.0395165 5:0.5119 6:0.770403 
40 1:0.56247 2:0.865477 3:0.50505 4:0.0488451 5:0.546303 6:0.796622 
40 1:0.268505 2:0.589611 3:0.50505 4:0.0395165 5:0.354387 6:0.73897 
40 1:0.565811 2:0.865327 3:0.515152 4:0.0488451 5:0.436604 6:0.779373 
40 1:0.612641 2:0.589366 3:0.525253 4:0.0395165 5:0.327339 6:0.72642 
